1240 301
the -0.016188 0.212558 -0.451258 -0.045579 -0.534037 0.065176 -0.135394 -0.099321 -0.003247 -0.060429 -0.206216 0.226645 -0.033395 0.063371 -0.016081 0.134619 0.448225 -0.046662 0.096278 0.032989 -0.287731 0.162645 0.037318 0.160383 0.050596 0.148628 -0.171131 0.030666 0.115004 0.026250 0.262802 0.052668 -0.042764 -0.074009 -0.195678 0.367606 0.019825 -0.037065 -0.014743 0.061218 0.093551 -0.212202 0.071933 -0.154937 0.116943 -0.464327 -0.294780 0.045386 -0.103371 0.014389 0.330525 0.098123 -0.192076 0.298924 -0.018654 0.149216 0.228351 -0.390566 0.019041 -0.326344 0.075825 -0.146480 0.122832 -0.008936 -0.010791 -0.140558 -0.148879 -0.026895 0.079392 0.113776 -0.164183 0.172061 0.079527 0.002434 0.367674 -0.012277 0.002314 -0.189239 0.211977 0.172325 -0.060679 -0.203323 0.062853 0.078186 0.059150 0.028238 -0.131669 -0.027141 0.030675 -0.075732 0.151694 0.137338 -0.254226 0.004920 0.073694 0.047708 0.055539 0.244456 0.297559 -0.225477 -0.037858 0.245368 -0.021044 -0.045254 -0.119524 0.086252 -0.001683 0.081863 -0.143360 -0.069627 -0.333258 0.036286 0.161728 -0.119170 0.052004 0.016341 0.051238 -0.185320 -0.033464 -0.272277 -0.026653 -0.160871 -0.067797 0.055450 0.009998 0.061479 -0.255865 -0.114335 0.157213 0.127314 -0.138902 0.329878 0.053377 -0.057060 -0.027946 0.293392 0.321151 0.047516 -0.314654 0.008971 0.187648 -0.228069 0.098440 0.113863 -0.211073 -0.049047 -0.202103 0.090543 0.002993 0.203981 -0.049708 0.137790 -0.228835 -0.040147 0.067380 0.076808 0.078932 0.021644 0.127794 -0.163239 -0.283688 -0.069003 0.135805 -0.248315 0.090065 -0.212752 0.013336 -0.037113 0.006396 0.021864 -0.250930 -0.084181 -0.176196 -0.231274 -0.357429 0.050072 0.018978 -0.224987 -0.101915 -0.162948 -0.022297 0.287528 -0.237310 -0.083518 -0.011246 0.098654 -0.123791 0.079113 -0.103088 -0.096999 -0.030307 0.022079 0.328290 0.127655 -0.074368 0.325719 0.158452 -0.232262 0.217060 0.397973 0.107660 -0.135380 0.227198 0.057370 -0.354317 0.296385 0.094507 -0.012755 -0.351742 -0.052420 -0.072954 0.177508 -0.054804 0.351256 0.270749 -0.139889 -0.245403 0.082229 0.101814 0.061202 0.147038 -0.329920 -0.043767 0.005754 0.159749 0.137223 0.010720 0.132594 0.099533 0.039005 0.349834 0.063847 0.454108 -0.298825 0.195345 -0.042910 -0.234813 0.145202 0.125474 0.003327 -0.026688 0.246841 -0.098218 -0.096451 -0.029607 -0.044456 0.139927 -0.159029 0.089803 -0.144919 -0.173043 0.027037 -0.051656 -0.161637 0.229845 0.133931 0.096211 -0.143095 0.155346 -0.337202 -0.014880 0.113425 -0.164190 -0.011938 0.044114 0.227373 -0.045385 -0.163506 0.104715 0.015162 -0.253208 -0.154602 0.139352 -0.195669 0.060522 -0.010155 0.086173 0.012444 0.185631 -0.034914 -0.090189 -0.134544 0.027035 -0.119043 0.158384 -0.088964 -0.161580 0.101928 0.212101 -0.058934 0.056017 -0.177110 -0.092640 0.120945 -0.247914 -0.160166 -0.140312 0.145784 -0.163379 -0.088668 4.432622
of -0.241234 -0.053867 -0.144766 -0.454253 -0.625153 -0.011891 0.089170 -0.041903 0.072141 0.082299 -0.204362 0.312225 0.050320 -0.044783 0.244688 0.040204 0.213139 0.285125 -0.128444 -0.176167 -0.222133 0.336594 -0.389890 0.188188 0.178497 -0.076339 -0.023542 -0.275161 0.046044 0.131680 -0.038389 0.095534 0.164215 0.379301 0.176306 0.312647 0.051922 -0.042955 -0.178978 0.065412 0.072492 -0.128140 0.329702 -0.463168 -0.138273 -0.363660 0.108331 -0.034033 -0.283776 0.080172 0.149448 -0.246101 -0.314929 -0.151712 -0.024452 0.286575 -0.049079 -0.183184 -0.058371 -0.218962 -0.143670 -0.201764 0.153983 0.207072 -0.116948 -0.022297 -0.163342 0.148743 -0.085334 -0.079372 -0.147155 0.089332 -0.283728 -0.138485 0.368889 0.374617 0.299827 0.020923 0.162390 0.227241 -0.225785 -0.163214 0.094090 -0.026914 0.064462 -0.037041 0.044527 -0.248216 -0.209915 -0.118690 0.242533 0.142424 0.065577 0.164327 -0.139922 0.131675 -0.004920 -0.069699 -0.015537 0.131202 0.253341 -0.056698 -0.085195 -0.097583 -0.188650 -0.137571 -0.118825 -0.268908 -0.102154 -0.275750 -0.169189 -0.135920 0.200576 0.132324 -0.067524 0.046233 0.041733 0.072252 -0.112236 -0.160531 -0.015340 -0.019219 0.158223 0.088126 0.113926 -0.318378 -0.044773 -0.361837 0.267768 0.086671 0.176859 -0.043615 -0.001429 -0.067303 0.280090 0.012970 0.262009 0.052561 -0.081838 0.042824 0.326010 -0.393339 0.175236 0.246887 -0.159690 -0.144997 -0.132737 0.057526 0.084049 0.057463 0.093200 -0.216865 -0.171188 -0.044191 -0.121022 0.363399 -0.043140 -0.147047 -0.277963 -0.067006 -0.208603 -0.053382 0.234501 -0.328046 -0.213305 0.079057 0.085884 0.136213 0.173431 -0.034107 -0.054647 0.155138 -0.115665 -0.136940 -0.418713 0.021669 -0.016510 0.049627 -0.008395 -0.332189 -0.102839 0.272070 -0.190429 0.164247 -0.133723 -0.072011 0.134313 -0.055570 -0.048046 -0.020093 -0.152158 0.024977 0.327215 0.301549 -0.178092 0.396109 -0.118581 -0.308216 0.387451 0.250542 -0.162534 -0.295848 -0.168518 -0.118787 -0.099531 0.051917 0.206251 0.023841 -0.128204 -0.125102 0.018869 0.215767 0.216472 0.060482 0.300438 0.170518 -0.491478 -0.021556 -0.000603 -0.251019 0.075701 -0.307002 0.168217 0.102439 0.338655 0.149372 -0.024326 0.242738 0.102210 -0.015154 0.148797 -0.062627 0.192974 -0.354483 0.213735 -0.205122 -0.015750 -0.189950 0.009750 -0.272127 -0.255067 0.132253 -0.076149 0.240498 -0.115289 -0.197167 -0.201605 0.243564 -0.118260 -0.088096 -0.294304 0.404681 0.016269 0.075468 0.207245 -0.084995 -0.059292 -0.207915 0.213962 -0.084897 0.114602 -0.131976 -0.072915 0.005304 0.096114 0.129084 -0.182236 0.037062 -0.073966 0.281777 -0.448350 -0.043886 -0.133897 0.008201 0.423039 0.136208 -0.213941 0.247900 0.030968 0.272829 0.306753 0.032080 0.024085 0.026539 -0.195385 0.110729 0.044459 0.032940 0.203835 -0.201490 -0.133270 -0.421065 -0.114934 0.010869 -0.118189 0.045467 -0.148757 0.101922 -0.128405 0.131863 3.837176
and -0.071437 0.241355 -0.316245 -0.297717 -0.093150 0.174794 0.060604 0.056012 -0.154403 -0.101115 -0.070257 0.052523 0.036153 0.148212 -0.019078 -0.023194 0.019382 0.075199 -0.182776 -0.048983 -0.326596 0.136269 0.147908 0.112439 -0.143287 -0.021502 0.006527 -0.170768 0.086847 0.093751 0.038560 -0.192488 -0.070527 -0.008725 0.057415 -0.132579 -0.057834 -0.029196 -0.148451 -0.195799 -0.093887 -0.160760 0.055780 -0.091230 0.093339 -0.234652 -0.015484 -0.044908 -0.000853 0.018443 0.059735 0.164609 0.061290 0.031605 0.165026 -0.229018 -0.014696 -0.022987 -0.002667 0.046179 0.255486 -0.140188 0.228117 -0.261087 -0.025658 -0.047099 -0.290066 -0.025645 0.123020 -0.117299 -0.079884 0.116377 -0.026778 -0.016110 -0.049069 0.077056 -0.079985 0.278909 0.353282 0.010637 0.010058 -0.235476 -0.007353 0.003568 0.094040 -0.207404 0.265828 -0.181044 0.050116 0.039762 0.021761 0.128531 -0.070807 0.021870 -0.028320 -0.038516 -0.009568 -0.293755 0.280686 0.234123 -0.059439 -0.010142 -0.047328 0.250192 0.108189 -0.114901 -0.115685 0.181923 -0.206311 -0.135766 -0.194229 -0.121657 -0.150883 0.087206 0.001408 0.152613 0.015455 0.240906 -0.031174 -0.199129 0.159596 -0.233968 0.096068 0.012064 0.097293 -0.060327 -0.019277 -0.271394 -0.021505 -0.062345 0.198284 -0.145940 -0.049637 -0.251921 0.087573 0.221730 0.019338 -0.051296 0.045387 0.097383 -0.006283 -0.096279 0.031751 0.095829 -0.050700 0.064707 -0.183118 -0.128848 -0.237099 0.073921 0.192666 0.169904 -0.196573 0.077781 0.026949 0.523639 0.055928 0.060928 0.018543 -0.144485 -0.084850 -0.028151 0.262605 -0.095335 0.144883 0.080387 -0.180155 0.073751 0.016637 -0.048156 0.075227 0.132954 -0.068666 -0.090736 0.060620 -0.090474 0.013774 -0.267733 -0.229971 -0.170150 -0.068313 -0.056492 0.001840 0.179645 -0.041630 0.121725 0.105829 -0.101009 0.095567 0.122586 -0.097096 -0.050699 0.284674 0.162165 -0.094302 -0.004306 0.069076 -0.041511 0.308229 0.046835 0.020944 -0.291136 -0.100798 0.169696 -0.083464 -0.094649 0.184099 -0.014534 -0.252892 0.060641 0.122781 0.175873 -0.180799 0.169335 0.106326 -0.124691 -0.397783 -0.080133 -0.025736 0.227670 0.213328 -0.043785 -0.135312 -0.129512 -0.107953 0.078158 0.170093 0.113164 0.124924 -0.298617 0.190253 -0.028358 0.324616 -0.036133 0.088593 -0.160870 -0.202113 0.030010 0.016873 -0.072031 0.137109 -0.121824 -0.111400 0.114794 0.013354 -0.194515 0.157531 0.020968 -0.072122 0.167536 -0.159856 -0.134949 -0.089391 0.095985 0.096816 -0.102144 0.175510 -0.103188 0.098723 -0.209175 0.420151 0.135277 -0.204907 -0.087439 0.185350 0.081319 -0.119981 -0.071541 -0.062072 0.172343 -0.190300 -0.025798 -0.080785 -0.150322 0.125896 -0.221452 0.080700 0.249830 0.028856 0.466294 -0.198147 -0.156614 0.000703 -0.053014 -0.000578 0.031148 0.044105 -0.071820 -0.024707 0.070269 0.144827 0.068353 -0.243640 -0.124980 -0.190045 -0.203493 -0.157929 0.233312 -0.340661 0.314930 3.829718
to -0.157753 0.065029 -0.110205 -0.513352 -0.002481 -0.096145 0.058036 0.118327 0.099500 0.146149 0.265080 0.265636 -0.027581 -0.452856 0.068408 -0.025538 0.360368 0.174714 0.071702 -0.065309 -0.408348 0.117016 -0.107742 0.361074 0.105564 0.066520 -0.140669 -0.139651 -0.098266 0.085741 -0.011128 0.103518 -0.088895 0.016653 -0.259797 0.347781 -0.237333 0.188346 0.229174 0.042666 -0.011108 0.118444 0.000927 0.155203 -0.086613 0.048832 0.009355 0.031646 -0.065260 -0.004004 0.042956 -0.067715 -0.213554 0.313259 -0.000332 0.038532 -0.100425 -0.218493 0.293637 0.136736 0.133464 0.072569 0.161767 0.178303 -0.397097 0.187811 0.042250 0.205985 0.129452 0.104852 -0.120602 -0.063760 0.042136 0.162445 -0.069251 0.260238 -0.037873 -0.183902 0.068461 0.303312 0.274829 -0.018683 0.010657 0.089389 0.229429 -0.174369 0.366771 -0.156518 0.210156 -0.092310 -0.136682 -0.215074 -0.446160 0.274655 0.055941 0.340277 -0.029993 -0.141824 0.028160 -0.083976 -0.158776 -0.167524 0.085101 -0.018753 -0.268797 -0.116044 0.183451 0.056990 0.006005 -0.035233 -0.075079 0.017134 -0.127726 -0.023041 -0.241151 0.220819 -0.041422 -0.061298 -0.167460 -0.187114 -0.021671 -0.132671 0.035030 0.476127 0.048296 -0.117379 -0.018234 0.014349 0.129646 0.084701 -0.160162 0.002570 0.296889 -0.443443 -0.141923 -0.027699 0.018946 0.132684 0.086772 0.408912 0.156609 -0.017702 0.016935 0.376619 -0.103342 -0.045237 -0.073639 0.125733 -0.006973 -0.112318 -0.032817 -0.076567 0.043155 0.198162 0.070913 -0.154878 -0.048001 0.096519 -0.132612 0.176352 0.121494 0.040049 -0.035267 -0.066898 -0.038379 0.075500 -0.349229 0.270262 -0.015774 0.117523 0.058290 -0.020470 0.330778 0.306924 -0.599345 -0.091914 -0.091970 -0.275700 0.029721 0.142415 -0.065243 -0.368276 -0.181148 0.434998 0.014478 -0.293147 -0.172668 0.052132 -0.368268 0.233195 0.232652 -0.136826 0.535126 0.041268 -0.012816 -0.171796 0.022448 -0.100253 -0.023793 0.093757 -0.009894 -0.256274 -0.126152 -0.021896 -0.020206 0.189672 0.388701 0.063456 0.051274 0.206179 0.319347 -0.049359 -0.206767 0.367489 0.134500 -0.053941 -0.332912 0.160245 -0.147443 -0.092839 0.089014 -0.130977 0.183344 -0.272892 0.151400 -0.153863 -0.041788 -0.048337 -0.033913 -0.019564 0.207421 0.155683 0.004479 -0.078077 -0.007267 0.024616 -0.204693 0.175296 0.030585 0.063095 0.039288 -0.246453 -0.211602 0.121260 0.351470 -0.234247 -0.018994 0.035132 0.150442 0.018972 -0.094627 -0.007021 0.132956 -0.248678 -0.061068 0.139503 -0.067758 -0.093176 -0.079986 0.165616 0.290870 0.229233 -0.084693 0.071649 0.263814 -0.396193 -0.396720 -0.009415 0.150190 0.309140 -0.210116 -0.009908 0.085721 -0.095879 0.013864 -0.185947 -0.269169 0.020075 0.256308 0.094492 -0.260689 -0.129965 -0.127547 0.019103 -0.071087 0.058749 -0.088265 0.049671 0.178446 0.110554 0.026846 0.038493 0.029116 -0.015953 -0.159437 0.074155 0.341809 0.135496 -0.304191 0.139025 3.726191
a 0.028728 0.033717 0.150029 -0.306021 -0.151610 0.021645 -0.156321 -0.107143 -0.134321 -0.052349 0.183764 0.246962 -0.179335 -0.152223 0.059917 0.021747 0.131236 0.073911 -0.081729 -0.004934 -0.136479 0.452286 -0.048917 0.002555 0.260317 0.032303 0.160007 -0.010908 -0.095240 0.172860 0.448433 -0.204228 0.035535 -0.062052 -0.213780 0.011857 -0.165143 -0.179201 0.201007 0.024569 0.469127 0.025463 0.040474 -0.274510 0.073003 -0.045255 -0.405758 -0.130743 -0.222597 0.256237 -0.157411 -0.384668 0.220243 -0.115535 -0.072883 -0.029336 0.004626 -0.460364 0.193716 0.230103 -0.132345 0.060668 0.271736 -0.480590 -0.169747 -0.075593 -0.271638 -0.098478 0.238614 -0.184463 0.008747 0.197453 0.276366 -0.076718 0.318257 0.252853 0.185762 -0.038255 0.165680 0.089598 0.434372 0.053571 -0.266226 0.238036 -0.207756 0.018444 -0.025571 0.064511 0.099539 -0.188877 0.280892 0.183430 -0.006521 -0.359562 -0.230284 0.124849 0.097041 0.227742 -0.015666 -0.036206 0.170821 0.461541 -0.283360 -0.003323 0.009676 -0.111970 -0.071990 0.000356 0.259423 0.018264 -0.291842 -0.202971 -0.015991 0.005914 -0.171162 0.038160 0.033567 0.029847 0.040027 0.098063 -0.075515 0.046641 -0.076924 -0.041494 0.239941 0.061856 -0.249176 -0.087308 0.119361 -0.104043 -0.167999 0.013856 0.001577 -0.038977 -0.086732 -0.182581 0.139840 -0.184785 0.034771 0.009608 0.043423 -0.315658 -0.035486 -0.299503 -0.247740 -0.255057 0.021087 0.123371 -0.242062 0.076959 0.001235 -0.156276 0.168639 0.000440 0.110356 0.360483 0.131247 0.143332 0.331059 0.013482 0.264305 0.005860 0.200334 -0.137660 -0.163066 -0.080428 0.227273 -0.028257 -0.212841 -0.196444 0.009901 -0.186665 -0.041875 0.019563 -0.238904 -0.058942 -0.165269 -0.116265 0.105396 -0.036421 -0.291235 -0.202120 0.046985 -0.048720 -0.216711 0.014027 -0.184894 -0.013901 0.122721 0.094727 -0.058705 -0.075796 0.285539 0.017084 -0.100689 -0.175445 -0.283812 -0.031066 -0.109317 0.300064 -0.042579 -0.108171 -0.252533 -0.051559 -0.083289 0.142291 0.189431 -0.127563 -0.306147 -0.332712 0.076698 0.167031 0.086183 0.325656 0.238582 0.104048 -0.050715 0.165943 -0.150302 0.120818 0.221366 0.120699 0.119074 -0.171417 0.161522 0.198861 -0.053690 0.069669 -0.099256 -0.085254 0.077746 0.346545 0.324305 -0.036390 -0.008784 -0.107897 0.201240 -0.102065 -0.029593 -0.110984 0.069732 0.108269 0.023431 -0.214675 -0.053379 -0.369993 0.145212 0.100120 -0.096781 -0.309241 0.106855 -0.016349 -0.155482 0.201640 0.235682 0.078666 0.098613 -0.157940 0.035720 -0.171532 0.196211 -0.205766 0.220377 -0.242556 -0.278699 -0.121372 -0.021832 -0.134722 0.217119 0.013652 -0.357240 0.219946 0.255507 -0.459675 -0.254392 -0.053201 -0.084278 -0.241929 0.130759 0.192282 0.021475 0.207267 -0.101540 0.005139 -0.260172 -0.290669 -0.210322 -0.024594 0.055056 -0.078763 -0.039897 -0.301344 0.069931 0.438435 0.146709 -0.000089 -0.327508 0.252126 -0.501498 -0.377903 3.325517
in 0.137028 0.288892 0.217421 0.071867 -0.236386 -0.163798 -0.084204 -0.162525 -0.101420 0.151016 -0.112485 -0.099141 0.032777 -0.273809 -0.241372 -0.055497 0.200638 0.231052 -0.148833 -0.200616 -0.126207 0.264724 -0.393962 0.267329 0.001307 0.099435 0.162376 0.291970 0.232942 0.259403 -0.102457 0.060745 -0.016286 -0.166743 -0.329501 0.041185 0.100043 0.277042 0.033691 -0.374629 -0.136541 0.097061 0.167905 -0.407665 -0.131404 -0.273347 0.004772 -0.010395 -0.311812 -0.153434 0.217357 -0.140713 -0.181653 0.095405 0.314325 -0.248655 0.013408 0.003600 -0.145001 -0.109995 0.178114 -0.276555 -0.045994 -0.031164 -0.172783 0.127892 -0.097777 -0.027043 0.223772 0.025442 -0.455688 0.068626 0.116330 -0.129317 0.059844 0.471157 -0.124682 0.022041 0.105022 0.218818 -0.292783 -0.154317 0.382943 0.287453 0.154933 -0.140078 0.250701 -0.114477 -0.204060 0.149752 0.168485 0.056508 0.209848 0.171333 0.001924 0.223450 -0.038678 -0.085913 0.004667 0.036389 -0.101857 0.219234 -0.454398 -0.022957 -0.346146 -0.268910 -0.214610 0.241206 0.042313 0.219305 -0.225122 -0.153699 -0.080194 0.072689 0.086543 0.061246 0.312569 -0.162206 0.135222 0.128126 0.130931 -0.310377 0.256056 0.218491 0.249229 0.025795 -0.013077 0.118396 0.347203 -0.226136 0.286210 0.101954 0.109880 -0.075538 0.136732 0.121368 0.231403 0.002538 -0.012966 0.130894 0.111171 -0.282248 -0.021288 0.408006 -0.314083 -0.179495 -0.213797 -0.346206 -0.188673 -0.017908 0.201864 0.080934 -0.223105 -0.038652 -0.015033 -0.033593 0.087301 -0.193963 0.080482 -0.233537 0.047723 -0.236898 0.209449 -0.245870 0.068565 -0.186573 -0.088850 -0.342184 -0.225573 0.263413 0.087046 0.430167 -0.095302 -0.137325 -0.289454 0.187831 -0.192960 -0.024001 0.228968 -0.257925 0.141904 -0.330026 -0.005048 -0.019009 0.017491 0.008144 0.084371 -0.079510 -0.046862 0.133282 -0.082488 0.119430 0.183202 0.223730 -0.206686 0.340644 0.042444 0.065935 0.252999 -0.102771 0.308348 -0.086768 0.136082 -0.155947 -0.020606 -0.177896 0.407811 -0.346333 0.101805 -0.184691 -0.062417 -0.109576 -0.198067 0.227531 0.231644 -0.243854 -0.254817 -0.209816 -0.270493 -0.106689 0.439258 0.050696 0.359294 -0.341723 0.066672 0.096625 0.271591 0.102454 -0.074001 -0.066086 0.031770 -0.030099 0.168632 0.060969 0.044947 -0.098169 0.051526 -0.033538 0.166240 0.037773 -0.249355 0.001222 -0.404504 0.090799 -0.036695 0.108862 -0.164962 0.140308 0.291153 -0.001891 -0.161762 0.003164 -0.237459 0.061530 0.282846 -0.184969 0.080665 -0.488687 0.208512 -0.112525 0.124019 -0.016625 -0.202009 0.002208 0.316746 0.140673 -0.069121 0.161373 0.235882 0.063749 -0.330362 -0.363951 0.005747 -0.419556 -0.116936 0.120111 0.052249 -0.051390 0.202721 0.066361 0.036429 0.139345 0.141465 -0.049283 -0.146568 0.029803 0.072504 0.044152 0.219880 -0.113940 -0.111644 -0.432917 0.068124 0.274715 -0.136878 0.212956 0.000002 -0.170759 -0.013698 -0.195643 3.139188
i 0.243943 0.136428 0.204755 -0.191517 -0.036057 -0.111763 0.192068 0.164719 -0.255723 -0.142550 0.209137 0.360832 0.090580 0.115656 -0.303184 -0.066374 0.047703 -0.104193 -0.057639 0.254139 -0.045821 0.058203 0.465356 -0.216393 -0.150961 -0.418782 0.144519 -0.125895 -0.081380 -0.171741 0.117888 0.025093 -0.160287 -0.204291 -0.152127 -0.298066 0.129673 -0.107754 0.181697 -0.034696 -0.229596 0.070280 0.032250 0.117790 0.024464 -0.422276 -0.096708 0.115847 -0.121076 0.038402 -0.226065 0.099543 0.029885 0.158599 0.259581 -0.296978 0.192904 0.115664 0.077870 0.252221 -0.206359 -0.288394 0.548591 0.176798 0.187470 -0.460452 -0.230057 0.492619 0.594859 -0.096609 0.233822 0.194195 -0.112448 -0.074388 -0.334361 -0.026260 0.110570 0.107334 -0.296133 -0.190659 0.334929 -0.256620 -0.087035 0.068477 0.026534 0.001785 0.563625 -0.078633 0.074731 -0.034494 -0.081338 -0.415619 0.034751 -0.327532 0.141376 -0.150517 0.067102 0.223730 -0.057456 -0.090857 -0.315394 0.459431 0.186288 0.424589 0.043739 -0.252021 0.075434 0.131344 -0.218257 -0.123405 0.168867 0.136135 -0.119635 0.110686 0.275152 0.002626 -0.096425 0.389240 -0.049546 0.145811 0.090728 0.107296 -0.187921 -0.050669 0.294121 -0.124232 0.000263 0.216534 0.213500 -0.191538 -0.307030 -0.010047 0.094170 0.067037 -0.580647 -0.035230 -0.078364 -0.275257 0.351219 0.188503 -0.007971 0.127394 -0.125895 -0.095445 -0.042710 0.261386 -0.161867 0.142843 0.563439 0.043049 -0.264032 0.219298 0.216938 0.126975 0.248489 -0.020092 -0.119734 0.114666 -0.014726 0.053257 -0.056424 -0.078518 0.337131 -0.288705 -0.341168 0.274982 0.149861 0.283030 0.015244 -0.132494 0.019004 -0.325901 -0.125427 0.224223 -0.266668 -0.130760 0.080201 -0.095259 0.164758 0.197247 0.026268 -0.303415 0.491278 0.047986 -0.195942 0.073532 0.087473 0.014981 0.158824 0.022032 -0.152390 0.073697 0.069463 0.385740 -0.310123 0.163043 -0.052769 0.032356 -0.413500 0.042783 -0.240056 0.342988 0.017185 0.092218 0.042579 0.091998 0.410462 -0.022443 0.063611 0.054383 0.120937 0.059548 -0.423149 0.258350 -0.342817 -0.246679 0.241196 -0.456366 0.405951 -0.444119 -0.111959 0.162407 0.066753 -0.416066 -0.252855 0.185888 0.233619 0.225047 -0.725897 0.190526 0.114658 0.136565 0.061248 0.245036 0.153499 0.271170 0.019335 -0.043395 -0.064851 0.060755 0.003946 0.170583 -0.077064 -0.071899 0.132903 0.089221 -0.451847 -0.224097 -0.095919 0.116394 -0.251779 -0.051013 -0.052921 -0.376801 -0.239910 0.079268 0.039516 -0.123199 0.254037 -0.240152 0.201347 0.076375 -0.089861 -0.057816 0.140562 -0.447796 -0.028531 0.310845 0.138445 0.182123 0.301398 0.147328 -0.025021 0.174388 0.042329 0.118019 -0.093710 -0.225421 0.039251 0.216381 -0.078430 0.253054 -0.242600 -0.038390 0.049667 -0.210258 -0.069405 0.350376 -0.033403 -0.194901 0.197769 -0.243019 0.062939 -0.013987 -0.156494 -0.078605 0.245232 0.113062 0.261992 0.125049 2.814887
that 0.067312 0.294923 -0.077689 -0.201679 -0.096884 -0.192642 -0.006226 -0.150624 0.077576 0.347319 -0.032007 0.273879 0.046488 -0.004396 -0.343147 -0.172818 0.022253 -0.153890 0.103381 -0.044996 0.059393 0.211581 0.304531 -0.059205 -0.011219 0.060872 -0.101689 0.011233 0.047239 0.421183 0.264070 -0.026631 0.193456 0.016430 0.173968 0.105631 -0.168614 0.036610 0.139761 0.072037 -0.166106 -0.275485 0.070220 0.076448 0.004941 0.112123 0.001011 -0.020598 0.161549 0.279413 0.227850 -0.117071 -0.265628 0.221818 0.021741 0.059865 0.079768 -0.380299 0.164077 0.019160 -0.137712 -0.303139 0.212163 0.230145 -0.094918 -0.274268 -0.597500 0.404819 0.173868 -0.360562 0.018004 0.300168 0.134935 -0.081160 0.187412 0.293035 0.023696 -0.043035 0.199318 0.504928 -0.077847 -0.325038 -0.041962 0.000260 0.043615 0.090879 0.242194 0.147801 -0.169902 0.038079 0.037949 0.180716 -0.043798 -0.148543 -0.006178 0.117887 -0.000044 0.148947 -0.189727 0.061342 -0.024286 0.042834 -0.066414 0.088163 -0.046687 0.216640 -0.228401 -0.056047 0.007428 -0.069285 -0.258770 -0.005488 -0.164612 0.185558 -0.029202 0.068170 0.324110 0.017467 -0.039237 0.067566 0.217071 0.041932 0.059401 0.105637 0.024560 0.240278 -0.059456 0.122829 0.402455 0.193366 -0.050644 0.014324 -0.182871 -0.132651 -0.303625 0.325637 0.026225 -0.032828 -0.034484 0.295842 -0.154926 -0.026929 0.134261 0.434409 -0.230798 0.143304 -0.195650 -0.063953 0.058364 0.185896 0.324030 0.032295 -0.364271 0.267200 -0.106804 0.037392 -0.242316 -0.095384 0.128220 0.075190 0.208744 0.073361 -0.047859 -0.290949 -0.218444 -0.100333 0.448854 -0.196383 -0.121781 -0.296855 -0.214185 -0.160576 0.258789 -0.242026 -0.364820 0.071170 -0.063619 0.034448 -0.103869 -0.236091 -0.185201 0.093274 -0.179282 -0.205691 0.003012 0.252921 0.069657 -0.076715 -0.027035 0.118689 -0.097031 0.073648 0.250261 0.159215 0.329115 0.225166 0.202822 0.139470 -0.126858 0.025738 0.020108 -0.023546 -0.335055 -0.055940 -0.145737 -0.182046 -0.030079 0.054527 -0.084730 0.035607 0.053659 0.164225 -0.132649 0.140970 0.123012 0.061931 0.112167 0.065429 -0.305238 0.086693 0.392054 -0.093207 0.229410 0.050639 -0.030542 0.061043 -0.130983 0.283026 -0.216882 -0.147687 -0.002069 0.330837 0.046341 0.014759 -0.008674 0.207840 -0.105292 0.058794 -0.208656 -0.025409 0.054013 0.005853 -0.138825 0.057043 -0.104148 -0.069488 -0.025835 0.025040 0.155547 0.187991 -0.012130 0.061797 0.111300 -0.237871 0.049712 0.426064 0.311833 -0.216054 0.025606 0.106231 -0.289233 0.365150 0.196186 0.267249 -0.214878 -0.057968 -0.321079 -0.238219 0.212002 -0.104122 -0.424169 -0.161333 -0.044957 0.037226 -0.221035 0.093687 0.116166 0.007095 -0.058543 0.304188 0.224985 -0.055691 -0.067251 0.109255 -0.014257 0.158239 0.294956 -0.312140 -0.198205 0.021369 0.349156 -0.245283 -0.005423 -0.044912 -0.112937 -0.335073 0.207269 0.294338 0.243993 0.093922 2.745236
is -0.094309 0.333103 0.254832 -0.180694 -0.350999 0.363870 -0.045788 -0.311794 -0.189170 0.207160 -0.027509 0.143003 0.215762 0.115983 -0.370227 -0.143144 0.365179 -0.011036 -0.058572 0.010512 0.135551 -0.229875 -0.069593 0.169401 -0.306593 -0.108594 -0.050890 0.617563 -0.000256 0.142626 0.366510 -0.360020 -0.351488 -0.035513 -0.307480 -0.207001 0.031173 -0.189668 -0.066283 0.158857 -0.082566 0.120616 -0.373559 -0.146935 0.065566 -0.053148 0.057746 0.063563 -0.361407 -0.125421 -0.126800 -0.198537 -0.070573 -0.350838 -0.125852 0.176038 0.280217 0.055483 0.117461 -0.056366 -0.354630 -0.125059 0.420837 0.020312 -0.163238 -0.027837 -0.295667 0.362977 0.249471 -0.046022 0.028251 0.292950 -0.072238 0.132663 0.065462 -0.155565 -0.219840 -0.051188 -0.128574 0.227868 0.116963 -0.360253 -0.339203 -0.153771 -0.257799 0.059365 0.141365 -0.269139 -0.221260 0.100739 0.334853 0.386465 0.187146 0.191123 -0.046239 0.066543 0.281321 -0.199084 0.299290 -0.273027 0.121476 -0.021431 -0.329095 -0.274093 -0.090874 -0.135442 -0.173693 0.141537 -0.284905 0.063117 0.159043 -0.163075 -0.299885 0.185427 0.174804 0.043012 0.181394 0.126761 0.256939 0.251327 -0.033031 0.252135 -0.097272 0.150339 -0.109806 0.012546 -0.127673 0.047573 -0.047951 0.549183 -0.273443 -0.289240 0.116610 -0.288875 0.243042 -0.127167 0.192207 0.046467 -0.069156 -0.226292 0.251690 -0.176273 0.331967 0.049177 -0.051743 -0.093309 0.209905 0.085103 0.085947 0.275122 0.072667 -0.081478 0.101582 0.000823 0.140410 0.120576 0.052682 -0.019550 -0.264660 0.032622 0.169893 0.273905 -0.052451 -0.355966 -0.008170 -0.020427 -0.116819 0.309543 -0.147701 0.070722 -0.357362 0.118297 -0.032542 -0.018317 -0.205172 0.186633 0.075989 0.011730 0.228020 -0.128964 0.226530 -0.127670 0.015987 0.196078 0.001275 0.223229 0.250574 -0.162565 -0.063120 0.283577 -0.052975 -0.281875 0.223009 -0.065886 -0.032888 0.170516 -0.187920 0.070898 -0.009663 0.030227 -0.259197 -0.136548 0.126897 0.029587 -0.250292 -0.181521 0.126718 0.128061 -0.088643 -0.351230 0.178861 0.073108 -0.195607 0.056112 0.068607 -0.143713 0.097501 -0.168164 0.283134 0.342861 -0.068919 -0.222361 0.338711 -0.054229 0.195181 0.165599 -0.114439 -0.063613 0.049148 -0.222698 -0.320128 -0.185822 0.299525 -0.092052 -0.271682 -0.033326 0.175644 0.234708 -0.160142 -0.154344 0.008521 0.014136 0.032096 -0.165531 0.034408 0.006701 -0.114110 -0.043318 0.188769 -0.028599 -0.088140 0.071775 -0.065731 -0.180526 0.002319 -0.040148 -0.122539 -0.407454 -0.321666 0.022658 0.266090 0.043870 0.165966 -0.049975 0.155788 0.109306 -0.119379 -0.237906 0.166440 -0.007889 -0.385250 -0.283979 -0.162309 0.071161 0.028432 -0.089672 0.078806 -0.111145 0.082117 0.201117 -0.088467 0.222196 -0.145472 0.305271 0.075715 0.048196 0.148659 -0.110772 0.262394 0.294967 0.204013 -0.539708 -0.421184 0.377428 -0.136761 -0.108986 0.156024 0.045517 -0.034279 -0.127284 2.677183
it 0.256730 0.298618 -0.017569 -0.214034 -0.321281 -0.299124 -0.137334 -0.163792 -0.136033 0.242777 -0.265753 -0.005690 0.163819 0.010230 -0.214665 -0.029291 0.067610 0.106045 -0.045982 -0.165175 0.211779 0.195092 0.145046 -0.073613 -0.102471 0.389264 -0.178789 0.161470 0.193321 -0.000200 0.126749 0.034581 -0.005215 -0.192150 0.099221 0.181050 0.190356 0.515077 -0.220759 0.031635 0.057552 -0.206883 -0.244942 -0.001759 -0.157301 -0.031657 -0.160489 -0.209729 -0.319435 0.253518 -0.365248 -0.054473 -0.025257 0.023371 0.230784 -0.356577 0.212629 -0.085776 0.380111 0.424960 -0.130300 0.028549 -0.056506 -0.024428 -0.091299 -0.172709 -0.081221 0.358145 0.326957 -0.221722 -0.211949 0.458809 0.007755 -0.025704 0.080912 -0.159643 -0.080378 0.119752 -0.116363 -0.013509 0.199349 -0.246463 -0.012960 -0.067819 -0.021632 -0.189818 0.313042 0.182744 -0.043034 0.047029 0.186484 0.224282 0.070401 0.044089 -0.206558 0.305947 -0.033778 -0.307782 -0.098862 0.129525 -0.204973 -0.096202 0.180661 0.055042 -0.271003 0.115059 -0.165840 0.133093 -0.483007 0.434095 0.130993 -0.007754 0.046876 -0.016658 0.061463 0.155008 -0.018141 -0.161695 -0.113165 0.337700 0.076114 0.238089 -0.044441 0.506751 -0.051236 -0.152372 -0.037756 0.166003 -0.167970 -0.162053 -0.102149 0.377260 -0.003548 -0.125895 -0.332972 -0.080918 -0.024861 -0.032862 0.222888 0.044233 0.007966 -0.425054 0.203555 0.104937 -0.362529 0.181046 0.282859 0.053696 -0.366166 -0.210488 0.242451 -0.206147 -0.522933 -0.155435 0.042774 0.228680 -0.340933 -0.027180 -0.371765 0.103649 -0.170026 -0.113705 -0.056219 -0.290419 -0.065151 -0.009427 -0.072752 -0.167211 0.154286 -0.072930 -0.288581 -0.044689 -0.091668 -0.282921 -0.356980 0.066649 -0.088649 -0.095802 -0.233161 0.029745 -0.093709 -0.426806 -0.283330 0.599929 0.004703 0.147449 -0.275178 -0.134279 -0.133728 0.022507 0.037068 -0.011857 0.129789 -0.003951 -0.148429 0.174868 -0.209906 -0.289986 -0.064863 -0.076968 0.007065 -0.198576 0.014358 -0.059825 -0.309604 0.392010 0.352096 -0.275555 -0.224963 -0.184807 -0.128023 -0.110294 -0.070300 -0.116866 0.043763 -0.230081 0.159072 0.050540 0.117997 -0.281416 0.041395 -0.039276 0.115034 -0.089725 -0.023807 0.254570 -0.168483 0.182985 -0.368742 -0.023147 -0.047425 0.011020 0.042348 0.103046 0.013527 0.497423 -0.031485 -0.039278 -0.188606 -0.095610 0.092717 0.012130 -0.090023 0.121161 -0.246294 -0.315137 -0.089025 0.048454 -0.019214 -0.053788 -0.106833 0.050896 0.335908 -0.292470 -0.132763 -0.010561 0.260315 0.062507 -0.254560 0.019817 0.059992 0.017784 0.207271 0.132071 -0.123030 0.009064 -0.431912 -0.163165 0.241056 0.174960 -0.109622 -0.119785 0.139368 -0.195245 0.024103 0.167016 -0.104942 0.165838 -0.106325 0.016606 0.119613 0.121857 0.172105 0.122601 -0.086280 0.161190 0.097138 -0.063395 0.003181 -0.242873 0.315712 0.002018 -0.368555 -0.003495 0.056714 0.230746 0.112090 0.186475 -0.225894 0.034523 2.422153
be 0.023215 0.250020 0.075043 -0.208259 -0.098008 -0.089414 -0.066555 -0.119645 -0.002841 0.181293 -0.043763 0.033410 0.115528 0.080394 -0.072404 -0.030624 0.269754 0.098523 -0.046552 0.514657 0.033809 -0.113582 0.109972 -0.101364 0.216941 0.105657 0.005870 0.179860 0.106064 0.001028 0.064409 -0.077951 -0.152811 0.209044 -0.176306 -0.117747 0.063645 -0.246444 -0.003806 0.128354 0.328869 0.015866 0.095680 0.058098 -0.007678 0.222608 -0.033300 0.162005 0.111834 0.041294 -0.060065 0.016525 -0.090870 -0.132441 0.055885 0.120562 0.245771 -0.323314 0.137623 -0.055927 0.321295 -0.221449 0.222328 0.246587 -0.007510 -0.215068 -0.322349 0.204749 0.079615 0.201753 -0.011026 0.278054 0.185269 0.070320 -0.113613 0.334549 -0.222245 -0.083985 0.068372 0.424846 -0.111300 0.167257 0.041380 0.228337 -0.023797 -0.064513 0.199099 0.270864 0.132249 0.294325 0.169745 0.456849 -0.163665 -0.072755 -0.012895 0.256403 -0.157117 -0.119604 -0.152767 0.136026 -0.097689 -0.078017 -0.045936 0.222213 -0.480594 -0.080964 -0.028308 0.499460 -0.194630 0.151624 0.325395 -0.001323 -0.042038 0.035664 0.116243 0.158264 0.224044 -0.181922 0.255056 -0.023507 0.310774 0.060046 -0.042490 0.172307 0.307195 -0.084133 -0.069887 -0.046089 0.115456 0.027826 0.090921 -0.109256 0.176336 -0.160211 -0.191370 -0.258765 -0.332227 0.427822 -0.381851 0.235788 0.264266 -0.143998 0.279544 0.097832 0.007398 0.140934 0.275743 -0.042690 -0.140305 0.124478 -0.031453 -0.209835 0.001021 0.287705 0.039887 0.018849 -0.077440 -0.187178 -0.254855 0.260946 -0.183179 0.230918 -0.089121 -0.474275 0.276862 0.142747 -0.106589 0.032350 -0.107895 0.141169 0.094829 0.058370 0.149352 -0.388070 -0.476294 -0.092044 0.236893 0.111348 -0.188832 0.024256 0.112564 0.076325 -0.193687 0.274440 -0.246974 0.145735 0.065887 -0.146892 -0.131140 0.225221 -0.474624 -0.539788 -0.411215 0.233869 -0.089668 0.189667 -0.079657 -0.080773 0.206521 -0.106430 0.432431 -0.382689 -0.011706 0.080124 -0.266639 0.043896 0.102471 -0.092876 -0.213135 -0.308127 -0.155877 -0.106340 -0.027438 0.289613 0.094079 -0.268547 -0.145373 0.011398 -0.016264 0.070225 0.001230 -0.457318 0.264345 -0.237098 -0.088077 0.181193 -0.132605 0.095607 -0.359889 -0.560809 0.011113 0.312941 -0.112025 -0.171100 -0.151015 0.014331 0.293811 0.045464 -0.003482 -0.588931 -0.063459 -0.028710 0.101104 -0.064814 -0.288833 0.199608 -0.341225 -0.109722 0.026632 -0.110166 0.175073 0.194835 0.057393 0.061913 -0.322815 -0.189082 0.312413 0.078940 -0.029782 -0.051804 -0.017931 0.103009 -0.076428 -0.003825 0.167829 -0.121518 -0.127104 -0.372240 0.231146 0.265124 -0.007936 0.592570 -0.191277 -0.150650 -0.170406 0.222474 -0.074917 0.195293 0.156286 0.806121 -0.083902 0.530756 0.293893 0.156137 -0.013456 0.451731 -0.174264 -0.182215 0.137528 0.104065 0.113726 -0.132583 -0.026940 0.365219 0.049596 -0.067175 -0.213738 0.061898 -0.141040 -0.127201 2.208085
you 0.094286 0.452765 -0.010795 -0.026350 0.337424 -0.267826 0.441590 -0.266191 -0.100085 -0.369265 0.430927 0.163986 0.109573 0.082907 -0.307257 0.063295 -0.238634 0.302298 0.197638 -0.049918 0.210942 -0.009384 0.223085 -0.140344 -0.136404 -0.008196 0.296192 0.168112 -0.041448 -0.052016 -0.153899 -0.010293 -0.030494 0.041530 -0.047775 -0.215993 0.008351 -0.163111 0.132823 0.020594 -0.083810 -0.055481 0.033489 -0.341350 0.373898 -0.060425 0.012911 -0.054290 -0.056667 0.381485 -0.141644 0.085897 -0.069515 0.128551 0.174062 0.306092 0.464804 -0.173674 0.138906 0.162632 0.334185 -0.192823 0.441712 0.156299 0.010065 -0.307134 -0.206452 0.326747 0.452016 -0.064756 0.192414 0.033580 -0.289738 -0.262479 -0.488690 -0.179395 -0.186675 0.051647 -0.119440 0.072778 0.315594 -0.149701 0.013795 -0.025869 -0.065041 -0.146272 0.539975 -0.075366 -0.077893 -0.010112 0.146542 -0.078870 0.179433 -0.205648 0.381848 -0.031930 -0.506175 0.297795 -0.425764 0.504482 -0.032004 0.559192 0.058392 0.431942 -0.003227 0.165663 0.301781 -0.045859 -0.294761 0.042815 -0.143976 0.031502 -0.248391 -0.333081 -0.108701 0.195327 -0.201692 0.316026 -0.026597 0.055930 -0.055527 0.139927 -0.131724 -0.051497 0.411489 -0.068138 0.091167 0.341111 -0.316214 -0.215006 -0.145696 0.131845 0.185425 0.150272 -0.757616 -0.046356 -0.086032 -0.475224 0.193987 0.290433 0.007683 0.438123 -0.266835 -0.050814 -0.015002 -0.031801 0.004393 0.225630 0.144975 0.440357 -0.031267 -0.144819 0.273458 -0.079937 -0.120374 -0.247120 -0.181578 0.378402 -0.050110 0.104525 -0.218679 0.301372 -0.147843 -0.199413 -0.111056 0.189714 -0.509528 0.182014 -0.417362 -0.142611 -0.134400 -0.004707 -0.285218 0.290685 -0.195431 -0.445126 -0.119200 -0.144173 0.160031 0.092165 -0.271923 -0.107371 0.459828 -0.102141 -0.138240 -0.207270 -0.333347 -0.001957 0.422229 0.131881 0.022386 0.025717 0.081861 -0.137417 -0.192296 0.111601 -0.151091 0.072863 -0.090517 -0.114046 0.149193 0.158637 -0.232519 -0.073047 -0.398644 0.561553 0.283584 -0.015669 0.208949 -0.091582 0.292356 0.127394 -0.135355 0.003547 -0.132752 -0.072048 0.133431 -0.387389 0.138756 -0.474844 -0.336578 0.002405 0.047645 -0.150185 -0.097158 0.253352 -0.044149 -0.271873 -0.270518 -0.041139 -0.295192 -0.107942 0.137605 0.280357 -0.042435 0.288748 0.030275 0.030128 0.113943 0.327024 0.211407 0.175916 -0.267401 -0.029478 -0.147976 -0.013273 0.066085 -0.010703 -0.074275 -0.273175 0.092002 -0.265545 -0.400916 -0.147251 0.015366 -0.005580 0.185095 -0.063954 0.105462 0.046549 0.082104 -0.144445 -0.087528 -0.014875 -0.002892 -0.630497 0.077591 0.022975 -0.093273 0.553231 -0.175272 -0.391659 -0.126882 0.228901 -0.206449 0.024933 -0.133000 0.025752 -0.229874 0.187495 -0.205629 -0.091160 -0.119529 -0.030621 0.359868 -0.173612 -0.149265 0.232801 -0.178757 -0.288167 -0.022017 -0.112279 0.075952 0.333549 0.218510 -0.342278 0.296186 0.256568 0.013823 0.075564 2.227115
his -0.270303 -0.170665 0.295170 0.115037 -0.325848 0.064121 0.105645 0.483794 -0.007932 -0.013436 0.061632 0.324192 -0.190184 -0.063799 0.041382 0.099806 0.283983 0.362564 0.250699 0.089986 -0.248322 0.427877 0.157598 0.149829 -0.016742 0.390581 0.052729 -0.021961 -0.237523 0.423480 0.007432 -0.108694 -0.050317 0.127121 0.108824 0.090173 0.242096 0.032856 0.199501 -0.092990 0.152616 -0.153992 -0.002503 0.097079 -0.343708 0.183782 0.036404 0.099965 -0.351591 0.154628 0.079728 0.146325 -0.312009 -0.161149 -0.020590 0.028469 -0.139789 -0.144232 0.083473 0.112026 -0.341757 -0.014877 0.063210 0.180433 -0.162335 -0.080617 -0.041315 0.229263 0.155266 -0.044019 -0.231583 0.172677 -0.228246 0.100629 -0.432461 0.163320 0.111907 0.367132 0.425491 0.124433 0.426234 -0.194431 -0.046836 -0.095935 0.033608 0.234197 -0.095852 -0.109680 -0.028750 0.299029 0.223807 0.381525 -0.156753 -0.451252 -0.019580 -0.125192 -0.269190 0.081047 0.113077 -0.405667 -0.158076 0.023951 -0.091707 0.330557 0.004747 -0.102168 -0.164038 0.221620 -0.528796 0.025041 0.037197 0.089991 -0.011999 0.029342 0.088397 0.239759 0.428145 0.465690 0.187968 -0.086949 0.006726 -0.207259 0.106260 0.237821 -0.022311 0.050264 -0.096269 -0.216423 -0.254507 -0.535399 0.040421 0.161988 -0.165444 -0.170085 -0.177713 0.240812 0.227581 -0.222288 0.102279 0.379212 -0.190351 -0.139569 -0.106673 -0.545490 -0.072518 -0.438645 0.221486 -0.334208 0.177625 -0.167775 -0.066080 -0.060879 0.110472 -0.123387 0.220388 0.125007 -0.070385 -0.015125 0.139892 -0.342320 -0.091914 -0.186556 0.299184 -0.489602 -0.283731 -0.116577 0.106297 0.033730 -0.105916 0.356044 -0.087519 0.169319 -0.224884 -0.041401 -0.013587 0.074808 -0.044604 -0.198270 0.217913 -0.245734 -0.267406 -0.303004 0.003499 -0.149176 0.274294 0.341864 0.668926 -0.054430 0.062228 -0.076193 0.393540 -0.018257 0.134057 0.290970 -0.154847 0.053347 0.040704 0.241835 0.187178 0.127860 -0.323140 -0.244749 -0.227242 -0.026496 -0.096235 0.516943 -0.177971 0.061445 -0.108412 -0.100571 0.464892 0.320434 0.021347 -0.093168 0.241862 -0.284506 -0.261813 -0.201761 -0.255340 -0.034545 0.127663 -0.065981 -0.210850 -0.062276 0.367225 0.271992 -0.184665 -0.279768 -0.006911 0.238314 0.238874 0.120953 -0.078312 -0.119293 0.060311 -0.044030 -0.392968 -0.088434 0.095919 0.253196 0.249865 0.348556 0.125629 -0.210627 -0.105565 0.024432 0.285218 -0.152335 -0.064935 0.083136 -0.159386 0.351655 -0.059554 -0.072056 -0.082150 0.185250 -0.241813 -0.071150 -0.243150 -0.189727 0.169002 0.163702 -0.220946 0.128913 0.110958 -0.201503 0.096721 -0.109598 -0.390964 0.296762 0.151992 0.030753 0.039008 -0.228085 0.012165 0.054992 0.094887 -0.030192 0.133103 0.314039 -0.069438 0.010218 0.128334 -0.045776 0.147394 0.025754 -0.009692 0.096611 -0.146256 0.035272 -0.097785 -0.239570 -0.133898 0.026231 -0.247637 -0.300225 -0.310246 0.242367 -0.026417 0.234342 2.348808
my 0.073014 0.370938 0.596116 0.170709 0.049275 0.000244 0.060791 0.117212 -0.189325 0.228264 0.337740 0.207353 -0.052966 -0.098003 0.271651 -0.180567 0.031704 -0.164327 0.131667 -0.151554 0.046072 0.104155 0.376544 -0.270343 -0.013089 0.005181 0.339812 0.150092 -0.211759 -0.048389 -0.036315 -0.126500 0.145813 -0.095821 -0.034862 -0.030833 0.089873 -0.261194 0.351416 -0.312608 -0.002397 -0.089148 0.006176 0.046032 -0.098371 -0.220211 0.233971 0.285802 -0.090667 -0.008734 0.033872 -0.276357 -0.333222 0.085002 -0.094672 -0.259888 0.180497 -0.097431 0.198433 0.045454 0.075765 0.395187 0.236187 0.154459 0.012623 -0.214007 -0.014724 -0.100902 -0.064801 -0.091116 0.106827 -0.289451 -0.180693 -0.640602 0.013013 -0.105135 -0.051828 0.290184 -0.090890 0.026074 0.244823 -0.181920 -0.259599 0.068356 0.003825 -0.252900 -0.003301 -0.109323 -0.270767 0.062455 -0.072422 -0.233072 -0.151762 -0.411743 0.187071 0.205192 0.307124 0.085147 0.248491 0.043652 -0.223335 -0.031074 0.314164 0.066435 0.389881 -0.157735 0.042650 -0.148018 -0.119033 -0.117783 0.079627 -0.034048 0.075868 -0.072803 0.021166 0.059139 -0.116103 0.173981 0.409736 -0.159000 0.130968 -0.034102 -0.025754 -0.168663 0.148098 -0.075622 -0.251814 -0.032405 -0.215675 -0.438137 0.122516 -0.372141 -0.050769 -0.302983 -0.150863 -0.078026 0.205223 -0.440065 0.089957 0.132614 -0.151298 0.269899 -0.117117 -0.344473 -0.021235 -0.025561 0.288618 0.058225 0.364285 0.136273 -0.021562 -0.014191 -0.013461 -0.267044 -0.150962 0.164176 -0.179175 0.331591 -0.074748 -0.088531 0.216971 -0.332791 -0.073870 -0.279218 -0.275604 -0.208829 0.132649 0.139999 0.147133 -0.188104 -0.256124 -0.061976 -0.292840 0.252927 -0.324309 -0.120410 0.257858 -0.113188 0.083201 0.011442 -0.274604 -0.321831 0.454658 0.338886 0.058391 0.412199 0.308204 -0.041133 0.612187 -0.099334 0.158791 -0.056943 0.347097 0.362072 0.107268 0.196573 0.314777 0.118714 -0.056290 0.344937 0.026546 0.159820 0.023927 -0.261347 -0.086831 0.187742 0.301973 -0.257646 0.107474 -0.166924 0.089924 0.116982 -0.088601 -0.367468 -0.211199 -0.514925 0.045472 -0.502335 -0.013044 0.247167 -0.153589 0.190167 0.183401 0.150230 -0.112777 0.223122 0.377095 -0.111607 -0.260051 0.234929 0.412665 0.018308 -0.234943 0.051328 0.120550 0.157984 0.001005 -0.103020 0.037761 0.111154 0.075764 -0.059953 -0.181745 0.110968 -0.240032 -0.267510 0.233301 -0.579273 0.064401 0.021151 0.245012 0.135277 0.156203 0.122601 -0.120444 0.440112 0.021305 -0.318439 -0.176564 -0.070772 0.193991 -0.111598 -0.209341 0.085606 0.064918 -0.448049 -0.055666 -0.034615 0.043976 0.492218 -0.053833 -0.060366 -0.171119 0.075257 -0.104010 -0.083483 -0.088797 -0.231389 -0.122675 0.268697 -0.183106 0.270950 -0.086786 0.129278 0.428387 -0.093831 0.010746 0.462921 0.056523 -0.330956 -0.216549 -0.334252 -0.074151 0.111351 -0.252516 -0.550134 0.139890 0.131743 -0.182638 0.242411 2.350930
with 0.238269 0.122075 0.129847 -0.069075 -0.076664 0.408225 -0.004703 -0.335707 0.219969 0.081249 0.019430 0.429636 -0.137261 -0.360191 0.050450 0.184716 -0.019191 -0.076984 -0.091121 0.041808 -0.112563 0.256731 -0.045118 0.438325 -0.029092 -0.138719 -0.084788 -0.050336 -0.274814 -0.388591 0.101053 0.078776 0.000764 0.021701 -0.003103 -0.080942 -0.251706 0.027443 -0.000170 -0.229209 -0.089742 0.004965 -0.103523 -0.302966 0.155786 -0.196782 0.261598 -0.081278 -0.072044 0.031286 0.439181 -0.085502 0.023452 -0.147768 0.035170 -0.235837 -0.216348 -0.308591 0.256527 -0.052269 -0.018217 -0.069826 0.010149 -0.112094 -0.020194 -0.195418 -0.174314 0.216161 0.240611 -0.175225 -0.250003 0.014703 -0.398170 -0.064408 0.084253 0.299619 0.158565 0.474989 0.213493 0.290965 0.144462 0.131699 -0.069090 0.346341 -0.214394 0.074723 0.131319 0.147416 -0.233383 -0.367833 -0.004713 0.138574 -0.112132 -0.130290 -0.314891 0.384988 -0.418004 -0.490491 0.083606 0.188176 -0.014654 0.326807 0.239034 0.119715 -0.028529 -0.255991 -0.115843 0.365199 0.004836 0.006235 0.001676 -0.029728 -0.062654 -0.113442 0.207710 0.046296 -0.152212 0.111956 -0.123006 -0.000705 0.224010 -0.185086 -0.093955 0.281132 0.207367 -0.069922 -0.286518 -0.201274 0.025016 -0.065272 0.364254 0.165282 0.320348 -0.287331 0.041040 0.227705 -0.003519 0.047263 0.075127 0.003293 -0.273075 -0.208408 0.111301 0.044559 -0.182438 -0.178113 -0.079126 -0.122577 -0.119349 -0.071799 -0.202134 0.014397 -0.321566 0.219144 0.140047 0.284770 0.155882 0.206140 -0.224190 0.181031 -0.162794 0.112239 0.087373 -0.373130 -0.135600 0.020069 -0.008154 -0.022832 -0.139575 0.045245 0.066736 -0.020849 0.194510 0.285553 -0.178250 0.298500 -0.222630 0.049290 0.205296 -0.029038 0.055896 0.108231 0.172283 -0.115143 -0.346587 0.063169 0.123459 -0.198384 0.097233 -0.093069 0.028050 -0.092540 0.256478 0.498247 -0.193668 -0.006062 -0.055235 -0.680064 0.266720 0.124666 0.206622 -0.157323 -0.041749 0.013173 0.268229 0.218691 -0.034734 0.012957 -0.231832 0.012626 0.237714 0.314811 -0.078786 -0.046129 0.055502 -0.277963 0.175254 -0.373044 -0.126226 0.255322 0.302394 0.069106 0.018280 -0.220107 0.331716 0.111585 0.121896 0.062226 0.252511 -0.152214 0.154861 -0.214890 0.167701 0.394855 0.247353 0.061940 -0.023969 0.087682 -0.089819 0.356255 -0.048894 0.012182 -0.059155 0.151069 -0.004005 -0.119607 -0.050807 0.040691 0.328764 0.116709 -0.445827 -0.300943 -0.129314 -0.139767 -0.019801 -0.114472 0.025820 -0.298419 0.210544 -0.031665 -0.132312 -0.005863 -0.004070 -0.078762 0.195238 0.022366 0.110487 -0.138041 0.008119 0.022938 -0.075327 -0.230275 -0.153510 -0.254222 0.136681 0.097611 -0.037553 0.053051 0.079192 -0.027366 -0.334190 0.163187 0.118230 -0.017790 0.083983 0.382296 -0.307200 0.028473 0.078249 0.220740 0.071161 0.223299 -0.242511 0.101673 -0.148079 -0.205045 0.016021 -0.311213 0.286479 0.169877 2.327812
not -0.033335 0.171398 0.192392 -0.058618 -0.103351 -0.148164 -0.027493 -0.067666 0.280929 0.173401 0.124553 0.426284 -0.211729 0.196875 0.084860 -0.249119 -0.057626 -0.015461 -0.317148 0.101137 0.069381 -0.008829 0.398897 -0.129561 0.031115 -0.087831 0.153814 -0.066347 -0.007941 -0.018179 0.211836 0.156546 -0.076976 -0.121815 0.027650 -0.010104 -0.158776 0.012853 0.235945 0.047026 0.115530 0.329109 -0.005934 0.111475 0.074877 0.059041 0.043070 -0.126773 -0.123117 0.177380 0.208678 -0.106899 -0.186764 0.102823 0.244919 -0.231314 -0.125628 0.290492 -0.067984 -0.040326 -0.249093 -0.092923 -0.248187 0.194398 -0.122153 -0.372516 -0.105601 0.101281 0.022689 -0.348030 0.177638 -0.184228 0.097868 0.118812 0.101337 -0.377488 -0.222233 0.193727 0.063595 0.217496 -0.021902 0.056682 0.110068 -0.261181 0.049655 0.173438 0.327950 -0.106899 -0.016088 0.177817 0.102159 0.026250 -0.116500 0.265363 0.089176 -0.135454 -0.312598 0.167031 0.140198 0.365132 -0.210143 -0.160194 0.239905 0.077570 0.211807 -0.137926 -0.034242 -0.069499 -0.173718 -0.246608 -0.054839 -0.309843 -0.346973 0.195097 -0.199133 0.042049 -0.192291 0.055034 -0.240898 0.364078 -0.036634 0.126097 0.151910 0.073493 0.186381 -0.746871 0.242706 0.059112 0.264562 -0.028690 0.084746 -0.127470 -0.006278 0.189390 -0.217665 -0.102290 0.331018 0.070658 0.001453 0.331162 -0.086780 0.053542 0.031801 -0.060685 -0.231332 -0.036631 -0.084362 0.169736 0.195648 0.349772 0.171698 0.039890 0.275732 -0.240837 0.007444 0.107421 -0.113909 0.166625 -0.003291 -0.083330 0.167703 0.113152 0.122196 -0.852840 -0.108528 -0.143238 0.128634 0.066761 -0.102246 -0.024137 0.033903 -0.078059 0.344548 0.229301 -0.276391 0.176463 -0.275387 -0.069585 -0.026033 0.014803 -0.176982 -0.276615 -0.202671 0.250415 -0.265257 -0.310105 -0.304357 -0.122912 -0.058353 0.099675 -0.246853 -0.237416 -0.124726 0.035446 -0.143541 0.128098 0.059971 -0.294022 -0.050099 -0.340329 -0.015208 -0.060884 -0.115584 -0.277829 -0.124639 0.614393 0.372928 -0.011917 -0.221712 0.145973 -0.239454 -0.149257 -0.121017 0.481533 -0.049266 0.112418 -0.148888 -0.001248 -0.098391 -0.064297 0.082921 -0.111977 0.297583 -0.046244 -0.059065 0.154940 -0.230420 0.179859 -0.380241 -0.134948 -0.108630 0.241235 0.286618 -0.038043 -0.180029 0.333331 0.342649 -0.033200 0.021053 -0.010786 0.502473 -0.018916 0.041895 -0.209325 -0.240567 -0.008944 -0.151211 0.125543 0.611314 0.187525 0.140658 0.016596 0.020133 -0.475035 -0.031118 -0.054389 0.253296 -0.006214 -0.036342 -0.160464 -0.021665 0.316954 -0.167258 0.206807 0.144438 -0.017428 -0.323575 -0.241277 0.004573 0.248368 -0.289833 0.016642 0.060934 -0.004043 -0.201108 -0.151693 -0.130532 0.065804 0.007917 0.230435 -0.315394 0.169241 0.088971 -0.128756 0.286328 0.199388 -0.159332 0.143027 0.220558 0.159145 0.104666 -0.232305 0.022618 -0.193052 -0.256811 -0.171741 0.355458 0.168005 0.150591 0.032371 2.205343
for 0.082988 0.045528 0.058218 -0.201071 -0.293662 0.020694 0.068610 0.408900 0.117691 -0.320461 0.405611 0.022748 -0.110882 -0.025320 -0.421442 0.038673 0.108501 0.242501 0.047715 0.126719 -0.125255 -0.066057 -0.215929 -0.066248 0.255586 -0.164416 -0.085025 0.110700 0.266573 -0.171003 -0.045341 0.104170 0.251645 0.031648 0.120174 0.049241 -0.080775 0.352984 -0.053049 0.007896 -0.125777 -0.019776 0.091026 -0.284900 0.019442 -0.269830 -0.141284 0.238180 -0.362043 0.170672 0.151088 0.122444 -0.474104 0.074581 0.240137 -0.298889 0.104811 0.016748 0.088358 -0.112753 -0.081146 -0.084052 -0.054944 0.004871 -0.086452 -0.090399 0.223822 0.427061 -0.026745 -0.392305 0.429156 0.346724 0.142875 0.046740 0.109677 0.111304 0.076697 0.042980 0.169742 0.238829 -0.019921 -0.214049 0.207053 -0.155774 0.327884 -0.106241 0.098277 0.142119 -0.309116 0.007621 0.323673 0.045284 0.184359 0.184553 -0.032234 0.087855 -0.074896 -0.120236 -0.316923 0.106189 0.096236 -0.060439 -0.194986 -0.047714 -0.081685 0.051280 0.021915 0.259206 0.113164 -0.478556 -0.115478 0.283443 0.120421 0.197532 -0.119666 -0.099754 0.058788 -0.043541 -0.003134 0.011426 -0.089798 -0.248217 -0.024224 0.103789 0.163386 -0.020908 -0.174093 0.139479 -0.086791 0.012327 -0.084844 -0.329852 -0.152807 0.068747 0.156960 0.056176 0.137720 -0.204582 0.072314 0.463908 0.085826 -0.321884 0.077727 0.398923 -0.095900 -0.114065 -0.282704 0.278136 0.041070 -0.096552 0.032711 -0.091655 -0.142122 0.000569 0.341341 -0.047544 -0.103289 0.121241 0.278538 0.360355 -0.123174 -0.236772 -0.055503 0.054219 -0.155821 -0.020188 0.054169 0.306954 -0.064622 0.058787 -0.254148 0.076354 -0.354707 0.312423 -0.626282 0.129884 -0.078464 -0.355968 0.208129 0.115436 -0.071131 0.322725 -0.109307 -0.052620 -0.024848 0.136670 0.305154 0.174809 -0.103121 0.315088 -0.140051 -0.074213 0.008733 -0.157881 -0.272789 -0.316318 -0.047498 -0.287711 0.423555 -0.086563 -0.226944 -0.383632 0.010360 0.222309 0.027948 0.110917 0.269578 -0.441060 -0.092580 -0.188341 -0.038542 -0.000023 0.081115 0.434435 -0.054495 -0.186373 0.291536 -0.324497 -0.110454 0.297803 -0.128622 -0.145076 -0.017322 0.039417 0.209369 0.180882 -0.311377 0.043375 -0.034864 -0.473884 -0.054773 0.400192 0.143558 -0.092522 0.263707 0.084575 0.062304 0.112867 -0.476639 0.268255 0.384610 0.126032 0.037721 0.306760 0.281501 -0.198247 -0.139104 -0.135921 0.216795 -0.020093 0.168999 -0.006183 -0.040009 0.133860 0.194657 -0.334716 -0.223395 -0.169171 -0.053031 -0.115079 0.127948 -0.077467 -0.195765 0.216627 0.073090 0.135283 -0.336437 -0.083078 0.246423 0.124243 -0.411250 0.338890 0.160103 -0.192725 0.087635 0.070048 0.104832 -0.387362 -0.114221 0.521501 -0.124367 -0.057688 -0.337829 -0.151806 -0.196990 0.324394 -0.081533 0.124820 0.062974 -0.241154 0.075702 -0.171978 0.257623 0.313922 -0.465592 -0.408408 -0.080039 -0.092937 -0.298599 0.409486 2.278719
as -0.158667 0.296015 0.042937 -0.174638 -0.284242 0.032508 0.023388 -0.120751 -0.117981 0.261023 -0.411373 -0.135789 -0.078602 -0.098114 -0.121730 -0.039972 0.135812 -0.055610 0.082763 0.015677 -0.240441 0.033831 0.325716 0.250785 0.244217 0.180671 0.194397 0.376905 -0.121701 -0.103031 -0.059470 0.037935 0.047094 0.098113 -0.141678 0.097326 0.181984 0.082178 0.041848 0.103179 -0.064741 -0.058081 0.098320 0.011494 0.130896 -0.134593 -0.172418 0.001322 0.004077 0.063519 0.168234 0.306279 -0.027131 -0.014441 -0.001221 -0.007575 0.040087 0.088771 0.055775 0.246722 0.000407 0.330169 0.074756 -0.191468 0.047141 -0.249897 -0.245263 0.057577 -0.121859 -0.181198 -0.076690 0.244964 0.065837 0.075471 -0.161647 0.072755 0.261883 0.174183 0.093608 0.345323 -0.163538 -0.412121 -0.147458 -0.148821 -0.005944 -0.272908 0.225496 -0.225520 0.206657 -0.006797 0.122826 0.215236 0.030051 -0.061247 -0.202308 0.227333 -0.157189 0.260246 -0.060020 0.149232 -0.264183 0.039897 0.027058 0.104633 0.150756 0.170054 0.026397 -0.006125 0.268347 0.332413 0.381202 -0.055381 -0.150167 0.070400 -0.329777 -0.041270 0.213004 -0.196969 -0.311307 0.194730 0.427484 -0.004288 0.331854 0.310216 0.354881 -0.168936 -0.049837 -0.171608 0.007826 0.304482 -0.167609 -0.038842 -0.161516 -0.382083 0.239770 -0.317656 0.138642 0.026794 -0.198473 0.006084 0.037986 -0.147014 -0.026754 0.179899 -0.122827 0.428299 -0.061695 0.097160 0.166484 -0.091063 -0.057805 -0.413312 0.015025 0.201845 -0.129706 0.245218 0.123579 0.115826 -0.232264 0.188988 -0.241896 0.000962 0.024516 -0.346267 -0.071058 0.167536 0.213301 -0.121972 0.045794 0.049927 -0.036155 -0.153456 0.201276 -0.357262 -0.283308 0.264452 -0.234116 -0.230685 0.058572 0.169257 -0.140724 -0.130885 -0.330012 -0.077896 0.050754 0.271248 0.053050 -0.009339 -0.009214 0.379031 -0.261823 -0.343818 0.511755 -0.318792 -0.060667 0.305488 -0.162790 0.010674 0.441857 -0.225265 0.369165 -0.290101 0.031414 0.045894 0.056756 0.189618 0.454121 0.158277 0.118475 0.100937 -0.012253 0.404930 -0.370604 0.238843 0.065276 -0.303595 -0.025724 0.021188 -0.088027 0.032444 0.393363 0.080021 0.058222 0.079311 0.630041 0.092841 0.099316 0.322333 0.035290 0.138815 -0.053490 0.123471 0.078636 0.053004 0.035303 0.009250 -0.326890 -0.067351 0.173201 0.076875 -0.127183 0.317407 -0.342993 0.134764 0.348226 0.175308 -0.123404 0.015895 -0.279243 -0.071769 -0.022165 0.062528 -0.344812 -0.002622 0.211456 0.115597 0.081979 0.086184 0.115299 -0.322905 -0.090501 0.034799 -0.031589 -0.264780 -0.336602 0.359931 -0.009829 0.079466 -0.047646 -0.041491 -0.147245 0.042699 -0.333911 -0.384377 -0.281035 -0.174788 -0.002503 0.041489 -0.006009 0.394227 -0.319208 0.017047 -0.033605 0.117536 -0.387149 0.027072 -0.114727 0.131082 0.063437 0.139438 0.306381 -0.257884 -0.083233 0.123718 0.039416 -0.075981 -0.120980 0.147481 -0.204603 -0.110089 2.067117
he 0.014933 0.059529 0.092082 -0.264150 0.018836 -0.176548 0.225280 0.137529 -0.489368 0.170165 0.021569 0.253341 0.040346 0.262309 -0.347587 0.169067 0.090178 -0.130908 0.453896 0.282408 -0.113963 0.216492 0.350248 0.518669 0.149128 -0.040205 -0.105602 -0.254434 -0.221816 -0.078322 0.072540 -0.458823 0.129707 -0.295156 -0.108561 0.064894 -0.086938 0.311148 0.313270 0.155847 0.053168 0.173384 -0.182956 0.030254 -0.213871 -0.096725 -0.165771 0.310689 -0.112261 0.361872 0.041515 0.221901 0.189716 0.054676 -0.091883 -0.211420 0.375310 -0.211691 0.056377 -0.033220 -0.006599 -0.204591 0.284202 0.421769 0.258019 -0.329209 -0.225536 0.032104 0.204016 -0.025973 -0.127233 0.092251 -0.139482 0.007689 -0.199712 0.204882 -0.111134 0.070261 0.375551 -0.048053 0.365203 -0.247574 -0.203648 -0.206357 -0.086962 -0.361409 0.069611 -0.173264 -0.444939 0.129425 -0.119383 0.361494 -0.187083 -0.074990 -0.019553 -0.093541 -0.213727 -0.048762 0.185807 -0.288754 -0.336867 0.053150 -0.036823 0.004614 0.012100 0.097651 0.090220 0.347362 -0.340283 -0.104211 0.099486 0.027297 -0.225138 0.136103 -0.031578 0.186228 -0.421367 0.142844 0.260947 -0.067307 0.247427 -0.073365 -0.038194 -0.175712 0.322405 -0.075408 -0.325704 0.237911 0.026317 -0.403518 -0.175992 0.025648 0.110746 0.010747 -0.023530 0.153612 -0.000286 -0.013802 0.332420 -0.264373 0.058694 -0.014281 -0.046055 0.149699 0.039275 0.186651 0.066795 0.072416 -0.052458 0.080082 0.293567 -0.198834 -0.214581 0.069163 -0.188402 -0.263382 0.009694 -0.092724 0.003332 0.116136 -0.133146 0.030140 0.317460 -0.308763 -0.245981 -0.082293 -0.058073 -0.091564 -0.215908 -0.083579 0.139231 -0.109129 -0.170101 0.339443 -0.277205 0.250921 0.089228 -0.218624 0.050539 -0.007191 -0.341417 0.243836 0.062212 0.084458 0.172872 0.114404 0.011961 0.055052 -0.034362 -0.015767 0.109959 0.142215 0.364610 -0.009272 -0.237869 -0.133167 -0.016620 0.225108 -0.065651 -0.400856 0.355791 -0.021411 0.093872 -0.282645 0.132637 0.153987 0.133296 -0.251768 -0.164847 -0.087309 0.424379 -0.150794 -0.054509 -0.643267 0.110188 -0.441756 -0.115664 -0.104870 -0.065590 -0.314910 0.043846 0.029923 0.237248 -0.146524 0.043169 0.275196 0.099469 0.182730 0.076133 -0.187853 -0.127325 0.394728 -0.112337 -0.170810 -0.155660 0.037074 0.042264 -0.428181 -0.138902 0.116084 0.098108 0.336768 -0.220106 -0.039758 -0.320054 -0.101381 0.135163 0.015699 0.349025 -0.149783 -0.266943 -0.068193 -0.189122 -0.117627 0.103253 0.346806 0.128282 -0.083562 0.146815 -0.224834 0.277900 -0.236930 -0.213153 0.158526 0.071877 0.068010 -0.122656 -0.042012 0.154153 0.269761 0.211878 0.318025 -0.174218 -0.068892 0.032521 -0.328890 -0.128413 -0.216436 -0.375540 0.370004 0.178904 0.176660 0.170535 -0.510460 -0.033006 0.029775 0.029768 -0.306022 -0.331376 0.198096 -0.011694 -0.105553 0.311887 -0.298392 0.162765 -0.021303 -0.018530 0.111673 -0.122521 -0.175061 2.046459
this 0.154056 -0.006563 0.295623 -0.394827 -0.170322 -0.173846 -0.074222 0.221418 0.001638 0.035021 0.042790 0.154430 -0.123608 -0.284469 -0.019506 -0.040445 0.279777 0.229298 -0.214976 -0.043271 -0.257262 0.202509 -0.117462 0.149948 -0.171625 -0.196880 0.118675 0.154343 0.088548 -0.073329 0.172385 0.052766 0.065986 0.259358 -0.256690 -0.100704 0.125085 0.011168 0.465301 -0.021101 0.234679 0.009474 0.107606 -0.002807 -0.029875 -0.104628 -0.193355 0.160975 0.002382 0.339179 0.068813 0.170777 -0.052756 -0.004493 -0.016590 0.051932 0.228365 0.043767 0.170916 -0.094870 -0.268514 -0.120046 0.021468 0.199001 0.058600 0.081910 -0.226658 0.040611 0.334279 -0.379407 0.077957 -0.050381 0.051549 -0.023791 0.276901 -0.312009 -0.141899 0.024140 0.115958 0.021840 0.352414 -0.274599 -0.343042 -0.286428 -0.262091 -0.474349 0.337350 0.010503 0.052183 0.084340 0.338119 -0.254583 -0.070176 -0.203513 0.421667 0.059557 0.237373 0.049326 -0.156290 0.179465 0.041556 -0.056215 0.360075 0.069902 -0.159743 0.160522 -0.054846 0.196351 -0.080880 0.038513 -0.137178 -0.030038 0.004254 -0.144281 0.023853 0.196868 0.195333 0.029540 0.059976 -0.023423 -0.015691 0.107757 0.001506 -0.004936 0.141961 0.079115 -0.251389 0.040849 0.047880 0.266113 0.058874 0.196319 0.285596 -0.447445 0.112279 0.095415 0.048601 -0.229709 -0.099081 -0.074395 0.303407 0.041900 0.301336 -0.186370 0.347020 0.224231 0.382714 0.297885 -0.073989 0.170606 -0.163536 0.167584 0.126269 -0.278212 0.006795 0.031780 -0.202303 0.006637 -0.008186 0.067812 -0.102368 0.071137 0.100193 -0.231242 -0.179011 -0.066141 0.227357 -0.032188 0.016008 -0.268878 0.263040 0.004876 -0.168775 -0.214020 -0.371332 0.240694 0.171319 -0.059162 0.057634 -0.224477 -0.053368 0.126243 -0.035470 0.117725 -0.206889 0.419528 -0.024057 -0.190927 0.082587 -0.117634 0.054505 0.162995 0.021034 0.108207 -0.152028 0.066920 0.047961 0.246952 -0.078536 0.017262 -0.018977 -0.165685 -0.293817 -0.083717 -0.290459 -0.015293 -0.145320 -0.074047 0.062044 0.215495 0.262719 -0.196250 -0.000199 0.289263 -0.210275 -0.145149 0.085378 0.157434 -0.502741 0.002934 0.289909 -0.168913 0.115818 0.022559 0.070570 -0.154456 -0.460070 0.295332 -0.125319 -0.105406 0.272620 0.062082 -0.042964 -0.049384 0.267787 -0.147279 0.212211 0.014786 -0.257092 0.128036 -0.110369 0.296215 -0.388330 0.381018 -0.246566 -0.256366 0.065182 -0.015704 -0.367429 -0.328481 0.329264 0.000389 -0.092318 -0.274035 0.424512 0.063655 0.053217 -0.270237 0.376062 -0.333256 0.304648 -0.040491 0.152971 0.279505 0.259191 0.308098 -0.145208 0.000219 0.041498 0.257279 -0.229072 -0.242012 0.379716 -0.520465 0.059584 0.202619 0.096304 0.261352 0.398310 -0.048737 -0.022372 0.242806 0.128115 0.187192 0.084997 0.112346 -0.029107 0.071498 0.464060 0.316312 -0.046397 -0.402821 0.056176 0.072327 -0.054186 -0.160671 0.173046 0.151663 0.096477 -0.098572 2.147169
but -0.034060 0.230299 -0.021982 0.004265 0.053911 -0.067469 -0.080834 -0.250644 -0.097556 0.054269 -0.049375 -0.361909 0.249539 -0.200589 -0.025567 -0.243862 -0.040578 -0.044365 -0.157451 0.068651 0.093938 -0.065008 -0.100301 0.116042 -0.158313 0.039016 0.081647 -0.113328 -0.024346 -0.077749 0.136967 0.224210 -0.139954 -0.017761 -0.275136 -0.205227 0.261302 0.196408 0.046648 0.084320 -0.066403 -0.120192 -0.173107 0.139915 0.333739 -0.300148 -0.025883 0.183828 -0.120089 0.105675 -0.084936 -0.154989 -0.414940 0.184970 -0.031224 0.025442 0.142989 0.032022 -0.127756 0.141123 -0.254708 -0.258458 0.005906 -0.034724 -0.154725 -0.073725 -0.168340 0.432547 0.258811 -0.186840 -0.252235 0.492858 -0.228093 0.367813 0.376051 -0.048630 0.169083 0.051833 0.181575 0.101127 -0.092790 0.026347 0.001104 0.232332 -0.363991 0.004939 0.272639 -0.124746 -0.349110 0.012077 0.121664 -0.005544 -0.207085 -0.000302 0.192897 0.023637 0.169397 0.132226 -0.065194 -0.072120 0.085103 -0.138814 0.088906 0.251884 -0.191726 -0.143786 0.206396 0.176451 -0.046498 0.012943 0.079970 -0.224899 -0.263392 0.049329 -0.148107 -0.027922 0.087998 0.134483 -0.156353 -0.112911 0.260000 -0.247437 -0.206042 -0.142013 -0.042828 -0.208077 0.097600 -0.053904 0.050532 0.119562 0.181310 -0.194855 -0.149115 -0.144798 -0.079468 -0.032727 -0.119979 0.089192 0.185630 0.581628 0.109577 -0.158437 -0.123647 -0.062735 -0.093970 -0.121569 -0.113515 -0.028206 0.078966 -0.062503 0.275425 -0.449095 -0.109729 -0.335217 0.057918 0.167099 -0.094818 0.116287 -0.246188 -0.187877 0.065536 -0.113727 0.104900 -0.388597 0.169161 0.147603 -0.052607 -0.012176 -0.062685 -0.239530 -0.032676 -0.360815 -0.182952 0.153517 -0.486392 -0.022574 0.034834 -0.056857 0.242500 -0.211628 -0.089359 0.210231 0.167617 0.368002 -0.001732 0.163000 -0.286865 -0.243033 -0.330310 -0.037688 0.032509 0.082094 0.383434 0.071579 -0.124689 0.009439 0.164626 -0.273551 0.071205 -0.190601 0.001774 0.072425 0.249844 -0.197085 -0.383721 0.123362 0.140646 0.025673 -0.046260 -0.163336 -0.032734 -0.062406 -0.092341 -0.063325 0.005202 -0.016422 0.052479 -0.207202 0.003185 -0.086853 0.218582 0.044961 -0.229872 -0.102326 -0.357226 -0.138924 -0.265708 0.420010 -0.227522 -0.209163 0.214608 0.199946 0.192141 0.172237 0.137166 0.067693 0.023826 -0.375841 0.247056 0.030622 0.252950 0.050993 -0.239420 -0.128025 0.163058 -0.422031 0.100387 -0.123523 0.362727 -0.036798 0.134001 0.068520 -0.082052 -0.151568 0.067652 0.124748 -0.009559 -0.062304 -0.021301 -0.190716 0.049918 -0.299645 -0.042557 -0.058570 -0.121184 -0.019643 -0.075230 0.047843 0.162882 0.108410 0.188017 0.069461 0.218399 0.032727 -0.194344 -0.185682 -0.354563 0.200432 -0.063593 0.660661 -0.167486 0.027704 0.011831 0.165976 -0.135288 -0.235897 0.209087 0.148598 -0.150315 0.091091 -0.018678 -0.227478 0.166119 -0.069671 -0.142905 -0.313250 -0.014107 0.094096 0.090052 0.488740 2.116851
by 0.393707 -0.087401 -0.339503 0.096571 -0.211640 0.453456 0.041754 -0.142319 -0.154255 0.264377 -0.211400 -0.070382 0.301854 -0.212870 -0.026298 -0.006725 0.336051 -0.111172 0.247347 0.009957 -0.170823 -0.346892 -0.073723 -0.138597 -0.171440 0.108435 0.028753 -0.118873 0.341666 0.245522 0.102183 0.159574 0.026463 0.022583 -0.096876 0.154185 0.094596 -0.105190 0.194497 0.069303 -0.352980 -0.081010 -0.082187 0.198687 -0.153770 -0.183581 -0.002017 -0.117918 -0.470150 0.159279 -0.035773 -0.016140 0.061711 0.027465 0.002612 0.372055 0.342342 0.146281 0.095725 -0.198165 0.276975 0.005524 0.429293 0.086041 -0.158732 0.169773 -0.335980 0.064247 0.035929 0.260705 -0.313110 -0.075200 -0.232945 -0.190879 0.116838 0.258161 0.314996 0.064503 -0.128668 0.452485 -0.239934 -0.290768 0.067063 0.345253 -0.381312 0.312905 0.496903 0.073470 -0.098852 0.080796 0.178571 0.269233 -0.196064 0.084798 -0.275388 0.068554 -0.270115 0.019236 0.102498 0.223359 0.268802 -0.015401 0.103987 -0.293251 -0.234925 -0.058312 -0.319754 -0.079941 -0.241138 -0.192411 -0.587602 -0.184127 -0.095830 -0.040773 0.176141 -0.321162 -0.102486 0.117750 0.274009 0.155990 0.335850 0.101035 -0.118401 0.104117 0.194064 -0.023530 -0.016934 -0.156493 -0.126431 -0.076308 -0.028379 -0.025091 -0.178779 0.115371 0.152952 0.014571 0.022173 0.060769 -0.107968 0.106433 -0.110400 -0.103099 0.250157 0.018137 -0.295114 -0.085740 -0.114193 -0.245345 -0.278542 -0.184560 -0.199299 0.286986 -0.029767 0.028924 -0.188211 0.044794 0.180971 0.093632 0.010789 -0.185919 -0.157761 0.081202 0.419927 -0.006976 0.085430 0.366999 0.107051 0.165132 0.192264 -0.156680 -0.197695 0.044028 0.249490 0.157356 -0.234075 0.209942 0.073704 -0.328945 -0.218380 0.021674 -0.219113 -0.227862 0.040547 -0.172231 0.198702 -0.182394 -0.018511 0.355159 -0.335766 0.197675 0.168557 -0.067954 0.023059 0.060123 -0.120025 0.385379 -0.120403 -0.208638 0.320845 0.121166 -0.005920 -0.011729 -0.125318 -0.114960 0.443627 0.363329 -0.072554 -0.053632 -0.027731 -0.404730 -0.191239 0.114523 -0.057936 0.110769 -0.049194 0.114457 0.093362 0.394361 -0.265631 0.092493 0.301764 0.056664 0.062939 -0.549159 0.328752 -0.234791 -0.304658 0.475664 -0.215870 -0.214844 -0.071404 0.033734 0.043955 -0.191475 0.283690 -0.101810 0.120478 -0.068110 -0.094899 0.079271 0.233251 0.113899 -0.008823 0.503870 -0.164306 -0.140899 -0.068704 -0.154660 0.266155 -0.086386 -0.170895 -0.084175 0.118734 0.232450 0.149505 0.042009 0.058894 -0.009183 0.330279 -0.193914 -0.028345 -0.165617 -0.247791 0.031269 0.276133 0.067529 -0.134325 -0.068828 0.267966 0.151903 -0.438430 0.356174 0.111280 -0.155687 0.209999 0.041094 -0.329687 0.044979 -0.191149 0.475212 -0.073095 -0.226623 0.175779 -0.015718 -0.111042 0.202498 0.068463 0.179068 0.154921 0.402134 0.256579 -0.315754 -0.026968 0.175984 0.072257 -0.088450 -0.113032 0.358259 -0.136577 -0.264912 1.988442
which -0.204210 -0.080845 0.154562 -0.194519 -0.497937 0.377038 0.218839 0.149344 -0.352842 0.271620 -0.396849 0.142469 0.231322 -0.274655 0.189622 -0.019296 0.516902 0.164280 -0.168148 -0.156271 -0.228293 0.215508 0.248228 0.313727 0.025991 -0.013740 0.059196 0.182842 0.165984 0.104320 -0.313793 -0.048458 -0.184974 0.096702 0.219566 0.077325 0.188016 0.277398 0.132753 0.121294 -0.132813 -0.229683 -0.037451 -0.052479 -0.036282 -0.294471 -0.313168 0.199830 0.010038 -0.166243 -0.250289 0.218587 -0.199052 0.102499 -0.202075 0.289827 0.264635 0.052407 -0.114049 -0.245914 -0.157735 -0.168277 -0.107995 -0.169521 -0.400443 -0.421854 -0.115866 0.069617 0.165355 -0.000065 -0.658620 -0.022777 -0.073259 -0.179159 0.373897 0.174790 -0.105662 0.248674 0.387703 0.172229 0.098699 -0.324116 -0.149339 0.414529 0.040860 -0.141962 -0.022311 -0.384137 -0.045876 -0.347087 -0.062265 0.354839 0.254829 0.036011 -0.122034 0.211552 -0.123874 0.031510 -0.014311 0.049289 0.005778 -0.195494 -0.001522 -0.073246 -0.207372 0.392641 -0.192766 0.108626 0.032216 0.269400 -0.621750 -0.199931 -0.166239 0.333129 0.134471 0.090501 0.235000 -0.270101 0.041250 0.244209 0.173119 -0.374030 0.205892 0.205988 -0.091019 0.017608 0.011144 -0.256582 0.446158 0.221062 -0.046534 0.102707 0.029576 -0.122084 -0.063788 0.148809 0.323021 0.309511 -0.166276 0.098655 -0.142784 -0.057081 0.534055 0.199224 -0.271566 -0.172017 -0.091285 0.116652 -0.335625 -0.070152 0.329539 0.173379 -0.432074 0.236818 -0.289408 0.220154 0.017153 -0.137503 -0.083985 -0.037384 -0.278235 -0.136947 0.194456 -0.223838 -0.083157 0.055627 0.396300 0.114431 -0.197826 -0.327999 -0.226529 -0.146878 -0.230992 -0.054342 -0.291397 -0.155619 -0.052484 0.005685 0.151962 -0.242020 -0.107689 -0.102099 -0.183611 -0.066014 -0.236698 -0.191352 0.003763 -0.290206 -0.333205 0.024944 0.356279 0.007940 0.275353 -0.146578 -0.067727 -0.095757 -0.064814 0.020462 0.401788 0.081115 0.214720 -0.317359 0.100587 0.275442 -0.179886 0.243937 0.354217 -0.037668 0.051845 0.165805 0.183130 -0.102333 -0.004867 0.526958 -0.176692 0.371286 -0.221576 0.229208 -0.230256 -0.199236 -0.010312 -0.334319 0.473995 0.110036 0.004357 -0.268964 -0.116347 0.065887 -0.473216 -0.180842 0.099983 0.276787 -0.433048 0.032994 0.190855 0.031929 -0.302759 -0.175876 -0.067117 0.079490 -0.206159 0.474621 0.072518 0.147506 -0.200168 -0.238665 0.349051 0.079124 0.250160 -0.038105 0.052702 -0.044981 0.023671 0.184782 0.144901 -0.089535 0.124312 -0.186925 0.029991 -0.072538 0.377979 0.102511 -0.001519 -0.185240 0.074163 0.130866 -0.265167 0.000312 -0.044812 -0.146416 -0.126180 0.018986 0.112947 -0.117360 -0.166300 -0.010459 -0.129411 0.225683 -0.094953 0.057761 0.170337 0.110851 0.312668 0.137579 -0.200343 0.372745 -0.360142 -0.174646 0.046448 0.344171 -0.161444 0.062463 0.016093 0.080558 -0.051544 -0.086707 -0.077095 0.239920 -0.188227 0.357714 1.683068
have -0.137364 0.066573 -0.096810 0.019589 -0.104923 0.326490 0.076051 0.213075 -0.011361 0.198761 0.051694 0.221067 0.098330 0.325570 0.047174 -0.165004 0.426277 0.172059 -0.223019 0.273124 -0.050783 0.004091 -0.200290 0.011597 0.136829 0.147342 0.335834 0.376789 0.135435 0.021572 -0.219227 0.084408 0.271259 0.117492 0.002217 -0.093831 -0.080639 0.186703 0.102590 0.131026 -0.114837 0.222962 -0.074397 0.005020 0.155053 0.066600 0.087941 0.117953 0.065905 0.194686 -0.147295 -0.053194 -0.032186 0.173746 0.046262 -0.105320 0.285192 -0.168442 0.158124 -0.195344 0.068971 -0.327361 0.281568 -0.090475 -0.060902 -0.222209 -0.599527 0.050001 0.304534 -0.036975 0.408606 0.455304 0.013032 -0.041631 -0.246071 0.161149 0.263142 -0.065420 0.187039 -0.041615 0.233832 -0.109266 0.067051 0.463507 -0.137180 -0.123848 0.204903 -0.084438 -0.006144 -0.201572 0.206577 0.155541 -0.087233 0.160974 0.153540 0.167235 -0.179155 0.138549 -0.254577 -0.182050 -0.115510 -0.014132 -0.135289 -0.163967 -0.201023 0.202206 0.002739 0.542724 0.072098 -0.034594 -0.208867 0.118279 -0.145047 -0.276213 0.436644 0.199452 -0.243373 -0.093986 -0.202736 -0.030224 0.110676 -0.015030 -0.164602 0.131739 0.144493 -0.250457 -0.264058 0.212466 0.186938 -0.050135 0.174806 -0.208042 -0.237718 -0.140725 0.044631 -0.126745 -0.052826 0.058896 0.028121 0.240442 0.068919 -0.020067 0.148026 0.251856 -0.013060 0.270859 0.337377 -0.070220 0.166103 -0.008663 -0.067488 0.256205 -0.281186 -0.060795 0.111975 0.033963 -0.147741 0.129386 -0.250784 -0.057201 -0.428087 -0.114637 0.041932 -0.016319 -0.357867 -0.105065 -0.294758 0.035678 0.231318 0.116894 0.151739 0.211392 -0.011374 -0.260266 -0.068388 0.212229 -0.291782 0.387953 0.327545 0.024786 0.026094 -0.256934 0.156546 0.502767 -0.134349 -0.007643 -0.244813 -0.139233 -0.037384 0.045343 0.077814 0.124975 -0.094620 -0.188985 0.341568 -0.010415 -0.135744 -0.268118 0.554044 -0.242920 0.002038 -0.433056 -0.104473 -0.154816 -0.037785 0.057496 0.014315 0.197547 -0.304397 -0.113466 -0.019346 -0.159963 0.034058 0.135419 0.053363 -0.083612 0.252315 0.202317 -0.054022 0.010613 0.326476 -0.119456 0.502452 -0.464011 -0.225139 0.244662 0.118005 -0.185906 -0.202394 -0.268669 -0.031662 -0.151302 -0.174794 -0.021234 0.051282 -0.219966 -0.053310 -0.189023 0.051093 -0.283313 -0.159821 0.389589 -0.006408 0.075145 -0.374250 0.199577 -0.079582 -0.443699 0.131578 -0.146263 0.036992 0.147972 -0.158064 -0.322686 -0.159664 -0.052659 0.241063 -0.162863 -0.135656 -0.403925 0.244574 -0.036857 -0.035303 0.201887 0.008630 -0.204216 -0.058668 -0.112043 0.401551 0.213195 -0.038920 0.345302 -0.308751 0.330308 0.195436 -0.124551 -0.091587 0.123920 -0.383460 0.068422 -0.312148 0.181208 0.293721 0.086583 -0.222235 0.302526 0.527153 0.370162 -0.078661 0.023211 0.085645 -0.167971 -0.227569 0.323282 -0.172596 -0.290358 0.116660 0.130543 -0.195391 0.019076 1.830707
on 0.378521 -0.081461 -0.346469 -0.017293 -0.702155 0.105369 -0.138826 0.026460 0.029023 0.445634 0.087668 0.202150 0.102167 -0.135414 0.049476 0.089672 0.386456 -0.111682 -0.025507 0.136415 -0.020417 -0.222430 -0.091936 0.126496 0.176482 -0.558821 -0.243949 0.126307 -0.009414 0.143473 0.143182 0.218828 0.199444 0.155180 -0.052084 -0.061020 0.024262 0.170531 -0.308532 -0.035821 -0.066163 -0.453735 -0.313456 0.027406 0.293197 -0.096980 -0.239647 -0.274842 -0.201870 -0.147090 -0.006133 -0.261007 -0.106408 0.163490 0.040665 -0.006511 -0.277416 0.001033 0.189259 -0.353182 -0.296204 -0.287173 0.081102 -0.272741 -0.176746 -0.253535 -0.241874 -0.071882 0.000684 0.043021 -0.126416 -0.012076 -0.113061 -0.182801 -0.052414 0.007201 0.101338 0.367128 0.004680 0.034674 0.130069 -0.102910 0.167509 -0.263734 -0.028472 0.036504 0.392819 -0.230580 -0.593988 -0.207318 0.382716 0.225492 -0.019626 -0.145670 0.361099 0.075600 -0.168300 -0.086654 -0.074972 -0.048244 0.100927 0.285824 -0.087362 0.554877 0.022663 -0.136988 -0.062939 0.404801 -0.043827 -0.046052 -0.004791 -0.270398 -0.179358 -0.154395 -0.453739 0.078379 -0.328158 -0.379790 0.116306 0.025174 0.136347 -0.350817 0.312174 0.332723 -0.053708 0.041390 -0.134281 0.143385 0.193773 -0.029420 -0.155170 0.105219 -0.041830 -0.498818 0.356538 0.024667 0.065502 0.199648 0.026196 -0.097047 -0.210575 0.012719 -0.229813 0.105565 -0.125699 -0.031783 0.296024 -0.278412 -0.004686 0.051423 -0.036517 0.035778 -0.121509 -0.131843 0.168161 -0.037498 0.144192 0.058672 0.075745 0.018213 0.170018 0.041578 0.078469 -0.173866 0.089904 0.025102 -0.058378 0.050385 0.157486 -0.361651 0.157146 0.061034 -0.067239 -0.019333 -0.201945 -0.105275 -0.192502 -0.194304 0.118903 -0.371828 0.064512 -0.231560 0.114640 0.022463 0.336125 0.130412 0.060144 0.133930 -0.268670 0.425874 0.034991 0.161518 0.197238 0.035697 0.160662 0.133743 0.036858 -0.040296 0.074810 0.714252 0.299695 -0.252935 0.080532 0.287246 0.026486 -0.122713 0.275306 -0.215300 0.157191 -0.237347 -0.004426 0.284377 0.147518 -0.027504 -0.034231 -0.422220 -0.287707 0.313147 -0.039295 0.083873 0.208293 -0.169246 0.069905 -0.245884 0.348822 0.024242 -0.418192 0.098006 -0.234948 0.057116 0.062560 0.573432 0.387635 0.208480 -0.121170 -0.050521 0.246955 0.133387 0.336564 0.107571 0.009670 0.110208 -0.005256 -0.015487 -0.468421 -0.373921 0.134762 -0.349008 0.106038 -0.190773 -0.028801 -0.072198 -0.238120 0.049132 -0.092296 -0.149727 0.002600 -0.083436 0.151555 -0.139446 -0.133112 -0.028609 -0.024910 -0.235968 -0.084790 -0.150203 -0.100626 0.403354 0.105913 0.137274 -0.250187 -0.083232 -0.560671 0.062668 0.387288 -0.020145 -0.110531 -0.049293 -0.014459 -0.008566 -0.152085 -0.269675 0.172178 -0.259657 0.200159 0.084612 -0.114622 -0.041790 -0.209597 -0.156625 0.110056 -0.209698 -0.214936 -0.264525 -0.436209 0.339847 0.155511 -0.095241 0.061687 0.289374 1.765716
are -0.159633 0.359331 0.155050 -0.223117 -0.530742 0.463413 -0.154754 -0.200462 -0.440358 0.232163 -0.071747 0.117385 -0.103990 0.151622 0.361459 -0.144869 0.163936 0.096644 -0.199567 0.371880 0.081153 -0.072188 0.056676 -0.218665 0.067240 -0.000102 0.025930 -0.052306 0.287915 0.176885 -0.170438 0.014540 -0.300936 0.051992 -0.147511 0.218339 0.231188 0.183366 0.001211 0.248595 -0.033482 -0.170465 0.196780 0.091932 0.016207 -0.306932 0.255248 -0.200249 -0.008131 0.199951 -0.027930 -0.190893 -0.144620 0.082809 -0.233506 -0.035757 0.182599 -0.025883 0.243054 -0.012921 0.647787 0.061152 0.141837 0.004950 -0.469329 -0.143214 -0.113089 0.247884 0.136078 0.304454 -0.033076 0.403646 -0.009352 0.322166 -0.017412 0.263349 -0.314176 -0.127812 0.075489 0.380278 -0.163822 -0.189542 -0.215991 -0.256394 0.026238 0.152364 0.520139 -0.146631 -0.065048 0.065995 0.308773 0.530025 -0.183523 0.233968 -0.007373 0.260832 0.126205 -0.245081 0.051811 0.043839 -0.010745 -0.196140 0.193889 0.018196 -0.139464 -0.024728 0.220661 0.359562 0.235330 -0.133485 0.197175 -0.219781 -0.368480 0.152607 0.243096 0.064270 -0.017344 0.473515 -0.126181 0.041953 0.199534 0.341122 -0.306359 0.266104 -0.092938 0.226560 0.714005 0.277452 -0.233142 0.051368 -0.162925 -0.079469 0.244089 -0.122878 0.201213 0.017161 0.129006 -0.299656 -0.102862 -0.226548 0.116216 -0.118074 -0.038158 0.049656 0.296824 0.040774 -0.308101 0.143866 0.152470 0.193778 -0.028136 -0.112081 -0.272331 -0.029504 0.176000 0.293134 -0.071182 0.021044 -0.168716 -0.107561 0.109405 -0.189232 0.246564 0.032119 0.141396 0.185985 -0.229431 0.123057 0.057360 0.216651 0.002508 0.328003 0.114075 -0.252718 0.097837 0.125408 0.034912 0.315491 0.312804 -0.133598 -0.116595 0.039611 -0.100239 -0.119386 -0.028651 0.042104 -0.455701 -0.206821 -0.098662 0.202881 0.018436 0.115239 -0.090301 -0.037655 0.141942 0.061935 -0.204038 -0.252559 0.110196 -0.209064 -0.006206 -0.255074 0.388541 0.170636 0.130581 -0.191238 0.138231 0.413709 -0.232666 -0.220888 -0.138092 0.315274 -0.054044 -0.030002 0.185415 -0.123462 0.167019 -0.172885 -0.194308 0.016155 -0.113158 -0.291602 0.121783 -0.144621 -0.104621 0.064394 0.218188 -0.100413 0.343821 -0.571799 -0.069404 0.365167 0.414830 0.390809 -0.092353 0.134744 -0.219125 0.217573 0.303172 -0.006987 -0.221676 0.054453 0.224083 0.110420 0.032890 0.064340 -0.094919 0.083300 0.157718 -0.133503 0.101059 0.112515 -0.176831 -0.211455 0.158946 0.066350 0.348384 -0.158747 -0.184764 -0.300689 0.150521 0.138503 0.016024 -0.064619 0.304114 0.013126 -0.158501 0.250012 0.291414 0.146778 -0.105220 0.193623 -0.272487 0.222975 -0.191905 -0.022605 0.088258 -0.001408 0.043009 -0.043194 -0.004072 0.180379 0.177359 0.068026 0.056839 0.204113 -0.211026 0.057355 0.306590 0.292913 0.086782 -0.567804 -0.188816 0.309657 -0.251106 -0.120789 -0.120502 0.033242 0.175107 0.280205 1.719558
from -0.031668 -0.203156 0.307149 -0.226727 -0.264892 -0.080576 0.274416 -0.119961 -0.067763 0.165164 0.195070 -0.011749 0.110231 -0.082980 -0.152763 0.216466 0.024928 -0.155866 0.126452 0.034456 -0.253544 0.014181 0.412912 0.134839 -0.277335 0.020761 -0.098117 0.148531 -0.054900 0.239437 -0.232320 0.153605 -0.017782 0.015353 0.241875 -0.103833 -0.338932 -0.249117 0.050227 -0.198222 0.159268 -0.181992 -0.226404 0.033708 -0.074705 0.064734 -0.186504 0.133644 -0.137154 0.035819 -0.112850 -0.191738 -0.148670 -0.264131 0.188280 -0.153015 -0.301159 0.043645 0.065150 -0.110390 0.114044 -0.043420 0.174967 -0.140460 0.042563 0.196438 0.099384 0.231110 -0.019059 0.261443 -0.221056 -0.255104 -0.216617 0.017639 0.188177 0.333446 0.413270 -0.003780 0.307901 -0.165292 -0.192821 -0.078859 -0.002047 0.122436 0.103204 -0.095056 -0.110253 -0.179387 -0.100654 -0.507656 0.250078 -0.084888 -0.206032 0.262599 -0.032528 0.009507 0.153334 0.153607 -0.076391 -0.017304 0.065926 0.003336 -0.257153 0.093707 0.007294 -0.104206 0.148061 0.028476 0.202504 -0.144184 -0.229564 -0.291937 -0.176893 -0.230657 0.143355 0.209607 -0.189406 -0.083335 0.132637 -0.257665 0.442979 0.116614 0.213723 -0.076734 -0.031544 -0.025120 -0.148465 -0.015207 -0.008799 0.238816 0.153711 0.081692 -0.008625 0.042536 0.045609 0.197799 0.066482 0.162089 0.107823 0.280790 0.093910 0.100165 0.094251 0.363458 -0.154483 -0.147810 0.248219 -0.043826 0.167836 0.242207 -0.133998 -0.363553 -0.297500 -0.175761 0.121448 0.081235 0.288516 0.079916 0.369916 -0.105789 0.028944 -0.163852 -0.053729 -0.152315 0.203450 0.345446 -0.158483 0.276074 0.025702 0.030446 -0.145664 -0.224707 0.125162 0.009634 -0.112468 -0.172074 0.219627 -0.005755 0.244352 -0.705329 0.031479 0.286205 -0.178205 0.129005 0.455092 0.297700 0.019474 0.069851 -0.017759 -0.040533 -0.160913 -0.377461 -0.036593 0.050404 -0.143222 0.324926 0.455329 -0.049403 0.300781 0.058796 -0.078319 -0.525831 -0.464521 -0.158185 -0.142258 0.193166 0.349722 -0.224135 0.219285 0.261153 0.112375 0.107661 0.016604 0.279673 -0.094198 -0.379179 0.327757 0.277046 0.170524 -0.300301 0.395140 -0.096348 0.080213 -0.278254 -0.171240 0.365805 0.299476 0.424474 -0.153277 -0.226608 0.172486 0.012343 0.250767 0.072141 0.012900 0.252770 -0.238296 0.038976 0.327269 0.597511 0.105411 0.487503 0.317411 -0.008897 -0.227431 0.069068 0.342334 0.043362 0.117186 0.015203 -0.296971 0.016931 -0.029969 -0.215545 0.005514 -0.056315 0.122472 -0.222071 0.062661 -0.458524 0.065336 -0.247331 -0.096426 -0.065496 0.415440 0.181657 -0.263975 -0.500903 0.072924 0.274601 -0.544500 0.509332 0.066880 -0.222501 0.203348 0.242536 0.010924 0.081181 -0.006517 -0.139500 0.050438 -0.082229 -0.136136 0.373877 -0.494447 0.073065 -0.084746 0.071598 0.091315 0.171475 0.088152 -0.488697 -0.261718 0.053308 0.085245 0.085287 0.252016 0.091717 -0.324278 0.086698 1.754690
will -0.257610 0.537512 0.383763 0.085705 -0.157584 0.117596 0.249609 -0.105160 -0.192017 -0.043592 -0.174506 -0.126367 0.140298 -0.186037 -0.282778 -0.078875 -0.118556 -0.057978 -0.036608 -0.022727 0.059257 -0.234678 0.246950 -0.081991 0.071391 0.015233 0.136846 -0.050772 -0.277483 0.061128 -0.304692 0.349236 -0.566264 0.179650 -0.180804 0.210780 0.268097 0.040039 -0.212321 -0.195503 0.079216 0.043083 0.095998 0.089196 -0.199026 0.100431 -0.250950 -0.001303 -0.116409 -0.040030 -0.240945 -0.384014 0.122350 -0.217700 0.106447 -0.039324 0.172753 -0.314954 0.303877 -0.039480 0.013216 -0.374138 -0.152164 0.095030 -0.314026 -0.062140 -0.503962 0.037884 -0.047974 -0.307965 0.119526 0.200881 0.217390 0.028693 0.185192 0.009390 0.180961 -0.025745 -0.419987 0.361736 0.130439 0.116582 -0.007891 0.288948 0.298521 0.174384 0.253745 0.104722 -0.133561 -0.036171 0.118901 -0.103213 0.109702 0.137975 0.059493 0.279133 -0.016760 0.031486 -0.262430 0.345846 0.077941 0.210705 -0.170850 0.083533 -0.391914 -0.355263 0.182576 0.214830 0.167395 -0.001117 0.023819 -0.300749 -0.267909 0.197924 0.019266 0.135529 -0.176045 -0.241283 -0.206861 -0.151874 -0.043874 -0.057737 -0.214823 0.528838 -0.065945 -0.143725 -0.066105 0.261375 -0.214574 0.086489 0.237057 0.009953 -0.195602 -0.165735 -0.207052 -0.168261 0.297383 0.244881 -0.262526 0.267942 0.077335 -0.346138 0.000090 0.289401 0.330348 0.135617 0.210974 0.166279 -0.030245 0.182638 -0.093261 -0.084412 -0.060320 0.074451 0.158620 0.150204 -0.027374 0.170908 0.095199 -0.252082 -0.186106 0.415761 0.375319 -0.048389 0.142844 -0.168055 -0.023458 -0.162701 0.268750 0.025229 -0.280476 0.158653 0.232862 0.412135 -0.273762 0.070905 0.235210 -0.222801 0.007585 0.354860 -0.239938 -0.158387 0.033886 0.323285 -0.207061 0.019308 -0.090684 -0.061904 -0.020622 -0.134974 -0.188702 -0.279319 -0.164908 0.019261 -0.237722 -0.021505 0.378127 0.119505 -0.116854 0.144538 -0.151192 -0.022319 -0.095794 -0.126112 -0.271692 0.035437 0.319287 0.357067 0.102299 0.284319 -0.063293 0.218872 -0.028824 0.090131 0.258790 0.030137 -0.420824 0.089123 -0.045779 0.041451 -0.191202 -0.291904 0.134697 -0.177207 -0.161390 0.224480 -0.025596 -0.145446 0.089648 0.039481 -0.067459 0.210373 0.219385 0.069996 0.139438 -0.250167 -0.034010 -0.018338 -0.186115 0.112577 0.264353 -0.307404 -0.121688 0.083036 -0.327802 -0.156718 -0.227020 0.082740 0.105961 -0.054942 -0.129830 0.195291 -0.229687 -0.398119 0.249958 0.557725 0.274025 -0.201102 0.060277 -0.183692 0.090089 0.078786 -0.192831 -0.265358 0.269654 0.049743 -0.153772 -0.017492 0.239273 0.437040 0.015085 -0.140916 0.142506 0.061034 0.439614 -0.096763 0.161323 -0.150280 0.257152 -0.009123 -0.406015 -0.090132 -0.398370 -0.002093 0.132742 0.046087 -0.397756 0.192817 0.040517 0.299035 0.053110 -0.034721 0.098318 0.099891 0.007477 0.115730 -0.185776 0.034520 0.136632 0.411069 1.714041
me -0.071226 0.266858 0.260548 -0.020260 0.130020 -0.068392 0.208824 0.393291 0.372732 -0.174254 0.647706 -0.009454 -0.110057 -0.132086 -0.216151 -0.029735 0.073149 0.236725 0.224335 0.023726 0.044304 -0.127090 0.396632 -0.130289 -0.010184 -0.050465 -0.118716 -0.401856 -0.067029 -0.281053 -0.012651 -0.229605 -0.030639 -0.045601 -0.224743 0.050342 0.020240 -0.133759 -0.135046 -0.461616 -0.444179 -0.113711 -0.092349 -0.040945 0.116069 -0.228970 0.177356 -0.037551 -0.043298 0.104540 -0.041523 0.079966 0.027097 -0.289401 -0.387276 -0.029335 0.212770 -0.164108 0.181234 0.305213 0.019674 -0.141464 0.135472 -0.157608 -0.153822 -0.330132 -0.211087 0.150132 -0.171119 -0.474967 0.064649 -0.142688 -0.177325 -0.099707 0.095370 -0.139633 -0.227732 0.461130 -0.049248 0.396476 0.048040 -0.099321 0.085598 0.442812 -0.109502 0.348371 0.180560 0.001507 -0.141319 0.499168 -0.025794 -0.021428 0.223490 -0.016408 0.452590 -0.172898 -0.119888 0.322206 -0.407559 0.122120 -0.222246 -0.138408 0.379764 0.225834 -0.032008 0.287259 0.399729 -0.161333 -0.312750 -0.018341 0.053350 -0.054585 -0.310950 -0.238943 0.127866 0.185014 0.116820 0.106367 -0.201005 -0.061129 -0.190676 -0.191763 -0.020019 0.017804 0.166391 -0.038333 -0.141360 -0.016334 -0.172723 -0.106664 0.039458 -0.194174 0.045143 0.223367 -0.143424 0.116148 0.289535 -0.286640 0.368251 0.246863 0.246584 0.034246 0.149652 -0.193528 -0.082577 0.281722 0.121278 0.364927 0.058578 0.111505 -0.119145 0.107013 0.100419 -0.262734 -0.278422 0.104445 -0.189630 0.272995 0.059132 -0.125010 -0.006497 0.078327 -0.075839 -0.229226 -0.162084 -0.118236 0.214542 -0.018122 -0.083929 -0.028205 0.036201 -0.114383 -0.097616 0.334461 -0.118515 -0.200998 -0.230020 -0.060021 0.100408 -0.197339 -0.026664 -0.300663 0.318944 0.018629 -0.027561 0.374671 -0.496490 -0.247167 0.407553 -0.109559 0.235128 0.238104 -0.375596 0.223731 -0.097662 0.054300 -0.044817 0.474206 -0.508482 0.089006 -0.013095 0.127439 -0.114404 -0.191436 -0.074230 0.092101 0.320149 -0.466042 0.083095 -0.014502 0.177227 0.238036 -0.146222 -0.303686 0.112203 -0.139246 0.092803 -0.302536 0.225134 -0.113964 -0.094009 0.165887 -0.032870 -0.296856 0.170733 0.071712 -0.008427 0.123711 -0.089177 0.015152 0.163959 0.285513 -0.174164 -0.034114 0.185905 0.282232 -0.235387 0.127514 0.114260 0.134097 -0.358454 0.162983 -0.013672 0.094877 -0.443929 0.003079 -0.127954 -0.116787 0.228963 0.245669 -0.263085 -0.241087 0.141176 -0.365512 -0.288785 0.284239 0.121013 0.085918 -0.177067 -0.311181 0.102556 -0.056453 0.099383 -0.269312 -0.154836 -0.547554 -0.095648 -0.016384 0.232815 0.236444 0.217666 0.250841 -0.036205 0.105729 0.100562 -0.294159 -0.212586 0.000357 -0.007524 0.199173 -0.331365 0.140368 -0.196775 0.233409 0.371901 0.214161 -0.220959 0.288868 0.006305 0.192634 0.106865 -0.301832 0.126736 0.184275 -0.051224 -0.044605 0.623320 -0.113976 -0.216980 -0.079212 1.661974
their -0.258408 0.052681 -0.048756 -0.346119 -0.315411 -0.157808 0.055961 0.077241 -0.316390 0.111510 -0.409949 0.243680 -0.025897 0.058625 -0.078410 0.151774 -0.042755 0.045801 -0.164158 0.105024 -0.296727 0.383809 -0.016713 0.040030 0.399391 0.192394 0.195137 -0.252579 -0.061598 -0.331169 0.180186 -0.192766 0.102634 -0.319748 -0.106496 0.605658 0.252539 0.248323 -0.228172 -0.170977 -0.195504 -0.278064 0.167195 -0.048048 -0.112966 -0.390198 -0.073681 -0.356699 -0.244929 -0.150577 -0.024446 -0.090614 -0.461295 -0.166615 0.172131 0.062217 0.276591 -0.148973 0.435281 -0.012336 0.074884 -0.018223 0.186172 -0.035562 -0.208269 -0.042489 -0.238724 0.113061 -0.283687 0.149051 -0.014921 -0.073186 -0.286215 -0.145313 -0.003439 0.061098 0.451752 0.227426 0.040772 0.318519 -0.094260 -0.346387 -0.186711 0.070151 -0.188088 0.033102 0.284938 0.132896 0.119618 0.089752 -0.102245 0.147472 -0.335645 -0.235044 -0.185004 0.368246 0.121998 -0.173506 -0.012152 0.319925 -0.091541 -0.162590 0.155085 -0.118974 0.102236 0.074522 0.090558 0.119490 -0.043555 -0.146361 -0.171104 -0.113306 -0.063523 -0.193286 0.069373 0.027108 0.322354 0.097402 0.036606 -0.395232 0.055479 0.092218 0.248008 -0.071129 -0.245736 -0.106720 0.315031 -0.205940 -0.019715 -0.332392 0.077644 0.112914 -0.158543 -0.096511 0.187508 0.329674 0.642147 0.229887 0.139623 0.570036 0.087710 0.100493 0.275590 -0.083876 0.003422 -0.244776 -0.059717 -0.081571 0.095161 0.021218 0.420340 -0.153535 0.028572 -0.380764 0.507457 0.305142 -0.094366 -0.028958 0.264956 0.006978 0.022493 0.438792 -0.011490 -0.385739 -0.057481 -0.009276 0.336452 -0.250113 0.045098 0.229568 0.036032 0.356965 -0.098126 -0.310219 -0.199340 0.063023 -0.297895 0.083070 -0.308030 0.044438 -0.318856 0.371206 0.269255 0.384622 -0.213531 0.110513 -0.073765 -0.008626 -0.236683 0.185740 -0.244496 0.018619 0.222393 -0.107984 0.277682 0.098118 0.159216 -0.004595 0.393693 0.228986 0.001578 -0.353439 0.224915 0.191737 -0.387238 -0.011714 0.156454 0.122504 0.120769 0.037325 -0.004912 0.101263 0.266981 0.281454 0.302147 -0.202383 0.008964 -0.102287 -0.289254 -0.364271 0.094297 -0.355733 -0.018653 -0.201673 -0.007988 0.169236 0.116245 -0.120330 0.088763 0.334669 -0.210924 -0.073728 0.021825 -0.144853 0.224205 -0.318178 -0.363066 -0.215517 0.066464 0.074181 0.142352 -0.090096 0.130238 0.063666 -0.193998 -0.092386 0.109912 -0.418926 -0.091627 -0.305361 -0.045742 -0.052622 -0.433363 -0.087308 0.236061 0.109928 -0.422393 -0.151725 0.016165 0.175326 0.040512 -0.000312 0.013536 0.045567 0.346318 -0.063736 -0.186714 -0.367101 -0.247580 0.065583 -0.286969 0.149346 -0.171870 0.050727 -0.026498 -0.215227 -0.118115 0.084296 0.363094 -0.151813 -0.010542 0.014992 0.157214 0.082865 0.102857 0.387375 0.010342 -0.303323 -0.102985 0.177185 0.231613 0.164409 0.103518 0.005538 -0.114160 0.219386 0.055125 -0.082996 -0.138968 0.168130 1.569073
all -0.148724 0.096764 -0.038453 -0.413246 -0.199637 0.253741 0.231691 0.091909 0.291561 -0.059542 -0.294174 -0.186059 0.271236 0.102567 0.276420 0.233223 0.010568 0.055643 0.164767 -0.240052 0.189508 0.272221 0.116599 0.084055 0.297561 0.092609 -0.060894 -0.160852 0.258855 0.230844 -0.130836 -0.112878 -0.140860 -0.374618 -0.071131 -0.038449 0.005423 0.064261 -0.007712 -0.112002 -0.054221 0.278070 0.178952 0.217053 0.205894 -0.634812 -0.085838 0.235839 -0.345706 0.266582 -0.082394 -0.281543 -0.028428 0.138303 -0.135649 -0.174336 0.207163 0.123819 0.310229 -0.165716 0.021741 -0.289909 -0.104794 -0.044435 -0.086356 -0.040911 -0.126312 0.290328 -0.190205 -0.326556 0.030845 0.196336 -0.314134 0.020936 -0.113721 0.108218 -0.324574 0.097287 0.175244 0.454937 -0.303208 0.171712 -0.258175 -0.011602 0.237019 -0.269760 0.441063 0.044989 -0.034517 -0.025410 0.179438 -0.093115 0.074255 -0.099851 -0.228233 -0.197532 -0.031830 0.080822 -0.027542 0.044560 -0.128163 0.143169 0.030092 -0.029051 0.126800 -0.144190 0.159470 0.282846 -0.188155 0.175090 -0.241471 0.114424 -0.139000 0.234768 -0.122653 -0.282995 0.191849 0.104188 -0.411037 -0.085183 0.126139 -0.035887 -0.073578 0.322725 -0.249157 -0.243217 0.055663 0.131016 0.235471 -0.389832 -0.158555 -0.077784 -0.197268 -0.118879 0.121578 0.184367 -0.017629 -0.095681 -0.173385 0.182443 0.034620 0.312092 0.112339 -0.029383 0.156003 -0.129590 -0.313579 0.001238 -0.010562 -0.159008 0.073817 -0.523720 -0.305765 -0.033116 0.105083 -0.216517 0.227109 0.319724 0.100451 0.141815 0.182658 0.290999 0.027071 -0.090869 0.142584 -0.202172 -0.131356 0.156674 0.567947 -0.212639 0.096316 -0.199358 0.038332 -0.125687 0.046512 0.049311 -0.415863 -0.039634 -0.044092 -0.143739 -0.038264 0.031836 0.348642 0.125631 -0.096930 0.266512 0.104980 -0.125235 0.181784 -0.008032 0.111638 -0.199722 0.282067 0.213838 0.527525 0.348990 0.136171 -0.586464 0.253753 -0.074563 0.106763 -0.242278 -0.178330 -0.032052 -0.077122 -0.202470 0.493397 -0.222650 -0.164050 -0.082233 -0.038284 0.118763 -0.201772 -0.354509 0.064070 -0.144819 -0.020201 -0.287985 -0.203116 0.345817 0.011225 -0.007740 0.110714 -0.341392 0.072644 0.248028 -0.107275 -0.151507 -0.129699 -0.143883 0.081399 0.194854 0.034145 0.033918 0.015704 0.026367 -0.025828 0.192178 -0.150231 -0.045512 -0.041501 -0.027960 0.192509 0.305471 -0.023618 0.285549 0.138832 0.041112 0.072324 -0.078610 -0.070745 0.195669 -0.255156 -0.065214 0.350212 -0.180402 0.005579 -0.181097 -0.098158 -0.081155 -0.180330 0.096125 -0.023147 -0.448682 0.279103 -0.021810 -0.298673 0.175218 -0.018627 -0.257015 0.091228 0.161810 0.004823 0.193990 0.008208 0.199333 -0.381277 0.147740 -0.026626 0.150961 0.192971 0.111492 -0.084652 -0.120485 0.074785 -0.109180 -0.400841 -0.232688 -0.085650 0.015481 -0.037228 -0.294642 0.401417 0.050046 -0.465709 -0.031759 0.053458 0.523102 -0.020161 -0.080808 1.607042
was -0.039330 0.223688 0.018610 0.067042 -0.057031 0.193777 -0.178151 -0.023843 -0.390518 0.220474 -0.036892 0.171749 -0.008109 0.346078 0.047253 0.114061 0.178274 0.031918 0.310267 -0.272568 0.342795 -0.223667 -0.378810 0.093407 -0.156325 -0.378794 -0.048279 0.275114 0.028669 0.172709 0.043294 -0.076604 0.122984 -0.072889 -0.154925 0.050906 0.264231 -0.274007 0.188631 0.025592 -0.008836 -0.349375 0.045320 -0.289492 -0.161565 0.039384 0.235408 -0.110625 -0.272051 0.371489 -0.088140 -0.048480 0.063341 -0.016422 0.145173 -0.224737 0.212453 0.063998 -0.188491 0.206678 -0.277847 -0.085258 0.137433 0.089894 -0.219159 -0.138025 0.014119 -0.124770 -0.140018 -0.343627 0.310192 0.216468 0.140932 0.307200 0.072750 -0.032121 -0.085876 0.050259 0.118759 0.350378 -0.163365 -0.247375 -0.038272 0.150253 0.001210 -0.087435 0.030883 -0.182883 -0.141350 0.088958 0.098807 0.356648 0.116309 0.080771 0.188841 0.272088 0.174947 0.005580 0.239216 -0.274714 0.111717 0.345423 -0.073187 -0.089613 -0.350933 -0.088852 -0.131967 0.517341 -0.274049 -0.002559 -0.251328 -0.338931 -0.277704 0.150356 -0.050853 0.226940 0.527828 0.119479 0.146884 0.022389 0.184901 0.000985 0.084632 -0.065651 -0.029414 0.059604 -0.413054 0.094441 0.183686 0.064157 -0.156628 -0.011437 0.304363 -0.024825 0.199455 0.378425 0.014489 0.074835 0.032584 0.099080 0.189868 0.068904 0.265932 0.002468 -0.447720 -0.185478 0.215063 -0.165209 0.251904 0.126951 0.080466 -0.004714 -0.221667 0.390628 -0.151975 -0.075739 0.186269 0.065222 -0.180337 -0.293526 -0.046538 0.014456 0.040998 -0.077182 -0.353402 0.332455 -0.223628 0.050870 0.022710 -0.127705 0.220989 -0.306660 0.059810 0.187682 -0.342192 0.229292 0.383082 -0.000483 0.208769 -0.357895 -0.112394 -0.046224 0.129807 0.042744 -0.010326 0.129711 -0.222502 -0.245926 -0.075114 -0.192957 -0.000309 -0.442146 0.191931 0.134980 -0.295247 0.232652 -0.034426 -0.164498 -0.246792 0.023050 0.226371 -0.654469 -0.170516 -0.239216 0.130262 -0.166377 0.218378 -0.055964 -0.233330 -0.113212 -0.011322 0.165826 0.237026 0.272648 0.058942 -0.037082 0.288921 0.202124 -0.086897 0.032403 0.266740 0.112673 0.290506 -0.205299 0.016732 -0.052145 -0.364333 -0.287330 0.210170 0.130270 -0.026678 -0.066381 0.123449 -0.266877 0.155487 -0.021058 -0.232126 0.196221 -0.183143 -0.263540 0.118369 0.076265 0.054711 -0.127938 0.009475 -0.064001 -0.038950 -0.139195 -0.460821 -0.095668 -0.276369 0.305509 -0.204785 -0.440857 0.236401 0.351369 -0.472007 0.312865 0.327268 -0.220887 0.096028 -0.065535 -0.154221 0.056815 0.233218 0.007183 0.121574 -0.193694 0.020200 0.653867 -0.115193 0.167031 -0.457320 -0.142199 -0.500842 0.064146 -0.000005 -0.088580 -0.433272 0.530694 -0.162890 0.299832 -0.069590 -0.229865 -0.011351 0.124576 0.272009 -0.203844 0.137910 0.318938 -0.122326 -0.126414 -0.155722 0.194565 -0.108130 -0.298568 -0.373384 -0.046139 -0.202041 0.175990 1.537782
her 0.230416 0.051880 0.164859 0.122757 0.268333 0.464842 0.179444 0.295418 -0.208236 -0.201024 0.124633 0.185326 -0.152097 0.106097 -0.229135 0.100443 0.228433 0.519747 0.171790 -0.140213 0.016537 0.158568 0.431642 0.129338 0.169982 0.105571 0.090011 -0.133324 -0.026415 0.007186 0.224911 -0.002478 0.411132 0.223453 -0.116728 -0.315856 0.697854 -0.109492 -0.026049 0.003138 -0.003444 -0.287666 0.148032 0.168702 0.110177 0.075147 0.032073 -0.217661 0.462045 0.049966 -0.225142 0.055963 -0.038987 -0.055094 0.367203 0.479145 0.104511 -0.053450 0.319666 -0.099884 0.007297 0.227230 0.042154 0.321264 0.064588 -0.156571 -0.136020 0.180433 0.088015 -0.024993 -0.017160 -0.113296 0.055861 -0.092419 -0.118339 0.050057 -0.038683 0.183590 0.210593 -0.115062 0.065222 -0.183844 -0.062452 0.125661 -0.033993 0.037979 0.307386 -0.117953 0.094687 0.568388 0.423293 -0.079103 -0.106371 -0.197460 0.313602 0.022377 -0.045494 0.189365 -0.020626 0.028818 -0.077407 -0.058802 0.065805 0.359130 0.056627 -0.003788 0.164566 0.375221 0.122886 0.046765 -0.187133 -0.092269 -0.490754 -0.142710 0.129757 0.079846 -0.264524 0.183722 0.475558 -0.489099 -0.195525 -0.226320 -0.141420 -0.098108 -0.021669 -0.153086 0.020237 0.022671 0.019839 0.093028 0.133841 0.349779 -0.018681 -0.024843 0.154244 0.444123 0.470911 -0.308652 0.304371 -0.018753 -0.092923 0.021261 0.015442 -0.276771 0.144341 -0.151037 -0.058341 -0.167502 0.116217 0.083034 0.358008 -0.428798 -0.042567 0.038132 0.008383 0.459333 -0.022342 0.398857 -0.069313 -0.187734 0.074372 -0.062135 -0.336454 -0.451030 0.039083 -0.198739 0.044594 0.192795 0.163569 0.210190 -0.278339 -0.027848 -0.229619 0.246090 -0.487666 -0.110767 -0.254403 -0.020583 -0.277999 -0.184404 -0.292240 -0.321935 0.561391 0.113721 -0.235143 0.067095 0.306740 0.230442 0.050086 0.017504 0.201456 -0.119744 0.321135 0.207240 0.017193 -0.162713 0.075029 0.012357 -0.188269 -0.023812 -0.214509 -0.124813 0.062189 -0.178941 -0.245472 -0.026496 -0.022349 -0.464313 -0.247736 -0.338572 0.175927 -0.059665 0.088774 0.287238 -0.267892 -0.296698 -0.018366 -0.108155 0.126425 -0.013708 0.256840 0.329113 0.027764 -0.038723 -0.072420 0.465371 0.367890 0.259334 0.204150 0.074243 0.062319 0.043774 -0.025752 0.091072 0.372797 0.106976 -0.299593 0.140284 0.283485 0.102306 0.011431 -0.006199 -0.167814 0.064984 -0.014748 -0.288702 0.291998 -0.201498 0.034640 0.228879 -0.080289 0.476611 0.393296 -0.064495 -0.065475 -0.046051 0.027984 -0.234419 -0.102097 0.153196 -0.241468 0.108346 0.256463 -0.259011 -0.104685 0.306035 0.139525 -0.063429 0.074032 0.195708 -0.207252 -0.077199 -0.126520 0.029792 -0.017241 -0.052148 -0.304318 0.163776 -0.004877 0.128183 -0.034757 0.038223 -0.036681 -0.403452 -0.041299 0.079887 -0.107594 0.431732 0.143309 0.209565 -0.358590 -0.035629 -0.139771 -0.071243 -0.228635 -0.030075 -0.405631 0.164250 -0.246432 -0.109990 1.703423
or -0.246050 0.228652 -0.229593 -0.226145 -0.386551 0.082769 0.045906 -0.186344 -0.368875 -0.188769 -0.097424 -0.001327 -0.420640 -0.167960 -0.113678 0.061110 0.102280 0.035455 -0.433576 0.066963 0.096657 0.425880 0.100300 -0.250208 0.078691 -0.131179 0.318797 0.158956 -0.134963 0.152092 -0.215027 -0.084242 0.069624 -0.213652 0.036259 0.357930 -0.016049 0.401326 -0.262418 0.070563 -0.250635 -0.084374 -0.087585 -0.023908 0.158475 -0.217392 0.444177 -0.101912 0.061606 0.003402 0.021779 0.008772 -0.251372 0.176295 -0.207595 0.281073 -0.056383 -0.075477 -0.012504 -0.152275 0.340838 -0.092340 0.009569 -0.242590 -0.206731 0.061638 -0.470822 0.278514 -0.013061 -0.356050 -0.256356 0.018524 -0.206316 -0.314391 0.220270 0.059291 0.231798 0.257746 0.214955 0.101237 0.201345 0.239390 -0.199978 0.177579 0.000838 0.049634 0.061254 -0.391413 0.069351 -0.277829 0.053859 0.050002 -0.186853 -0.141277 0.037055 0.447513 0.046456 0.213870 -0.267798 -0.155735 0.171707 -0.121127 0.009399 -0.244615 -0.116647 0.032440 -0.101474 0.038549 -0.142141 -0.008855 0.004066 -0.008856 0.113101 -0.025939 0.066213 0.061754 -0.082600 -0.546042 0.010023 -0.277729 -0.002255 0.019181 -0.150720 0.001032 0.460675 -0.198862 0.134569 0.094402 0.120930 -0.124411 -0.083902 0.120317 -0.350789 -0.345596 -0.041504 0.004146 0.256083 0.034649 0.068540 -0.037952 0.193035 -0.541525 -0.032689 0.124531 -0.499014 -0.112500 -0.442226 -0.137808 -0.132066 0.443942 -0.017224 -0.019113 0.044290 0.304305 0.221829 0.294054 0.018424 -0.212380 0.030319 -0.211460 0.215962 0.061637 0.338620 -0.075838 -0.011783 0.118174 -0.006310 0.409344 -0.188110 0.133699 -0.219085 0.127973 0.096074 -0.101787 -0.047548 0.059379 0.263261 -0.304661 -0.279365 -0.054287 0.030100 0.061772 -0.076583 0.064881 -0.074509 0.344586 0.198093 0.211696 -0.250892 0.194363 0.019521 -0.385020 0.067549 0.251566 -0.121094 0.000281 0.171624 -0.044874 0.227339 0.060708 -0.109300 -0.414086 -0.181954 -0.154544 -0.053176 0.191198 0.520508 -0.176609 -0.089750 -0.088492 -0.244897 -0.117044 0.108197 0.003498 -0.129995 -0.159684 0.146484 0.161137 -0.220347 0.108790 0.118463 0.048030 -0.023336 -0.194945 0.197315 -0.123440 -0.294685 0.135553 -0.057930 -0.021925 -0.038768 0.267906 0.142975 -0.336675 0.113076 0.331136 0.225758 -0.082297 -0.266217 0.159722 0.045793 0.317845 -0.227805 0.060257 0.064400 0.130550 0.326267 0.389206 0.084142 0.081324 0.011429 -0.084558 -0.181241 -0.101769 -0.075271 -0.092440 -0.275482 -0.043140 -0.159419 -0.153712 0.064222 -0.185632 -0.316109 0.186920 0.375857 0.070283 0.009766 -0.139506 -0.146212 0.339852 0.014719 0.030661 -0.019702 0.009250 0.208035 -0.161528 -0.022797 0.346484 0.197526 0.345167 0.027864 0.215855 -0.064442 0.181660 -0.159963 0.350184 -0.150414 0.013077 -0.006592 0.454113 -0.183831 -0.433883 -0.168859 -0.073175 -0.173347 -0.197037 0.236790 0.182062 0.179530 0.025426 1.546686
