1240 300
the 0.000748 -0.001395 0.000126 -0.001498 0.000114 0.001089 0.001187 0.001502 -0.000086 -0.000903 -0.000627 -0.000469 -0.000427 0.000181 0.001196 -0.001108 -0.000648 -0.000606 0.000664 0.000052 0.000346 -0.000714 -0.000710 0.000982 0.001148 -0.000089 -0.000584 0.000482 0.001185 -0.001179 0.000887 0.001523 0.000717 0.001068 0.001046 0.001238 0.000839 -0.000798 0.001404 0.000931 0.000143 -0.000055 0.000970 -0.000597 0.001391 0.000847 -0.000411 -0.000378 0.001509 0.000294 0.001272 -0.001274 0.001591 0.000837 0.000861 0.001348 0.000232 -0.000803 0.000701 -0.000375 0.000190 -0.000409 0.000635 -0.000142 -0.001605 0.000405 0.001341 -0.000818 -0.000729 0.000858 0.000995 -0.001099 0.001414 0.001001 -0.001392 0.001149 0.000917 -0.001613 0.000691 -0.001105 0.001374 0.001402 0.001254 -0.000726 0.000545 -0.000736 -0.001527 0.000256 0.000357 -0.001309 0.001360 0.000642 0.000238 0.000569 -0.000242 0.000068 0.000447 -0.000049 0.001010 -0.000998 -0.001254 -0.000612 -0.000039 -0.001254 0.000394 -0.001068 -0.001045 0.001437 0.001485 -0.000530 0.001168 0.000042 -0.001053 -0.000615 0.000611 -0.001635 0.000540 0.001231 -0.001206 0.001039 0.001524 -0.001607 0.001394 0.000201 0.001327 -0.001578 0.001589 -0.001181 0.000208 -0.000295 0.000055 0.000696 -0.000738 0.001460 0.001636 0.000467 0.000415 0.000405 -0.001323 0.000267 -0.000238 0.000760 0.001020 -0.000268 0.000895 0.000910 -0.000657 -0.000670 0.001577 0.000074 -0.001511 0.000363 0.000399 0.001637 0.000803 0.001635 0.000124 -0.000183 -0.000539 -0.000554 0.001010 -0.000332 -0.001526 0.000932 0.000819 0.000407 -0.000647 0.000729 0.001478 -0.001247 0.001107 0.000972 -0.000920 -0.001074 0.000247 0.001296 0.000552 -0.000689 0.000783 -0.001163 0.000322 -0.000875 0.000893 0.001563 0.000316 -0.001578 -0.000413 0.001610 -0.000037 0.001420 0.000042 -0.001386 -0.000479 -0.000161 -0.000398 -0.000290 0.000085 -0.000438 -0.000222 -0.000467 0.000249 0.000643 -0.000422 0.000218 -0.000561 0.000634 -0.001151 0.001401 0.001250 0.001252 0.001599 0.000218 0.000109 -0.001615 -0.000661 0.001304 0.001275 -0.001251 0.001080 0.000128 0.000843 -0.000101 -0.000001 -0.000343 -0.000927 0.000218 0.000105 0.000362 0.000393 -0.001074 -0.000423 0.000211 0.000062 -0.000592 0.000758 0.001339 0.000841 -0.000784 0.000159 0.000049 -0.000343 0.000069 -0.001544 0.000142 0.000937 0.001186 0.000493 -0.000413 -0.000058 -0.000715 -0.001386 0.000520 -0.000568 -0.001415 -0.000670 -0.000758 -0.000333 0.000805 -0.000017 -0.000443 -0.001591 -0.001502 -0.001248 -0.000568 0.000916 -0.001619 0.001313 0.001003 -0.000050 0.001340 0.000844 0.000571 -0.000895 -0.000906 0.001355 -0.001393 -0.000526 0.000862 0.001022 -0.000255 -0.000349 0.000029 -0.001143 -0.000546 -0.000937 0.000813 0.001369 0.000702 0.001303 0.001601 -0.000764 0.000626 0.000800 0.001611 0.000635 0.000527 -0.000521 0.000895 0.001243 -0.000793 
of -0.199016 0.068450 0.014589 -0.061710 0.196440 -0.084467 -0.194850 -0.141972 -0.107647 -0.119207 0.038296 -0.015067 0.014452 -0.091399 0.203162 -0.143775 0.078236 -0.264636 0.055606 0.072336 -0.127360 -0.072652 0.079045 0.091048 0.007216 -0.031777 -0.009768 -0.061358 -0.140521 -0.116812 -0.029864 -0.051407 0.026490 -0.179811 0.132455 -0.128803 0.021329 -0.022050 -0.218709 0.227900 0.018543 -0.038581 -0.085004 0.016972 -0.040235 0.000043 0.135038 -0.020125 -0.097227 -0.247847 0.079660 0.302360 -0.181727 -0.234209 0.012711 -0.127243 -0.132276 -0.035031 -0.015166 0.024474 -0.150094 0.002434 0.128502 -0.040085 -0.029283 -0.050767 0.120980 0.047512 -0.120612 0.087536 -0.158840 0.085238 0.108112 0.018684 -0.009945 -0.003064 -0.116080 0.080939 -0.084009 -0.079410 -0.125631 0.108751 -0.033900 -0.117150 0.123052 -0.151462 -0.025327 -0.015568 0.140407 -0.089448 -0.025809 0.030250 -0.147076 -0.079606 -0.076091 0.007218 0.007193 -0.078910 0.121785 -0.230881 0.008922 -0.072317 0.092169 -0.088686 -0.017059 0.053982 0.008454 -0.022946 0.200069 -0.031753 -0.037855 0.094953 -0.199677 0.093095 0.078010 -0.049330 -0.096742 -0.102034 0.195062 0.064465 0.005740 0.073356 0.073714 -0.114780 0.149243 0.072376 0.295749 -0.050906 -0.109037 -0.090623 -0.041350 0.064522 -0.072187 0.184643 -0.171411 0.143103 -0.022052 0.128442 -0.023404 -0.082191 0.033896 0.195779 0.136029 -0.052921 -0.084095 0.092975 -0.095628 -0.233535 -0.123857 0.019610 0.190416 0.035106 -0.113629 0.056249 0.227990 0.024877 0.051444 0.071192 0.017296 -0.191940 -0.080575 0.059215 -0.094700 -0.081173 0.176309 0.248568 -0.101741 0.014322 0.055813 0.002249 -0.081101 -0.156621 0.019345 0.049744 0.144412 -0.007065 -0.048428 0.079149 0.174247 -0.048668 -0.064381 0.216828 -0.032697 0.194260 -0.045142 0.079897 -0.236180 0.059092 -0.027541 0.052906 0.281705 0.175080 -0.050359 -0.145496 0.083835 -0.273287 0.129240 0.259244 0.037130 -0.204757 -0.252775 0.257623 -0.063745 0.037775 -0.022175 0.161956 0.089926 0.113463 0.255462 -0.113970 -0.156080 -0.056290 0.005632 -0.017760 0.052309 0.051427 0.057960 0.080125 0.036705 0.158912 -0.079005 -0.104495 -0.203587 -0.152968 0.063536 -0.093993 -0.103851 0.058651 0.027116 -0.051705 -0.131360 0.303319 -0.173593 0.012477 0.011464 -0.214189 0.023630 0.145996 0.127384 -0.076756 0.043489 0.018147 -0.051056 0.190254 0.053941 -0.086864 0.059942 -0.274585 0.128482 0.064781 0.004158 -0.114662 -0.132411 0.065905 -0.082841 -0.015960 -0.035320 0.099019 -0.037836 -0.028606 0.090246 0.173934 -0.176357 -0.111812 -0.087091 -0.069393 0.223034 0.017672 0.185526 0.045667 -0.222993 0.047470 0.150206 -0.009729 -0.123896 -0.074393 0.087473 -0.072391 0.196720 0.009955 0.039530 0.160142 -0.175480 0.109876 -0.170191 0.017853 -0.039931 0.080227 -0.060487 -0.040205 -0.055105 0.026571 0.047277 0.136851 -0.091987 0.054657 -0.063078 -0.011396 -0.140289 -0.101778 
and 0.121908 -0.001219 -0.056632 -0.130017 0.127710 -0.060938 -0.009500 -0.116464 -0.036284 0.056355 -0.021223 -0.200104 0.075264 -0.047691 0.200157 -0.163963 0.080856 -0.012230 0.025446 0.077133 -0.115028 -0.124968 0.070217 0.098741 0.213073 0.114405 -0.070772 -0.035113 -0.091249 -0.063210 0.000371 0.025776 0.180284 -0.107333 -0.010143 0.055279 0.153493 0.096937 -0.066536 0.107062 0.092959 0.104090 -0.054166 -0.021908 -0.026995 -0.094214 0.063144 -0.091909 -0.052614 -0.203062 -0.060448 -0.013596 -0.112230 -0.075704 0.062267 0.076829 -0.078015 -0.290580 -0.001710 0.140265 -0.044779 -0.102096 -0.011709 0.117509 -0.068459 0.074234 0.078064 -0.085908 -0.128547 0.046738 -0.062473 0.128049 0.026813 -0.062324 -0.096876 -0.096716 -0.018988 -0.002026 -0.024649 -0.028712 0.034082 -0.002666 -0.047861 0.126426 0.135289 -0.209269 0.041898 0.047442 0.134951 0.014209 -0.113434 -0.087293 0.029254 -0.208116 -0.074429 -0.272672 0.201824 -0.127677 0.209228 -0.127413 0.082109 0.021399 0.071575 -0.050885 -0.072073 -0.069650 -0.063493 0.091368 0.086434 -0.001570 -0.103762 0.089775 -0.061313 0.023185 -0.063809 0.005807 0.003796 0.015011 0.087643 -0.003087 -0.022965 0.040705 0.007451 -0.077420 -0.005758 0.005180 0.157420 -0.137769 -0.027716 0.057220 -0.116154 0.145605 -0.195290 0.103507 0.051652 0.080619 -0.074265 0.121428 -0.155463 0.078974 0.005289 0.225611 0.113832 0.114137 -0.028547 0.101091 -0.136429 0.081188 -0.107647 0.087450 0.107982 0.024121 0.010496 0.058718 -0.022811 0.076931 -0.174595 0.189061 0.068510 -0.169315 0.078684 0.021117 0.088851 -0.059906 -0.067189 0.086170 -0.066852 -0.061592 0.008102 0.025996 -0.099752 -0.028305 -0.132894 0.049217 -0.005435 0.173369 0.057361 0.052367 -0.039539 -0.035248 0.130494 0.112713 -0.009022 0.276158 0.004371 0.068483 -0.010823 0.022724 -0.050554 0.106102 0.127881 0.017173 -0.059469 -0.056432 0.045674 -0.120521 0.122340 0.213846 0.041916 -0.135415 -0.072021 0.187324 0.034284 0.044563 0.148938 0.145410 0.039074 -0.117237 0.131278 -0.112401 -0.252894 -0.056763 -0.017042 -0.000178 -0.108250 -0.012522 -0.007448 -0.090401 0.080740 0.021337 -0.104621 -0.034385 -0.053861 0.134322 -0.097626 0.091191 -0.066662 -0.027211 0.112508 0.116602 -0.090792 0.059416 -0.238507 0.031245 -0.053136 -0.386445 -0.006950 0.088268 -0.030365 -0.048032 -0.080404 0.013130 0.022258 0.007863 -0.064394 -0.137127 -0.017222 -0.097083 0.085224 -0.103066 -0.079454 0.096757 -0.130695 -0.063314 0.092860 0.037005 -0.078770 0.102111 -0.146442 0.058315 0.089293 0.041993 -0.029235 -0.175868 0.099831 -0.054795 -0.011268 -0.254817 0.138725 -0.112675 -0.027003 -0.008646 0.213267 -0.121291 -0.143418 -0.156489 -0.105045 -0.151102 0.121638 0.039889 0.022557 0.042777 -0.016385 -0.006774 -0.188853 0.101510 -0.058034 0.033014 0.041411 -0.008453 0.236272 -0.143086 0.081557 0.009167 -0.080389 0.063654 -0.041057 -0.199137 -0.140947 -0.028354 
to -0.043573 -0.017065 0.006120 0.042411 0.129875 -0.241749 -0.004145 0.068338 -0.270843 -0.153324 -0.139635 -0.023694 0.038157 -0.049298 0.159198 -0.048612 0.032594 -0.109303 0.174506 0.132175 0.017268 0.034153 0.033456 0.122308 0.152313 -0.018587 -0.084503 -0.032711 -0.013762 -0.119380 0.030609 -0.096996 -0.032132 -0.087590 0.127223 -0.022849 0.016910 0.103154 -0.065605 0.147740 0.061634 0.037472 -0.096519 0.082431 -0.010552 -0.160003 0.172927 -0.205810 -0.046084 -0.136950 -0.011228 -0.005556 -0.055239 -0.178752 0.165626 0.026610 -0.062062 -0.132818 -0.036858 0.008026 -0.166877 -0.111178 0.142600 0.078637 -0.179790 0.234998 0.111132 -0.005371 0.058047 -0.066391 -0.169611 -0.008047 0.035617 0.128891 -0.001140 0.018076 0.032352 -0.050975 -0.076521 0.139065 -0.192060 0.004305 -0.223713 -0.047276 0.087574 0.011345 0.134129 -0.125144 0.163161 -0.136735 -0.037674 -0.127490 -0.100833 -0.159162 0.061469 -0.022821 0.187472 0.012704 0.109483 -0.123916 -0.032286 -0.165571 0.044189 0.116768 -0.025207 -0.071671 -0.075436 0.035481 0.090362 -0.093139 0.102774 -0.001417 0.029588 -0.094939 0.107160 -0.012412 -0.052088 0.038102 -0.090648 -0.024194 0.049155 0.021210 -0.067660 -0.066318 -0.138553 -0.015409 0.113722 -0.153198 -0.104960 0.025450 0.071224 0.021997 -0.004288 0.039376 -0.056386 0.066482 0.015296 0.171149 -0.031433 0.112353 0.052373 0.118754 0.123062 -0.034622 0.123482 0.050640 -0.056303 0.167908 -0.046874 0.112273 0.183657 -0.016814 -0.005494 -0.014769 0.105926 0.094379 -0.087517 0.005566 0.084990 -0.029360 -0.027836 0.062880 0.065267 0.167874 0.037726 0.069090 -0.008958 -0.205759 0.075582 -0.005686 -0.040319 -0.017956 -0.027436 0.107136 0.052288 0.032404 0.117484 -0.117170 -0.053469 -0.093248 0.069635 0.119341 0.042762 0.125508 -0.081755 0.000710 0.265975 -0.081682 0.023749 0.128068 0.207194 -0.000456 -0.076080 -0.060512 -0.164818 -0.125722 0.203399 0.086962 0.067581 -0.110524 -0.206970 0.093314 0.006643 -0.015288 0.107977 -0.010298 -0.000604 -0.121599 0.280770 -0.061239 -0.200204 -0.048980 0.056713 -0.111048 0.052135 0.151239 0.009862 0.005056 -0.044117 -0.133253 0.139372 -0.211226 -0.023112 -0.041958 -0.074302 -0.055894 0.003347 -0.002306 -0.041024 0.014051 0.041087 0.142981 -0.188689 0.178408 -0.008850 -0.100204 0.012783 0.047684 0.135710 -0.110445 -0.090639 0.014092 0.046405 0.022112 0.100180 -0.156752 0.017575 -0.172001 0.315928 0.014865 -0.101884 -0.060634 -0.141611 -0.097404 0.097585 -0.077017 -0.171174 0.242756 -0.001767 0.008566 0.197751 0.059930 0.036934 -0.008613 0.066021 -0.062518 0.080073 -0.228409 0.018776 -0.234900 -0.110476 -0.061669 0.159546 0.059309 -0.186374 -0.193272 -0.124238 0.004093 0.107639 0.051468 -0.060523 0.048387 -0.089982 0.089297 -0.011790 -0.122766 -0.021829 0.007280 -0.109739 0.030231 -0.076737 0.005515 0.292919 -0.001648 0.102668 0.146373 0.069212 -0.248764 -0.176206 0.081099 
a -0.000582 -0.041360 0.011603 -0.135210 0.032706 0.037949 0.086012 -0.121976 -0.124573 0.056770 0.011109 -0.004282 0.020896 -0.048506 0.111143 0.076134 0.162954 -0.122240 -0.019917 0.138332 -0.186473 0.098081 0.007193 0.007491 0.280453 0.177726 -0.000378 -0.153256 0.065093 -0.139244 0.054126 -0.110225 0.076336 -0.099330 0.194521 -0.148552 0.043592 0.054606 -0.169359 -0.000472 0.090507 -0.181795 -0.077380 -0.018174 0.113838 0.049215 0.336481 0.056487 -0.169246 -0.167492 0.094136 0.067914 0.047897 -0.044616 0.143344 0.073504 -0.044464 -0.175478 0.017701 0.029560 0.083494 -0.080859 0.181265 -0.043356 -0.105898 0.013355 0.060072 -0.156092 -0.041823 0.019316 -0.124748 0.173938 0.066539 0.023514 0.027121 -0.111067 0.146099 0.095343 -0.083599 0.237969 -0.102622 -0.113386 0.040395 -0.200981 0.078437 -0.016326 0.099397 0.010615 0.203449 -0.185073 0.092141 -0.092572 0.054715 -0.192032 -0.163916 -0.217456 0.042878 -0.008136 0.310741 -0.040627 0.051903 0.051742 0.319328 0.131328 -0.115008 -0.109856 -0.059573 0.059304 -0.005413 -0.052854 0.008953 -0.097198 -0.196457 0.003180 0.085643 0.004137 -0.205085 0.102322 0.015530 -0.006754 -0.048730 0.149146 -0.156798 -0.076917 0.027442 0.052311 0.131354 0.063149 0.230474 -0.103187 0.055022 0.101283 -0.153490 -0.027610 0.120940 -0.120414 0.077178 0.092283 0.072796 -0.100734 -0.035220 0.150437 -0.051194 0.197832 0.014064 -0.097505 -0.136642 0.094109 -0.112296 0.190579 0.123339 -0.151512 -0.110045 -0.108243 -0.058601 -0.140194 -0.175533 0.155920 0.041775 -0.111607 0.180735 0.078959 -0.158705 0.061174 -0.069835 0.191150 -0.002779 -0.004585 0.090345 -0.067443 -0.025960 -0.041555 -0.080058 -0.040737 0.153257 -0.030092 -0.013187 -0.008197 0.219093 -0.117358 0.126340 0.114141 -0.056116 0.098751 -0.010213 0.103757 -0.061186 0.073344 0.022677 0.022366 0.078661 -0.147155 0.097302 -0.052190 0.089358 -0.108991 0.034952 0.004455 0.051840 -0.022361 0.051273 0.094775 -0.177920 0.112218 0.143575 0.105907 0.062228 0.003744 0.047675 -0.143217 -0.050485 0.062962 0.108767 -0.065710 0.019950 0.186721 -0.117973 -0.257531 0.175978 0.045198 -0.017493 -0.044934 0.031844 0.011822 -0.007461 0.054797 -0.004085 0.027063 -0.075910 -0.094786 -0.149675 0.210005 -0.266805 0.158173 0.053792 -0.339466 0.000504 0.046189 0.129361 -0.042716 -0.051777 0.027963 0.250690 -0.014194 0.134903 -0.176621 -0.094842 -0.106880 0.082727 -0.066615 -0.083905 0.096079 -0.238124 -0.004500 -0.120733 0.072297 -0.142602 0.072381 0.116833 0.091221 0.190872 0.136913 0.036372 -0.124363 0.095769 0.051383 0.019098 -0.054265 -0.161537 -0.091514 -0.132641 0.067223 0.442404 -0.094764 -0.073961 -0.119637 0.174928 -0.110218 -0.215524 -0.019475 0.119176 0.009101 -0.234794 -0.134935 -0.064952 -0.126496 -0.011838 -0.015506 -0.237177 0.135676 0.287671 -0.082016 0.034303 -0.069623 -0.084099 -0.069721 -0.143745 -0.188516 -0.167554 0.011494 
in -0.047469 -0.133440 -0.110557 -0.060006 0.132621 0.031431 -0.030360 0.019701 -0.206150 -0.043745 -0.112264 -0.194093 -0.128743 0.011609 0.064311 -0.085695 0.050171 0.051952 -0.016624 0.078689 -0.067353 -0.035619 -0.009943 0.013834 -0.021786 0.225122 -0.048079 0.043369 -0.008042 0.089310 -0.155455 0.030583 -0.074823 -0.181621 -0.059377 -0.041090 0.029200 -0.025319 0.030719 0.198105 -0.078879 0.016422 -0.024045 -0.179216 -0.019628 0.169845 0.214761 -0.254132 -0.000228 -0.139304 0.103002 0.049594 -0.083199 -0.235915 0.121495 -0.008413 -0.146430 -0.064767 0.175986 -0.097169 0.000404 -0.014450 0.109446 0.330969 -0.035085 0.042111 -0.024547 0.039405 -0.007861 -0.078213 -0.126408 0.004399 0.124218 0.027468 -0.192460 -0.113816 -0.113696 0.064774 -0.226281 0.192237 -0.093042 -0.023396 -0.049566 -0.075688 0.054313 -0.203900 -0.061833 0.102427 0.101308 -0.019803 -0.119560 -0.037200 -0.068348 -0.218490 -0.094940 -0.134377 0.046240 0.063364 0.120471 -0.055425 0.045366 0.060272 0.107964 -0.134480 -0.041842 0.000707 -0.012727 -0.100293 0.187401 -0.114451 -0.051188 0.067815 -0.163043 -0.071163 -0.104626 -0.005487 -0.037508 0.023354 0.054237 0.120383 -0.093292 0.211005 -0.090718 -0.146889 0.174351 0.094232 0.317018 -0.166397 -0.046742 0.043755 -0.010857 0.043691 -0.076288 0.095845 -0.075329 0.113747 -0.090269 0.071947 -0.061389 0.002481 0.180307 0.261655 0.084007 0.049993 0.010178 0.155009 0.151599 -0.175320 -0.036130 0.045338 -0.047539 0.012334 0.058882 -0.005670 0.061108 0.110510 -0.099072 0.076973 0.087619 -0.038456 0.089237 0.097898 0.017026 0.046810 0.122894 0.059114 -0.047325 0.031895 0.138154 -0.206040 -0.116565 0.016876 0.021943 0.109451 0.141632 -0.004095 -0.069787 -0.005245 0.005134 -0.178094 0.037613 0.027075 -0.068656 0.212166 -0.096038 -0.002987 -0.096718 0.189725 0.041343 0.066450 -0.009336 0.077431 -0.088865 0.052495 0.167465 -0.141498 0.065281 0.297599 -0.126279 -0.111295 -0.136297 0.152487 -0.129091 0.062359 -0.050918 0.039217 0.010364 0.051886 0.284673 -0.059293 -0.118086 0.123593 0.073840 -0.010364 0.055003 -0.094422 0.006756 0.000174 0.112238 -0.071495 0.194888 0.037917 -0.160547 0.014202 -0.013009 -0.029387 -0.066349 -0.005542 -0.148804 -0.304596 0.041163 0.243708 -0.073081 -0.067779 0.061627 -0.009110 0.022922 0.060018 0.062897 -0.076626 0.008082 0.071192 -0.046837 0.046248 -0.059887 -0.309605 -0.098879 -0.141342 0.040550 0.020556 0.009735 0.147213 -0.177766 0.045898 0.049612 -0.045827 -0.115857 0.114785 0.030363 -0.053324 0.170209 0.132016 0.003860 -0.061844 -0.137766 0.030395 -0.114346 -0.071950 0.115161 -0.134328 -0.012205 -0.019183 0.118962 -0.167334 -0.088832 -0.075177 -0.049560 -0.017597 0.016093 0.124087 0.046771 -0.077771 -0.188758 -0.038405 -0.056523 0.070822 -0.145232 0.063530 -0.074628 0.016592 0.191741 0.045438 0.063328 -0.052887 0.173259 -0.036445 -0.031000 -0.036556 -0.152329 0.078119 
i 0.082361 -0.088523 -0.156496 -0.108094 0.140330 -0.089106 -0.151374 -0.069292 -0.058378 0.078156 -0.113206 -0.173465 0.092154 0.161372 0.050694 -0.055417 0.255217 -0.060330 0.178029 0.152165 -0.135133 0.012579 0.092807 0.035431 0.280448 0.116060 -0.172108 0.060840 -0.196383 -0.134380 0.155201 0.117899 -0.072871 0.077785 -0.014896 -0.078014 0.230001 0.228181 -0.199188 0.031864 0.137767 -0.150462 0.141207 0.146846 0.048224 0.148637 0.107836 -0.088934 0.246923 -0.171003 -0.001008 -0.065807 0.028442 0.195873 0.194678 0.083431 -0.106563 -0.377332 -0.030907 -0.073315 0.170238 -0.152526 0.132953 0.104371 -0.101010 0.154362 -0.072075 -0.039780 0.121664 0.223376 -0.086545 -0.126490 0.069806 0.255413 -0.034080 -0.111112 0.097898 -0.158097 -0.115666 0.206565 -0.000183 0.051021 -0.198979 -0.018850 -0.006882 0.173367 -0.006923 -0.216971 0.106644 -0.015597 -0.104330 0.016785 -0.046098 -0.133740 0.066526 -0.270061 0.028448 -0.118863 0.356193 0.210038 -0.147441 -0.080763 0.087745 0.210971 -0.142062 -0.160711 -0.098949 0.100041 -0.186158 -0.075192 -0.024184 -0.165859 0.058739 0.251566 0.132044 -0.100370 0.016217 -0.218431 -0.005413 -0.122885 -0.111468 -0.120376 -0.004995 0.030913 0.048472 0.157661 0.144826 -0.056993 -0.127030 -0.078960 0.036454 0.253224 0.043728 0.029345 -0.172791 0.124312 -0.031214 -0.164046 -0.042404 0.151581 0.046602 -0.003475 0.036825 -0.203843 0.025682 0.030992 0.122016 0.041381 0.072288 0.081617 0.254052 -0.061907 0.087430 0.036574 0.055014 -0.025890 -0.025527 -0.119091 0.020297 -0.210243 0.254209 -0.104260 -0.071175 0.148958 0.213495 0.050507 -0.010631 -0.226875 -0.002813 0.000893 -0.210198 -0.045022 0.020513 -0.034783 0.122641 0.141647 0.007076 0.074654 0.034410 0.024315 0.208701 0.234062 -0.087107 0.150080 -0.078225 -0.065565 0.228247 0.041541 0.163476 0.074261 0.306145 -0.066868 0.088986 -0.038321 -0.047883 -0.018372 -0.024659 -0.064145 -0.023194 0.040139 0.031636 0.285097 0.261769 0.152077 0.047618 0.142756 0.215542 0.271842 0.289193 -0.195265 -0.156986 -0.047747 -0.104661 -0.187549 0.046607 0.256559 -0.125811 -0.228673 0.056576 0.070525 -0.218219 -0.056958 -0.021878 0.264523 0.116895 -0.036866 0.030635 -0.202467 -0.208254 0.032566 -0.252909 0.241917 -0.162029 0.038800 0.066705 -0.066610 0.022739 -0.049658 -0.045942 -0.234814 0.108685 0.186738 -0.093254 0.018214 -0.032697 -0.017285 -0.090305 -0.226332 0.134546 -0.164544 -0.296402 0.189594 -0.279595 0.040680 -0.084383 0.049264 -0.403873 0.293697 -0.031519 0.067170 -0.041760 -0.118175 0.025191 -0.125312 0.023678 0.042171 0.012609 -0.298960 0.175106 0.042016 -0.212530 -0.124469 0.239201 -0.053082 -0.110239 -0.028385 -0.030734 0.101543 0.065882 -0.032724 0.058845 -0.042019 0.146869 0.015389 -0.115918 -0.310853 -0.065537 0.113697 -0.077900 -0.047175 0.212363 -0.166386 0.175805 -0.276318 -0.025973 0.117026 -0.035215 -0.161780 0.035404 0.034186 
that 0.084913 0.053601 0.134800 -0.100995 0.077411 -0.105247 -0.083647 0.010247 -0.166396 -0.071151 -0.008256 0.080976 -0.069462 0.065935 0.108213 -0.007941 -0.059812 -0.044481 -0.091279 0.120766 0.013950 -0.005561 0.008637 0.270097 0.078400 -0.004572 0.028959 0.114455 -0.047489 -0.132477 -0.007992 0.101259 0.189257 -0.148449 -0.154988 -0.122705 -0.033886 0.001184 -0.051916 -0.063665 0.022389 -0.113894 0.026097 -0.095093 0.111386 0.021276 0.276374 -0.121712 -0.026460 -0.214277 0.027932 0.180656 -0.039153 -0.244514 0.123172 0.213697 -0.030719 -0.159628 -0.016202 -0.079420 0.072097 -0.158636 -0.082444 0.074462 -0.056001 0.198728 -0.005823 0.181944 -0.161266 0.005857 0.098800 0.025972 0.087397 0.034885 -0.136042 0.014102 0.084464 0.079070 0.018205 0.197689 -0.121655 0.224130 0.034922 -0.121074 0.058423 -0.000805 0.025905 -0.203546 0.292093 -0.170540 -0.018912 -0.165758 0.052349 -0.153287 -0.033763 -0.263436 0.206801 -0.202883 0.162982 -0.158369 -0.146121 0.031129 0.230633 0.085903 -0.046658 -0.007352 0.003087 0.035466 0.042112 0.117226 0.247291 0.042288 0.056480 -0.014525 -0.040285 0.062015 -0.207318 0.029754 0.013176 -0.049508 -0.128365 0.006911 -0.308020 0.015526 0.050768 0.170690 0.067773 0.021575 -0.067692 0.070217 0.206038 -0.035286 -0.063338 0.157175 -0.002893 0.122390 0.047237 0.154291 -0.015073 0.019506 0.010989 0.258227 -0.157814 0.044923 -0.060465 0.144722 -0.030082 -0.112153 0.110090 0.042086 -0.187623 -0.069369 0.002339 -0.099181 0.159744 -0.122707 0.032252 0.031623 -0.155408 -0.124732 -0.011793 -0.015442 0.042140 0.152033 0.051460 0.153220 0.026733 -0.176706 -0.102873 -0.148876 -0.244508 0.004131 0.004676 -0.016848 0.083988 -0.065468 0.195206 -0.082817 0.031568 0.040285 0.030714 -0.006948 0.113369 -0.072925 -0.115885 -0.046749 0.029242 -0.080216 0.016583 -0.035096 0.140927 0.097237 0.066620 0.185891 0.197388 0.056580 0.041956 0.038265 -0.136423 0.077491 -0.036869 0.069759 -0.020175 0.154259 0.226395 -0.043549 -0.043260 0.102307 0.140319 -0.052681 -0.029203 0.077478 0.025020 0.011114 0.074685 0.107040 -0.083152 -0.082517 0.014015 0.020571 0.016860 -0.037376 0.016346 0.086102 -0.017819 -0.049358 -0.067350 0.038378 0.119386 0.227209 -0.160717 0.318471 -0.139298 -0.114302 0.009925 -0.290462 -0.058886 -0.054743 0.127948 -0.101481 -0.135247 0.182516 0.014003 -0.061697 -0.029718 -0.090834 -0.095506 0.083878 0.201794 -0.076784 -0.028393 -0.100597 -0.150566 0.106182 0.053004 -0.005800 -0.073438 0.050363 0.064097 0.102299 0.228152 -0.062699 -0.116062 -0.167651 -0.109350 -0.064216 0.020307 -0.213046 0.060384 -0.093286 -0.139891 -0.078389 0.029747 -0.078922 -0.212484 -0.142561 -0.004433 0.002450 -0.061844 0.028985 0.110814 -0.013654 -0.094635 -0.122938 -0.050411 0.089941 0.073411 0.111837 -0.024241 -0.087646 -0.189445 -0.118155 -0.114033 0.009101 0.005033 0.246904 0.075858 -0.056483 0.025863 0.059203 
is 0.068301 0.012833 0.210589 -0.182558 0.283783 -0.143911 -0.329259 -0.062317 -0.112132 0.096301 0.030851 -0.153492 -0.130563 0.028675 0.073895 0.038417 -0.000883 -0.230846 -0.250601 0.173534 -0.044504 -0.049760 0.049679 0.050413 -0.190077 0.301475 0.017874 0.015521 0.100115 -0.007527 0.053965 0.057678 0.007946 -0.151434 0.028177 -0.064903 0.308749 0.340904 -0.065539 0.167143 -0.074786 0.197183 -0.107868 -0.109071 -0.081708 -0.038496 0.212468 -0.123865 0.083267 -0.251417 -0.059283 0.005973 -0.104456 -0.066262 -0.096327 -0.038529 -0.275417 -0.191326 -0.110492 0.066112 -0.099342 0.036343 0.089202 0.100952 -0.039983 0.056831 -0.251110 -0.204897 0.165248 -0.153023 0.091882 0.109428 -0.037711 -0.105947 -0.006540 -0.205910 -0.027819 -0.037121 -0.021984 -0.013376 -0.169429 0.325488 -0.114069 -0.069786 -0.017756 -0.003680 -0.052343 -0.091781 0.171556 -0.095732 -0.138222 0.045881 0.077113 -0.299533 -0.152389 -0.253761 0.031942 0.121256 0.050435 -0.197483 0.191993 -0.083004 0.246479 -0.035375 -0.117550 -0.132410 -0.168612 0.039567 -0.028192 0.131675 -0.005625 -0.032890 -0.010535 0.053227 -0.101201 0.104997 -0.136123 0.007594 -0.022239 0.072379 -0.006860 -0.030928 -0.207761 -0.176748 0.068883 -0.044512 -0.080123 0.022956 -0.236979 0.024333 -0.162553 0.079810 -0.064024 0.023376 0.009754 -0.035612 -0.203652 0.237323 -0.039445 -0.019643 0.189574 0.140282 -0.131605 0.023305 -0.073036 -0.064471 -0.249935 -0.212168 -0.061387 -0.067942 0.088163 0.023093 -0.143398 0.152919 0.094589 -0.081196 0.197838 0.045081 -0.033893 -0.131361 0.257678 0.009207 -0.009553 -0.122837 0.152826 0.060394 -0.167935 0.153798 -0.038473 0.086015 -0.153123 -0.055657 0.021856 -0.118694 0.155682 0.107505 0.037877 0.066924 0.122914 -0.131936 0.035257 0.143986 0.023916 0.131624 -0.277574 -0.064855 -0.058048 0.083481 0.074611 0.067208 0.146674 0.128569 -0.031682 -0.060575 0.108250 -0.280436 0.115664 0.155531 -0.066160 -0.127037 -0.080338 0.109107 -0.125361 0.112327 0.145413 0.257705 0.041589 -0.062791 0.254812 -0.211996 0.003607 0.033278 0.007737 0.074404 -0.179927 0.070412 -0.170392 -0.086058 0.029054 -0.167831 0.041612 -0.118170 0.011921 0.244439 0.055467 -0.054815 -0.122614 0.195811 -0.084551 0.019352 -0.079907 0.287899 -0.343994 0.372703 -0.147426 0.048136 0.109867 0.132389 0.086604 -0.032729 0.202754 -0.137381 0.102167 0.085905 -0.195422 -0.153004 -0.231697 0.015488 -0.059496 -0.037784 -0.056939 -0.043272 0.067696 -0.124109 0.240769 -0.058590 -0.373754 -0.010645 -0.015315 0.197360 0.074636 0.072578 0.088640 -0.080553 -0.001129 0.051278 0.303162 -0.180712 0.203087 0.124525 0.113019 -0.000914 0.160512 -0.028364 -0.153630 0.095970 0.101944 0.111675 -0.048358 -0.007401 0.015896 0.003594 0.086499 -0.160733 -0.259661 -0.095717 -0.000722 -0.159520 -0.050967 0.233524 0.189458 0.024058 -0.017973 0.051414 0.050003 0.015654 -0.157918 0.106472 -0.249632 0.027349 
it -0.086019 -0.091445 -0.020413 0.040929 0.298852 -0.115198 -0.110623 -0.092628 -0.263643 0.075738 -0.189760 -0.021037 0.071796 0.052315 -0.104234 -0.004920 0.043655 0.026218 0.111954 0.043722 0.152090 -0.044469 0.050011 0.062363 0.154758 0.060152 -0.036125 -0.029200 0.018921 -0.155093 0.073284 -0.058708 0.106183 0.045258 0.070466 0.022992 0.087923 0.225677 -0.139553 -0.022286 0.172274 0.172219 -0.145148 -0.029054 0.194368 -0.096425 0.179868 -0.109280 -0.111040 -0.042237 -0.047512 -0.047361 0.015767 -0.054419 0.096511 0.036708 0.020368 -0.090035 0.141288 -0.000488 0.310650 -0.066781 -0.015452 -0.016800 -0.091401 0.061386 -0.079895 0.149344 -0.072502 -0.053210 0.072900 -0.070591 -0.021175 0.044050 -0.135871 -0.077160 0.129692 -0.184041 0.038852 0.013034 -0.071560 0.088833 -0.141053 -0.240510 0.031171 -0.166301 0.024004 -0.093256 0.146902 -0.142480 -0.170354 0.069252 -0.119839 -0.084270 -0.008660 -0.284539 -0.093106 -0.120761 0.053891 -0.061080 -0.302766 -0.224796 0.128704 -0.033360 0.034311 -0.072238 0.115479 0.148519 0.127066 0.012257 -0.008158 -0.094836 0.294494 -0.019049 0.128660 0.149113 -0.092955 -0.010923 -0.046493 -0.047507 0.032301 -0.015328 -0.147153 -0.096051 -0.000177 -0.028501 -0.035372 -0.288039 -0.097381 -0.112192 0.059166 -0.063384 -0.036517 0.256690 0.095362 0.039457 -0.030604 -0.119140 0.087579 0.069878 -0.085279 0.134544 0.011074 -0.038690 -0.179556 0.078844 0.149382 -0.006608 -0.230275 -0.038128 0.078725 -0.031136 -0.030935 -0.164726 0.167590 0.037511 0.006368 0.108255 0.056286 -0.055518 0.194506 -0.034271 0.074427 0.049323 -0.013881 0.005919 0.072771 -0.052648 -0.197506 -0.105371 0.048098 -0.085626 0.015380 0.085979 -0.018537 0.074249 -0.132118 0.087410 -0.059643 0.150566 -0.068028 0.016885 -0.150363 -0.061725 -0.211694 -0.182436 0.179709 0.128972 -0.035488 0.100617 -0.009530 -0.143083 0.018265 -0.061748 -0.171395 -0.040269 0.059342 0.084560 -0.031328 -0.209815 0.021610 0.281768 0.014281 0.102310 0.168609 0.131711 -0.125511 0.126203 0.238469 -0.178346 -0.110532 -0.088118 0.039430 -0.167730 0.111599 -0.059758 -0.046126 -0.237137 -0.060739 -0.043496 -0.062445 -0.069139 -0.170231 -0.157129 0.025974 -0.056183 -0.097060 0.140083 -0.097671 -0.068541 -0.160623 0.315218 -0.169953 0.198940 -0.083650 -0.121692 -0.044233 -0.069432 0.112677 -0.262161 -0.129313 -0.002736 -0.093670 0.129166 0.047792 -0.165921 -0.105583 0.041087 0.117069 -0.037246 -0.117134 0.117745 -0.156889 -0.124687 0.034645 0.073642 -0.237451 0.126111 0.053352 0.147388 0.398932 -0.065012 0.210592 -0.029870 -0.130205 0.001892 0.174088 -0.185931 0.068202 -0.036275 0.042008 0.116552 0.103060 -0.063913 -0.195230 0.000018 0.097785 0.010765 0.091518 0.020590 0.063139 -0.047018 -0.082096 -0.132913 -0.079264 0.089061 -0.095461 -0.006607 -0.087073 -0.202558 0.008140 -0.096283 -0.060867 -0.024561 0.125473 0.023139 -0.098536 -0.043820 0.079800 -0.053263 
be 0.150154 -0.436450 0.182162 0.152986 0.320682 -0.134192 -0.016791 -0.030584 -0.065022 0.168294 -0.037846 0.037599 -0.142367 0.162742 -0.023334 0.135838 0.053191 -0.023079 -0.185873 0.083343 -0.145368 -0.012403 0.043990 0.020478 -0.060868 0.115144 -0.135077 -0.113786 -0.173568 -0.034865 0.236104 0.069561 0.049869 0.060745 -0.096155 0.011034 0.198153 0.193605 -0.156579 0.057067 -0.232092 0.096990 0.074165 0.028161 0.103150 0.064546 0.233961 -0.212470 -0.157938 -0.511644 0.007048 0.195606 0.103989 -0.006597 -0.024510 0.048758 0.050771 -0.153273 0.057272 0.043280 0.024911 -0.009802 -0.042048 0.122348 0.175076 -0.015175 -0.225227 0.034352 0.221164 0.069560 0.125763 0.183692 0.166022 0.300325 -0.007762 -0.093289 0.066250 0.053925 0.245132 0.009784 -0.149040 0.031994 0.089673 0.054457 -0.111071 -0.195842 -0.191623 -0.105888 0.024915 -0.329858 -0.342634 -0.191021 -0.028482 -0.296963 0.184031 -0.133984 0.108709 0.107239 0.116639 -0.151998 -0.006830 -0.091203 0.171038 0.021592 -0.092480 -0.115841 -0.022652 0.202791 -0.061846 0.129966 -0.045707 -0.092945 0.020744 -0.053440 0.040155 0.121742 -0.100658 0.018461 0.067606 -0.017114 0.067451 -0.054602 0.057251 -0.063235 -0.048044 0.074858 0.034639 -0.075367 0.124298 -0.007432 0.089557 -0.069313 -0.113283 0.138188 -0.060504 -0.004875 -0.080814 -0.114865 0.028210 0.107344 0.133647 0.062692 -0.016153 -0.197131 -0.024018 0.170705 0.047114 -0.102645 0.006641 -0.197505 0.112569 -0.076766 -0.159526 0.064453 0.093719 -0.166951 -0.013384 -0.083978 0.098687 -0.047499 -0.041047 -0.016122 -0.175167 0.146955 -0.112233 0.040819 0.002903 -0.139265 -0.153973 0.046202 -0.126502 -0.011833 -0.175841 0.223954 0.070478 0.143412 -0.235431 0.139182 0.034711 0.127968 -0.238833 -0.034102 -0.056522 0.012823 -0.284561 0.004282 -0.090453 0.109996 -0.044051 -0.151553 0.029723 0.002808 0.291845 0.037169 0.060120 -0.239492 0.050379 0.155352 -0.006661 -0.107809 -0.157212 0.152081 0.076551 -0.078526 0.231047 0.203775 -0.016083 -0.002056 0.262061 -0.279156 -0.284231 0.116136 -0.191446 -0.083923 -0.052675 0.208873 -0.189854 -0.186842 -0.175691 0.126366 0.081657 -0.251434 -0.157547 -0.063368 0.100905 -0.075252 -0.137632 0.035304 -0.091089 0.078124 -0.047210 0.286096 -0.256535 0.130960 0.058719 -0.122283 0.102173 -0.051521 0.433643 -0.112478 -0.159272 -0.135998 0.081019 0.051359 -0.116396 -0.044029 -0.125432 0.241724 0.014308 0.023330 -0.351638 -0.035062 -0.315309 0.041581 0.190357 0.216850 -0.229357 0.161358 0.106515 -0.069131 -0.016356 0.154448 -0.168966 0.202662 0.093715 0.072075 0.010128 0.149564 -0.059905 -0.103718 0.011543 0.038808 0.117266 -0.048318 -0.127876 0.209819 0.092429 0.007293 0.049126 -0.119271 0.158244 0.022706 0.056213 -0.027353 -0.100169 0.115728 -0.106498 -0.068290 -0.053833 0.014086 0.137014 -0.083917 -0.130243 -0.019784 0.021326 0.037566 -0.054991 0.045396 -0.033464 -0.004459 
you -0.085683 -0.098934 -0.278671 -0.351724 0.140102 0.037463 -0.042918 -0.136482 -0.040905 -0.011340 -0.157142 -0.195866 -0.001667 0.212165 0.065653 -0.015499 -0.045878 -0.095753 0.149106 0.369815 -0.047717 0.039928 0.297923 -0.035078 0.099860 -0.024225 -0.114647 0.058061 0.066563 0.080682 0.132803 0.070953 -0.062681 0.060216 -0.217121 -0.248605 0.212131 -0.015890 -0.221876 -0.027804 0.146818 0.008486 0.038734 0.119952 0.170033 0.121635 0.239464 -0.135232 -0.034636 -0.149228 0.215987 0.024952 0.005838 0.109990 0.358277 -0.101374 -0.137393 -0.318138 -0.027821 -0.104156 0.193502 0.053024 -0.123060 0.077708 -0.348737 0.134767 -0.083166 -0.225719 0.093048 0.324930 0.131632 0.073300 -0.093380 0.177525 -0.086656 0.056890 -0.097924 0.115684 -0.048518 -0.009009 -0.120167 -0.010106 -0.173050 0.130959 -0.017628 0.006963 0.063939 -0.219434 0.072748 -0.200684 0.135378 -0.187347 -0.040635 -0.241191 0.033729 -0.396324 0.083615 -0.016886 0.305555 0.119610 -0.084253 0.035588 -0.002708 0.125068 -0.274263 -0.044048 -0.266884 0.184616 -0.163974 -0.100842 0.091728 -0.240464 0.249384 0.186312 0.110027 -0.242405 -0.115220 -0.232180 0.064272 -0.188754 -0.188135 -0.105635 -0.094600 0.148098 0.089087 0.185129 -0.130283 -0.011269 -0.021464 0.033804 0.013484 0.165548 -0.086382 0.131419 0.080127 0.108427 -0.026921 -0.198573 0.004492 0.103942 0.054512 -0.020107 0.200989 -0.135090 0.250693 -0.024599 0.162119 0.150713 0.171999 -0.053567 0.174495 -0.029811 0.215959 0.050738 0.091303 0.125179 0.050672 0.025011 0.060500 0.016293 0.278466 0.109090 0.094945 0.106618 0.056447 0.274172 -0.041457 -0.066159 0.187737 0.043445 -0.009553 -0.080985 0.064074 0.058348 -0.026841 -0.021974 0.067104 0.244143 0.033454 0.346502 -0.047138 0.248407 -0.149886 0.003633 -0.365948 -0.186302 0.003040 0.167885 0.071405 -0.037098 0.339397 -0.141182 -0.107638 -0.130173 -0.081950 -0.308770 -0.067166 0.146908 0.037919 0.183556 -0.032805 0.024753 0.044122 -0.036531 0.259753 0.213271 -0.115934 0.011396 0.380647 -0.008862 -0.351326 -0.092074 0.086120 0.018596 0.253188 -0.034041 -0.252428 -0.250766 -0.039110 0.056103 -0.282597 -0.125858 0.103735 0.054831 -0.054215 -0.114814 0.268255 -0.159376 -0.102906 0.239311 -0.099238 0.113115 -0.316784 0.085003 0.087207 -0.052825 0.009872 -0.013285 -0.057991 -0.061734 -0.042017 -0.076166 0.073162 -0.009109 0.050014 -0.052285 0.073694 -0.006089 0.287179 0.028313 -0.162650 0.168072 -0.071946 -0.225036 -0.038539 -0.123229 -0.321016 0.170962 0.026716 0.020122 0.127669 -0.240029 -0.022328 -0.206105 0.102292 0.115867 -0.026717 -0.190046 -0.129884 -0.061337 -0.179846 -0.009007 0.332500 -0.009836 -0.090593 -0.033637 -0.139121 0.067074 0.029874 -0.128510 0.209510 0.065458 -0.118672 0.026824 -0.057780 0.156659 0.199587 0.028323 -0.073636 -0.165067 0.285989 -0.028869 0.123538 -0.181956 0.020210 0.080877 -0.175027 -0.180367 -0.082098 -0.079947 
his -0.089944 -0.130125 0.026123 -0.126715 -0.080724 -0.063637 -0.065667 0.097442 -0.187398 -0.222030 -0.046422 -0.165344 -0.001928 -0.059837 0.119852 0.231854 -0.071612 -0.229535 0.066074 -0.004493 -0.104994 0.031018 0.152693 -0.009815 0.171460 0.101402 0.047888 -0.144564 -0.060991 -0.075964 -0.074669 0.184838 -0.138185 -0.013240 0.075081 -0.073825 -0.141137 0.111075 -0.004067 0.086252 0.315813 0.111037 0.036438 0.013381 0.073150 0.067434 0.093666 -0.165511 -0.193739 -0.246443 -0.073430 -0.063362 -0.037546 -0.132713 0.200680 -0.021601 -0.129436 -0.212903 -0.059317 -0.161402 0.110909 -0.098098 0.037693 0.146213 0.167886 -0.138051 -0.237538 0.009610 0.053033 0.040937 -0.219468 0.044297 0.074809 -0.035249 -0.155796 -0.138655 0.078019 0.362184 -0.246143 -0.074897 -0.001280 0.015115 0.105425 -0.121655 0.333757 -0.199580 0.069955 0.267976 -0.007396 -0.222164 0.016107 -0.024688 -0.061142 -0.133471 -0.118961 -0.060648 0.161396 -0.177303 0.132327 -0.216698 0.066010 -0.028592 0.021565 -0.093358 0.122491 0.135850 0.045468 0.099868 0.111568 0.154913 -0.070769 0.192731 0.097305 -0.052098 0.128972 0.157341 0.011484 0.170703 -0.001110 -0.166168 -0.064954 -0.082072 0.106708 -0.052477 -0.088099 0.351344 0.061497 0.104534 0.052996 -0.099788 -0.012922 -0.039358 -0.033829 0.048788 -0.025269 0.146916 0.042208 0.258005 -0.159898 0.032556 -0.013876 0.321730 -0.077118 -0.095795 -0.062634 -0.214856 0.038952 -0.084779 -0.158286 0.162712 0.172155 -0.013920 -0.117656 -0.063417 0.024421 0.029495 -0.143456 0.076821 -0.047739 0.149072 0.100586 -0.094700 -0.034192 -0.005767 0.254672 0.296184 -0.275061 0.126589 0.077021 0.190560 -0.079432 -0.050837 -0.104318 -0.092539 0.161191 -0.008285 0.158349 0.210530 0.071381 -0.139210 0.083890 0.227051 -0.085925 0.090801 0.016817 0.224826 0.035941 -0.132943 0.164208 -0.076370 0.080734 -0.016472 -0.047154 0.060503 0.083377 -0.127762 -0.045825 -0.012429 -0.077864 -0.119347 -0.000435 0.085061 -0.031302 -0.077676 -0.018069 0.018378 0.092935 0.116757 0.113078 -0.145824 -0.305830 -0.409117 0.076916 -0.227345 0.038837 0.108895 -0.127736 -0.233419 0.049106 0.095850 -0.030976 -0.033702 -0.129529 -0.120080 0.007841 -0.139674 -0.057257 0.167739 0.018506 0.025944 -0.054305 0.053345 -0.130347 0.161423 -0.155615 0.040742 0.104298 0.094687 0.001249 -0.238694 -0.117968 -0.169702 0.098066 -0.210261 0.136484 0.035298 0.026272 -0.061933 0.048675 -0.062613 -0.178115 -0.041233 -0.152790 0.027482 -0.114624 -0.064761 -0.169517 0.094574 0.030077 0.094261 0.145104 -0.031938 -0.030163 -0.030773 -0.039818 0.173682 0.062931 -0.289948 0.062921 -0.211545 -0.188570 0.226125 0.341834 0.156420 -0.084458 -0.044355 -0.116862 0.093239 0.017819 0.107493 0.266754 -0.182000 0.096491 0.014514 -0.012111 -0.160213 -0.116830 -0.090897 0.056187 -0.136197 0.079238 -0.202078 0.130337 0.198595 -0.104520 -0.110748 0.119820 -0.007336 0.058344 -0.019702 
my 0.011281 -0.201959 -0.131696 -0.193376 0.110850 0.086280 -0.131501 0.025855 -0.126037 -0.030732 -0.092370 -0.259877 -0.066297 -0.114871 0.168163 -0.101936 0.068123 0.087687 0.159690 0.103280 -0.029011 0.022405 0.062157 -0.045340 0.281007 -0.001620 -0.092730 0.003314 -0.084621 -0.120485 0.010035 0.200045 0.025417 -0.002284 0.127771 -0.201276 0.130104 0.060807 -0.079745 -0.084297 0.064286 -0.107622 0.078009 -0.000617 -0.031917 -0.162251 0.216486 -0.199518 -0.098781 -0.205396 -0.048159 -0.201422 -0.071576 -0.135423 0.298371 -0.069509 -0.149203 -0.115906 -0.062947 0.002167 0.034403 -0.088176 -0.020854 0.122890 -0.092719 -0.034113 -0.207736 -0.035468 -0.024533 0.061887 -0.052880 0.217549 0.108551 0.030683 0.031561 0.005693 0.198664 0.121476 -0.238881 0.023758 -0.107428 0.023784 -0.176209 0.081108 0.086256 -0.144406 0.114634 -0.072001 0.142080 -0.013549 0.054756 -0.024112 -0.119046 -0.274840 -0.163002 -0.194613 0.110220 -0.214516 0.112736 -0.125845 -0.106930 0.103334 0.344379 0.048431 0.050655 -0.105598 -0.035841 0.127457 -0.018556 -0.039659 0.083608 0.141185 0.076216 0.048136 -0.055668 0.051389 -0.104341 -0.201030 0.014909 -0.009995 -0.103318 -0.137628 -0.076689 0.009939 0.097445 0.280800 -0.096213 0.038856 -0.031298 -0.219128 0.028414 0.218536 0.015640 0.038743 0.022111 0.201903 -0.150003 0.014030 -0.049279 -0.074773 0.030824 0.350486 -0.029601 -0.057017 0.135838 -0.105309 0.053621 -0.022463 -0.104826 0.120140 0.046222 -0.010514 0.052843 0.063028 0.123084 0.101407 0.019569 0.116355 -0.179715 -0.016792 0.140690 0.008123 0.033411 0.250985 -0.072491 0.140126 -0.027687 0.080328 -0.196121 0.085406 -0.212101 0.052602 -0.143377 -0.190398 0.193547 0.117638 0.142280 0.236643 0.071832 -0.002561 0.126402 0.043640 -0.206403 0.162956 -0.178833 -0.047253 0.038578 -0.078145 -0.009422 -0.005171 0.283604 -0.242174 0.126106 -0.142951 -0.059934 -0.018601 0.039076 0.105911 0.121276 -0.017847 -0.092803 0.050353 0.238015 0.079108 0.108705 0.071966 0.043943 0.015347 0.185367 -0.084764 -0.059943 -0.123057 0.016278 -0.394579 -0.055608 0.026301 -0.023361 -0.199152 -0.020246 0.087018 -0.159375 0.076136 0.074300 0.103412 0.079495 -0.119535 -0.112062 0.094329 -0.119899 0.027220 -0.165097 0.193819 0.030038 0.080536 0.107767 -0.087560 -0.195052 0.323094 -0.101131 -0.213737 0.169103 -0.157389 0.104521 -0.042914 0.097564 -0.023859 -0.025576 -0.054476 0.192445 -0.162775 -0.255135 0.303414 -0.085161 0.042808 -0.197010 -0.061594 -0.191597 0.294297 -0.024985 0.122487 0.011952 -0.086835 0.034503 -0.204772 0.138677 0.213418 -0.015509 -0.243089 0.068207 -0.218174 -0.163611 -0.049008 0.347446 0.023483 0.059683 -0.261414 0.062825 -0.012901 0.004611 -0.028593 0.130884 0.038671 0.152174 0.091704 -0.235536 -0.154551 -0.053978 0.232230 -0.069489 0.071592 0.202286 -0.107394 0.135665 0.024589 -0.071843 0.116235 -0.121861 0.095454 -0.230397 -0.147619 
with -0.018765 0.044545 -0.023566 0.064717 0.152289 -0.161120 -0.074519 -0.059599 -0.190302 0.071473 -0.027109 -0.061239 -0.116954 -0.052819 0.337374 -0.008725 0.144256 -0.024283 0.033243 0.142325 -0.092608 -0.027747 0.112287 0.067438 0.153335 0.155473 0.034990 0.037362 -0.034048 -0.156992 0.128591 -0.047342 0.064816 0.088679 -0.068933 -0.185013 0.041007 -0.111220 -0.090738 0.166107 0.044176 -0.045311 0.032707 0.105192 0.109318 0.186818 0.118325 -0.137579 -0.037651 -0.096845 0.089714 0.028520 -0.114231 -0.117812 0.098335 -0.181890 -0.142363 0.038291 -0.100200 -0.090645 -0.051203 -0.189541 -0.020149 0.051419 0.033011 0.028317 -0.115162 -0.031907 -0.152094 -0.138523 -0.127171 -0.062104 0.209080 -0.028008 -0.064113 0.113573 -0.033784 0.012042 -0.051815 0.069549 -0.038220 0.067288 0.066990 -0.156164 0.031694 -0.157671 -0.061636 -0.024316 -0.081911 0.011191 -0.271597 -0.010763 -0.295474 -0.177782 0.014994 -0.219266 0.115740 -0.015209 0.099722 0.028397 -0.069848 0.193173 0.027587 -0.121986 -0.074786 -0.114631 -0.002122 0.067554 0.034858 0.100377 -0.193031 -0.022585 -0.270350 0.157653 -0.146631 0.071255 -0.164694 -0.197627 0.211101 0.102678 -0.008625 0.004490 -0.096786 -0.201733 -0.099342 0.197952 0.222923 -0.307770 -0.102869 0.038773 -0.008956 0.078084 -0.119492 -0.028865 0.019015 0.035895 -0.170039 0.169406 0.096199 -0.168076 0.218885 0.160107 0.041557 0.147731 -0.051460 0.161973 0.111522 -0.019161 -0.140182 0.154104 -0.020285 -0.045669 0.012063 -0.026008 0.226664 0.021345 -0.024702 0.014105 -0.016614 0.085677 -0.001527 0.081874 0.000418 -0.073837 0.085881 0.127642 -0.161598 -0.011720 0.148980 -0.092640 -0.125004 -0.155721 0.067852 0.140293 0.144576 -0.072110 -0.021970 -0.259588 0.024294 -0.073696 0.112733 0.069524 -0.093146 0.227295 -0.133456 0.040231 -0.012927 -0.117683 -0.100865 -0.057289 0.065175 0.144857 0.041702 0.035572 -0.128465 -0.087037 0.094336 0.010381 0.028184 -0.045094 0.031796 0.112632 -0.095906 0.116860 0.068489 0.030984 0.144723 0.096420 0.057114 -0.052749 -0.170163 -0.188811 0.018848 -0.224938 -0.091759 0.006886 -0.037137 -0.051215 0.042891 -0.103735 0.094631 -0.145221 -0.151274 0.113558 -0.149404 -0.093766 -0.025335 -0.088113 -0.116810 0.101549 0.056965 0.040530 -0.101233 -0.028494 0.026765 0.148315 -0.114324 0.172024 0.167013 -0.115580 0.017361 0.032507 -0.032753 -0.032041 0.060299 -0.147840 -0.051745 -0.079937 0.287255 0.029187 -0.026114 0.079022 -0.024480 0.060450 -0.148741 0.098381 -0.206934 0.005921 0.004990 0.135206 0.135395 0.038165 -0.160056 0.012062 0.056645 0.112617 0.080631 -0.019406 -0.005343 -0.191405 -0.100500 0.079202 -0.012621 -0.038651 -0.216695 -0.072654 0.029701 -0.001645 0.131352 0.128675 -0.022109 0.171836 -0.029863 -0.056007 0.009802 -0.098810 -0.128167 -0.239819 -0.086390 -0.006620 -0.118176 -0.104149 -0.030841 -0.107666 0.076291 0.008213 0.023247 -0.130674 -0.104168 0.029969 
not -0.016551 -0.131554 0.048905 -0.158535 0.237480 0.083982 -0.043048 0.059060 0.016377 0.028095 0.003321 -0.058883 0.007139 0.026050 0.081317 0.085385 0.080527 0.048583 0.030115 0.293570 -0.025589 0.176166 0.225631 0.339160 0.183231 -0.037140 -0.177640 -0.058456 -0.209982 -0.280577 0.136730 -0.063145 0.069272 -0.086038 -0.063252 -0.181111 0.073342 0.108365 -0.008520 0.131829 0.064095 0.136074 0.291535 -0.295867 -0.010012 -0.024270 0.238682 -0.231685 -0.270767 -0.085357 -0.100454 0.092117 0.180676 -0.068327 0.164177 0.038525 -0.105393 -0.307051 0.135935 0.038672 -0.012563 0.044089 0.202781 0.054529 -0.254969 0.124733 0.120553 -0.026067 0.022892 -0.049578 -0.117803 -0.082372 0.143501 -0.047382 -0.055758 0.033942 0.019506 -0.282323 -0.141038 0.262309 -0.029959 0.094816 -0.130715 0.009090 0.023051 -0.001082 0.031989 -0.026938 0.165111 -0.240086 -0.100425 -0.112698 -0.116120 -0.071830 -0.108029 -0.141519 0.018427 0.011564 0.122925 0.094435 -0.128547 0.073742 0.022281 0.118989 -0.026845 0.158913 -0.126235 0.125367 -0.034449 0.135830 0.026104 0.034310 0.171610 0.175393 0.046394 -0.128945 0.043296 0.003049 -0.072801 -0.039044 -0.079803 -0.158507 0.056952 -0.055191 0.163916 -0.104297 -0.056893 0.026432 -0.130206 -0.002955 0.143749 0.077538 -0.096954 0.351344 0.079873 0.043544 -0.034014 -0.058754 0.038144 0.019399 0.078237 0.178044 0.105877 -0.158969 -0.098639 0.260642 -0.102951 0.032284 0.125521 -0.083751 -0.003948 -0.062570 0.039934 0.115916 0.307406 0.010469 0.028484 -0.104941 -0.122778 0.048378 0.117825 0.082913 -0.111874 -0.008044 -0.015958 0.034851 0.221445 0.015752 -0.033077 -0.003892 -0.088589 -0.059181 -0.088522 -0.023388 0.181114 -0.045865 0.012290 -0.089830 0.037982 0.338980 -0.187896 0.101950 -0.246611 0.116550 -0.076529 -0.004238 0.124423 0.088398 -0.053202 -0.051609 0.027502 -0.163326 0.263772 0.056809 -0.010288 -0.116211 0.164498 0.009657 -0.039436 -0.082780 -0.150438 -0.019411 0.047548 -0.142007 0.139637 0.031658 0.144007 0.086924 0.095335 -0.236354 -0.097262 0.111425 0.185071 -0.085356 -0.127089 0.067918 -0.051615 -0.254098 0.006289 -0.083771 0.084715 -0.123983 -0.145889 0.012157 -0.195270 0.081377 0.137519 -0.141534 -0.052796 -0.090900 -0.137539 -0.005149 -0.364333 -0.025796 -0.061402 -0.054110 0.007750 0.173488 0.063597 -0.240873 -0.148942 -0.052948 0.047756 -0.080581 0.104210 -0.450536 -0.110362 0.002567 0.062378 0.178548 -0.442197 0.188313 -0.128584 -0.173308 0.284678 -0.273500 0.031844 0.049131 -0.078401 0.296962 0.322785 -0.149170 -0.022734 -0.173700 0.056557 -0.072293 0.244615 -0.196828 0.334886 -0.028301 -0.120606 -0.126026 0.127684 0.057810 -0.190870 0.035005 0.080539 0.160288 0.017296 0.106740 -0.065612 -0.098027 0.073450 0.106567 -0.003692 0.180629 -0.030654 -0.013899 0.164880 -0.082899 -0.016225 -0.279100 0.014117 0.218724 0.215606 0.276543 -0.053340 -0.087533 -0.224905 -0.010216 
for 0.022622 -0.023865 -0.032420 -0.128309 0.127411 -0.009553 -0.098671 0.198904 -0.121930 -0.133748 -0.088739 0.024364 -0.141873 0.129369 0.304924 -0.071705 0.082190 0.080259 0.135807 0.106045 0.035852 0.054597 0.062942 0.083810 -0.006937 -0.045812 0.139054 -0.040706 -0.111500 -0.171533 0.183398 0.059461 0.133813 0.182521 -0.017454 0.008104 0.002950 0.054265 -0.182474 0.333964 0.032920 -0.070522 0.069906 -0.164732 0.032409 0.252169 0.025647 -0.323049 -0.079057 -0.245173 -0.034580 0.098939 -0.343712 0.061039 0.039626 -0.009508 -0.115311 -0.005576 -0.027030 0.033618 -0.246149 0.093057 0.223086 -0.087192 -0.077172 0.217171 0.004530 -0.026416 0.018800 -0.131150 -0.082469 -0.155897 -0.109105 -0.082202 -0.181441 0.069977 -0.087313 0.036564 0.097057 0.101495 -0.271894 0.104880 -0.109631 -0.046793 0.019542 -0.125439 0.015096 -0.053019 0.138149 -0.133744 0.015124 -0.133106 0.071886 0.037043 0.071629 -0.044591 -0.016832 0.025054 0.108816 -0.073559 -0.170220 -0.178060 0.121508 -0.073081 0.036424 -0.018942 0.107634 0.020618 -0.033558 0.274821 0.054732 0.031987 -0.299496 -0.115483 -0.230098 -0.031876 0.044096 0.015677 -0.063426 -0.043430 -0.010674 0.081378 -0.239558 -0.261857 0.023641 0.127916 0.212924 0.133957 -0.014252 -0.016612 0.047311 0.003212 -0.059919 0.063430 0.012808 -0.009833 -0.072383 0.042645 0.066122 0.006097 0.036212 0.013868 0.037195 0.058126 -0.071079 -0.075420 -0.008959 -0.035945 -0.055660 0.005594 0.203438 -0.034743 -0.054266 -0.000708 0.054850 -0.002486 0.032901 -0.061200 -0.022961 -0.028602 0.039075 -0.059934 -0.014658 0.116702 0.153227 0.002062 -0.046520 0.193448 0.074841 -0.054121 -0.061153 -0.064636 0.067152 0.022917 -0.051352 -0.009155 -0.093047 0.145486 -0.074146 -0.093860 0.118896 0.290418 -0.167651 -0.056324 -0.212235 0.015467 0.013768 0.074659 -0.160148 0.140752 0.151370 0.052306 0.021914 0.106929 0.062883 -0.198189 -0.084656 0.100209 0.071775 -0.199686 -0.042352 0.064876 -0.081104 0.088836 0.108251 0.166930 -0.114087 0.011339 0.029814 -0.033237 -0.131837 0.293262 -0.029900 -0.161595 0.196500 0.034956 -0.039027 -0.023757 0.054623 -0.123028 0.019374 -0.000549 -0.403001 -0.061584 -0.002305 -0.099151 0.169280 0.031210 -0.180101 -0.039119 -0.087727 0.009328 -0.263125 0.067298 -0.204129 -0.074740 0.095669 -0.037727 0.009413 -0.110241 -0.138431 0.002638 -0.018798 -0.121811 0.103418 -0.104762 -0.127599 -0.110508 0.094882 0.058306 -0.042142 0.205527 -0.212959 -0.076218 0.012170 0.150860 -0.228018 -0.030687 0.038008 0.065127 0.034419 0.052461 0.046073 -0.196049 0.065041 -0.180557 -0.047017 -0.111347 -0.037524 -0.064512 -0.214954 0.003983 0.184004 -0.040273 -0.104400 -0.168227 -0.078866 0.012817 -0.023492 -0.099638 0.006417 -0.060160 -0.032752 -0.000620 -0.075880 -0.000117 -0.129671 0.034546 -0.062260 0.015374 -0.169416 -0.220004 0.105571 -0.096150 0.021612 0.161449 0.168645 -0.141510 -0.119560 0.167661 
as -0.068660 -0.162632 0.006212 0.213394 -0.211910 0.011119 -0.154773 0.022602 -0.126184 -0.061074 0.074251 0.129965 -0.152653 0.129932 -0.008509 -0.122531 0.201397 0.047720 -0.208122 0.100623 -0.131192 -0.128201 -0.116838 0.112918 0.132723 -0.006068 0.046782 -0.177223 -0.152306 -0.168200 0.095386 -0.122339 -0.032281 0.067118 -0.106240 -0.017551 0.000255 0.123513 -0.118303 0.207031 0.090605 -0.138206 0.090099 -0.212623 0.243053 0.030697 0.186955 -0.082488 -0.226634 -0.090386 0.165876 0.014905 -0.201238 -0.021746 0.106363 0.074073 -0.109654 0.042528 -0.243710 -0.269367 0.033054 0.033705 0.251872 0.293659 -0.012776 0.154953 -0.009861 0.128609 -0.193795 -0.062650 -0.156212 0.020052 0.129714 0.152652 -0.001675 -0.164548 -0.244321 -0.006531 0.051732 0.072370 -0.055793 0.209656 0.045008 -0.161841 -0.026768 -0.027938 -0.167926 -0.173931 0.168589 -0.158689 -0.146377 0.003629 -0.027163 -0.217726 -0.057784 -0.196007 -0.027251 0.045261 0.175930 -0.049305 0.234291 -0.002050 -0.139276 -0.040413 -0.052299 -0.056299 0.324504 0.059159 0.071135 0.083965 -0.240525 0.077691 -0.078284 0.061770 0.214977 -0.010967 -0.079614 -0.009596 -0.041536 -0.162746 -0.031218 -0.050931 -0.183932 0.004070 -0.183562 0.203452 -0.123071 0.032722 -0.002879 -0.054841 0.106993 0.146522 -0.035846 0.110415 0.206748 -0.124777 -0.109663 0.057569 0.095387 -0.168612 -0.017111 0.175239 0.202883 0.019034 -0.068658 0.296329 -0.077949 0.032848 -0.085181 0.113263 0.064398 0.037359 -0.109731 -0.011481 0.039294 0.150955 -0.165354 -0.120818 -0.069744 -0.053362 0.040169 -0.098289 0.086231 0.094950 0.149516 0.248391 0.245489 0.030148 0.131112 0.042895 -0.091542 -0.088689 -0.050668 0.165085 -0.067304 0.063109 0.063443 -0.040678 0.062843 -0.032613 0.090399 0.050396 0.059585 0.068462 -0.085928 -0.047593 -0.084025 0.001048 -0.005392 0.075584 0.082085 0.085512 -0.005478 0.128236 0.002234 -0.101829 -0.160533 0.049575 0.082646 0.086436 -0.072300 -0.163194 0.074590 -0.061439 0.075948 -0.065718 -0.072716 0.037361 0.180944 0.052672 -0.014454 -0.008708 0.175038 -0.155212 -0.116307 0.114114 0.043073 0.166920 0.160464 -0.167118 -0.164719 -0.066101 -0.161310 0.164818 -0.068852 0.086557 -0.024885 0.020785 0.048668 -0.042013 -0.128644 0.117432 -0.099134 0.194655 0.099927 -0.098640 0.011177 0.032334 -0.100430 -0.244493 -0.106768 -0.006633 0.018449 0.136639 0.064195 -0.193045 -0.040218 0.041490 0.287224 0.186525 0.005448 0.133587 -0.049423 -0.079469 -0.101350 -0.204448 -0.162973 0.000823 -0.072166 0.042821 -0.120515 0.160118 0.134945 -0.100401 0.229736 0.058076 0.083342 0.085164 -0.026181 -0.090703 0.011745 0.009402 0.145674 -0.175314 -0.197397 -0.003833 0.053875 0.212953 -0.104523 0.241903 0.284196 -0.207902 0.098794 -0.009128 -0.028765 0.116248 0.091804 0.096985 0.139832 0.031609 0.086724 -0.181115 0.054056 -0.020957 0.016323 0.215271 -0.135557 -0.249205 -0.129223 -0.008448 
he 0.001055 -0.055424 -0.228010 -0.010126 0.218743 -0.265140 -0.187104 -0.027150 -0.137844 -0.199237 -0.271488 -0.108375 -0.043006 -0.063577 0.160065 -0.126954 0.069839 -0.009484 -0.004796 0.007291 0.052276 -0.039445 0.157267 0.028243 0.064490 0.078497 0.070333 -0.007403 -0.052336 0.041336 -0.012554 0.164343 0.044058 0.049783 0.026260 -0.224759 -0.017255 0.266133 -0.062794 -0.002597 0.378107 0.055859 -0.047738 -0.015059 0.113586 0.181247 0.002698 0.007573 -0.043261 -0.060373 -0.091116 -0.052114 0.151447 -0.037331 0.201062 0.165099 -0.177182 -0.231814 -0.001280 -0.154033 0.147610 -0.090253 0.198102 0.133652 -0.087485 0.094502 -0.126868 0.065296 0.073502 0.056735 -0.064378 -0.197821 0.049937 0.000908 -0.309905 -0.112097 -0.160036 -0.157918 -0.234362 0.247910 0.020884 0.219372 -0.030829 -0.127581 0.152147 0.066019 0.064807 0.202853 0.194013 0.008262 -0.271766 0.050702 -0.000263 -0.066258 0.048227 -0.241428 0.028321 -0.026687 0.220043 -0.019977 -0.108187 -0.066440 0.273052 -0.120711 0.083223 0.093240 -0.006228 0.182757 -0.087403 -0.047905 -0.117354 0.077687 0.216045 0.077320 0.275371 0.165184 -0.156105 0.022826 0.045058 -0.208272 0.032108 -0.313359 -0.057806 0.012340 -0.094292 0.122551 0.163596 0.121384 -0.010073 0.027907 -0.055907 -0.035509 0.044146 0.042635 0.027620 -0.102865 -0.146210 0.040228 -0.100744 -0.013303 -0.099709 0.343094 -0.172311 0.049339 0.149954 -0.074318 -0.028238 -0.040944 -0.087267 0.092176 0.167638 -0.152350 0.029151 0.088299 0.186536 -0.106328 -0.102869 0.034248 -0.039673 -0.136312 0.218911 -0.075554 0.000795 -0.109461 0.197482 0.028200 0.072722 0.077293 0.003206 0.052709 -0.205185 -0.022145 -0.277913 0.003365 -0.232457 0.224103 0.036507 0.079985 0.095523 0.155616 0.202110 0.180505 -0.265301 0.076060 -0.200949 -0.050936 0.178584 -0.127637 0.131049 -0.046173 0.030547 -0.074783 0.099491 -0.103233 0.027992 -0.186075 -0.113590 0.103311 -0.093028 -0.161435 -0.175489 0.216222 0.054959 -0.117223 0.012160 0.024223 0.072140 0.075207 0.152346 -0.202382 -0.071035 -0.234441 0.007732 -0.086446 0.083504 0.109137 -0.223750 -0.233491 -0.020258 0.198852 -0.016703 -0.130650 -0.194554 -0.000279 -0.020810 -0.077700 -0.104183 -0.069080 -0.072286 0.093986 -0.118392 0.021600 -0.229381 0.062461 0.074617 -0.028733 0.043853 -0.047116 0.099793 -0.391611 -0.017553 0.004934 -0.193278 0.040306 0.098932 -0.132016 0.022991 -0.071287 0.308985 0.012617 -0.212235 0.330674 0.118580 0.001573 0.146233 0.067128 -0.226311 -0.010065 0.035053 0.072782 0.194387 0.060620 0.226392 0.060027 -0.219665 0.188301 0.142095 -0.256029 -0.233372 -0.215405 -0.083305 0.087556 -0.029984 0.273087 -0.064597 0.005638 -0.118399 -0.014894 0.031915 -0.202773 0.064273 -0.024678 -0.039470 0.002164 0.144303 -0.206565 -0.085997 -0.002910 -0.104164 0.014913 -0.047500 -0.031974 0.013588 0.205451 -0.078215 0.019369 0.052939 -0.030311 -0.165979 0.010696 
this 0.098191 -0.284845 -0.060613 0.030310 0.145134 -0.092551 -0.010465 0.019849 0.031864 0.157123 -0.279159 0.024308 -0.118167 -0.060033 0.225522 0.060389 0.016269 -0.135380 0.014116 0.208473 -0.207109 -0.019613 -0.159794 -0.055915 0.077676 -0.183518 -0.207622 -0.020497 -0.004124 -0.074297 -0.193253 0.015211 0.096386 0.076135 0.237206 -0.055213 -0.057673 0.193107 -0.008827 -0.016405 0.113826 0.066464 -0.095892 -0.035593 0.011844 0.055973 0.235675 -0.175020 -0.107060 -0.038394 0.302926 -0.129038 0.045617 -0.130766 -0.019031 0.098613 -0.142588 -0.334137 -0.160680 0.036829 0.117151 -0.365314 -0.002178 0.072517 -0.060776 -0.089754 -0.056424 0.095020 0.005977 -0.096732 -0.153180 -0.025979 0.000402 -0.054542 0.016362 -0.107471 0.068300 0.126139 -0.228038 0.093872 0.032253 0.029254 -0.090260 -0.008820 -0.017906 -0.305642 0.017854 0.029369 0.296516 -0.245005 0.051043 -0.019364 -0.093084 0.042504 0.016640 -0.185212 0.096108 -0.023593 -0.007368 -0.115523 -0.074206 -0.038774 0.288639 0.004132 -0.169469 0.042182 0.071986 0.084694 -0.055539 -0.120566 0.120719 -0.084130 0.264965 0.107725 -0.061153 0.002328 -0.119822 -0.023162 -0.114438 0.017742 0.094324 -0.095095 0.021370 -0.059218 0.053557 0.243730 0.033319 0.004237 0.085105 -0.234622 0.083009 -0.080615 -0.002417 0.090639 -0.076647 0.148490 0.047262 0.110563 0.064105 0.134318 -0.082062 0.131063 -0.012498 0.108866 0.059732 -0.088278 -0.012984 -0.032480 -0.005387 0.027484 0.067957 -0.003891 0.079112 -0.052492 0.127421 -0.168268 0.065916 -0.001444 -0.117077 -0.307895 0.028280 0.092995 0.112089 0.179720 0.027237 0.032088 -0.224608 0.062142 0.069727 -0.088607 -0.003171 0.028862 0.077673 -0.119167 0.111460 0.044612 -0.054886 0.004238 -0.022346 0.067843 -0.045576 -0.144986 -0.098672 0.044528 0.043493 -0.119860 0.026808 0.145705 -0.203359 -0.092477 0.120608 -0.243748 0.140949 -0.033011 0.140433 -0.044030 -0.138637 0.310580 0.088009 -0.213722 -0.002227 0.228596 0.029995 -0.007043 0.313625 -0.084233 -0.052560 0.228824 0.198239 -0.145673 -0.054895 -0.045342 0.103671 -0.145103 -0.153270 0.093106 -0.201552 0.051452 -0.004270 -0.144033 -0.060451 -0.031882 -0.059169 0.057182 -0.150939 -0.009362 -0.146390 0.144874 -0.038796 0.050455 -0.075197 0.490518 -0.175057 0.184115 0.012191 -0.112348 0.021976 -0.009735 -0.020384 -0.221465 0.060226 -0.013875 -0.031517 -0.259584 -0.200163 -0.018691 -0.037386 -0.015743 0.217214 -0.085756 -0.158850 0.058948 -0.057094 -0.048465 0.070459 0.014205 -0.039923 0.012813 -0.037844 0.136201 0.205935 -0.187555 0.136758 -0.106559 0.055477 -0.271513 0.039511 -0.233755 0.074197 -0.097959 0.023144 -0.066397 0.349775 0.055287 -0.042285 -0.151938 0.214981 -0.009458 -0.111396 -0.030767 0.056097 0.067205 0.028677 -0.058432 -0.122230 0.003062 0.070856 -0.153794 -0.052380 -0.101017 0.153143 -0.014974 -0.120857 0.032540 0.068090 0.152393 -0.005884 0.094985 -0.136795 -0.032716 
but -0.041339 -0.027171 0.125514 -0.075918 -0.051119 -0.106396 -0.004360 0.026676 -0.099933 -0.050860 0.028544 -0.080398 -0.128954 0.134174 0.117827 -0.141086 0.111977 -0.154821 0.138142 0.177050 -0.015239 -0.052335 -0.056694 0.344570 0.071214 0.069070 -0.051561 0.102743 -0.137250 -0.174943 0.103273 0.068765 0.421367 0.134580 0.037573 -0.112306 -0.025337 0.146131 -0.188184 0.049021 -0.041730 0.078994 0.052228 -0.019624 0.184822 -0.066145 0.034667 -0.331553 -0.038490 0.074898 -0.100352 0.015108 -0.048402 -0.083428 0.011388 -0.005915 -0.113210 -0.120173 0.112159 0.006030 0.166227 -0.164956 -0.050213 0.036936 0.043811 0.124347 -0.111123 -0.007308 0.098861 -0.165259 -0.108512 -0.139125 0.071792 0.085085 -0.085958 -0.086984 -0.134605 0.036118 0.020528 -0.087807 0.119405 0.053049 0.009952 0.063842 -0.103208 -0.079164 -0.174799 -0.255616 0.256387 -0.085182 -0.014945 -0.117597 0.041133 -0.239455 0.015400 -0.286124 0.140016 -0.000209 0.125189 -0.136658 -0.000869 0.103378 0.059751 0.171235 0.022009 0.151170 0.067479 0.129210 0.084626 -0.167473 0.033721 -0.055890 -0.062713 -0.102813 -0.315905 -0.093580 -0.176724 -0.086192 -0.053265 -0.005056 -0.077441 0.020298 -0.056024 -0.073424 0.073723 0.098680 0.081807 0.043464 -0.186066 -0.044030 -0.065035 0.035583 -0.030907 -0.138376 0.045366 -0.049086 -0.018555 -0.175688 -0.230351 -0.080624 0.023177 0.112646 -0.038684 0.050274 -0.199896 0.153521 -0.139988 0.067802 0.044105 0.000927 -0.031459 -0.056651 0.128015 -0.104486 0.232239 -0.079561 0.087001 -0.057564 -0.197207 0.039199 0.160845 -0.049411 0.125049 -0.030211 0.092312 0.002107 -0.086575 0.029618 0.039029 -0.291775 -0.073764 -0.120107 -0.114921 -0.024032 0.048367 -0.105063 0.127677 0.011522 0.082089 0.046771 0.012061 0.025044 0.072368 -0.003527 -0.081188 -0.070749 0.051587 -0.007709 0.070244 0.078800 0.129222 0.059602 -0.017773 0.154535 -0.010242 -0.117647 -0.171904 0.116857 0.026286 0.102112 -0.067895 0.110524 0.103217 0.060624 0.003267 0.093459 0.034321 -0.010937 0.189141 -0.000779 -0.007152 0.010426 -0.006581 0.088062 0.021653 0.060895 0.000978 -0.228148 -0.067776 0.005661 0.062139 -0.130293 0.049572 -0.017032 -0.151212 -0.010165 -0.011884 0.084937 -0.051088 0.099212 -0.178415 0.154474 -0.244439 0.098258 0.032921 -0.431091 0.024405 0.081797 0.013001 -0.035482 -0.107068 -0.167809 -0.086637 0.030724 0.050857 -0.189608 0.152971 -0.145881 0.158866 -0.133444 -0.228218 0.248778 -0.170823 -0.066486 0.060263 0.146315 -0.077605 0.105902 0.138706 -0.032790 0.046911 0.027916 -0.096007 -0.103349 0.010815 0.040159 0.199781 -0.237641 0.046508 -0.210083 0.018395 0.081819 0.164292 -0.056163 0.030651 -0.044270 -0.063638 0.035960 0.112438 -0.210972 0.074501 0.032626 -0.022004 0.083712 -0.126908 0.021733 0.093347 0.125970 0.241959 -0.070729 -0.075520 -0.156488 -0.023448 0.146379 0.104083 0.127317 0.179191 -0.048625 -0.306997 0.071103 
by -0.070589 -0.010957 0.071750 0.054669 0.203126 -0.259990 -0.187771 -0.040642 -0.258112 -0.085034 -0.060371 -0.110803 -0.104496 -0.161677 0.185002 -0.144597 0.020521 0.061079 -0.081835 0.222252 0.144280 -0.059150 0.012838 0.045797 -0.030277 0.138320 0.006134 0.016991 0.078480 -0.103603 -0.024440 -0.161612 -0.206636 -0.180610 -0.087437 -0.249470 0.080060 -0.000978 -0.031671 -0.054807 0.071062 -0.016634 -0.023642 -0.246957 0.028800 -0.024176 0.104341 -0.128338 -0.121429 0.031921 0.009486 0.186265 -0.261852 -0.047785 0.178340 0.083674 0.001323 -0.066345 0.068035 -0.027847 -0.024298 0.077234 0.064729 0.120394 -0.020989 0.106683 0.223410 0.127885 0.095022 0.058487 -0.051669 0.037013 0.102781 0.096706 -0.235184 -0.105118 -0.024681 -0.161982 -0.037919 -0.005876 -0.059570 0.108418 -0.021719 0.142856 0.039688 -0.172351 0.092192 -0.007467 0.096433 -0.134612 0.082847 -0.159154 -0.008537 -0.313310 -0.042132 0.230221 0.110481 -0.046863 0.118632 -0.170038 -0.160566 -0.111177 0.030616 -0.053299 -0.058120 -0.186891 -0.027429 0.099599 0.278095 0.053748 -0.043780 -0.154643 -0.135269 -0.145962 -0.030567 0.381236 -0.015340 -0.088294 0.093404 -0.004873 0.083940 0.157218 -0.042962 0.007932 -0.051031 0.075376 0.190753 -0.286559 -0.103081 -0.083865 -0.068509 -0.065192 -0.062329 0.185834 -0.085107 -0.163017 -0.188465 0.226347 -0.071421 -0.034396 0.333123 -0.002901 -0.064187 0.049933 -0.163821 -0.035402 0.166597 -0.146742 -0.045721 0.153742 -0.012493 0.034219 -0.068575 -0.296391 0.356363 0.062923 0.058356 0.147857 0.069579 -0.036229 -0.078485 -0.131596 -0.200879 -0.253407 0.162386 0.185438 0.095429 -0.051626 0.102815 -0.023133 -0.162841 0.081669 0.239410 0.036830 0.105221 -0.015036 -0.001885 -0.040461 -0.019406 0.165315 -0.238971 -0.022894 -0.079760 -0.039013 -0.135752 0.096835 -0.019968 -0.045619 -0.129784 -0.149754 0.204753 0.159968 0.047914 0.345300 -0.012828 0.049267 -0.286258 0.050109 -0.031543 0.045806 0.063762 0.143162 0.141643 0.000831 -0.030754 0.056103 0.060894 0.041699 0.190725 0.003313 -0.002496 -0.039319 0.095180 -0.126930 -0.022566 -0.055730 -0.057639 0.125013 0.150882 -0.183481 0.016179 -0.053458 0.001415 0.052536 0.016171 -0.193631 0.157071 0.093707 -0.053447 0.069762 -0.043386 0.153299 -0.232596 0.023277 -0.006127 -0.152799 0.046709 -0.136905 0.097159 -0.117238 -0.013908 0.054780 -0.108907 0.011523 0.187671 -0.179406 0.111023 0.080609 0.122851 0.064163 -0.028947 0.325680 -0.328811 0.023268 0.149547 -0.034538 -0.182394 0.064265 -0.150585 0.034335 0.103578 0.095702 0.001852 -0.215816 0.242275 0.015211 0.063609 -0.270050 0.076525 -0.042960 0.044103 0.061604 0.157360 -0.053581 -0.052023 0.095968 0.041985 0.007700 -0.070102 -0.044019 0.164426 0.130652 0.012063 -0.076971 -0.062282 -0.212966 -0.023254 -0.107238 -0.049102 -0.011843 -0.147849 -0.088407 -0.146864 -0.125923 0.022951 -0.067394 0.051438 0.043485 -0.021254 0.000275 
which 0.109267 0.042492 0.169570 0.059969 -0.035470 -0.084491 -0.062516 -0.222126 -0.112913 -0.011948 -0.122828 0.136067 -0.075694 0.021073 0.098374 0.187663 0.183519 -0.049557 0.098200 0.216929 -0.150670 -0.451817 -0.027516 0.166632 0.336220 0.085257 -0.020242 -0.070626 0.094188 -0.044140 0.155564 -0.096216 -0.122425 -0.199521 0.089515 0.226118 0.087391 0.213000 -0.005792 0.102531 -0.045239 0.048096 0.142219 -0.214458 0.041510 0.143108 -0.076038 -0.174697 -0.099802 -0.106054 -0.146866 0.007021 0.117260 -0.282657 -0.195397 -0.013303 -0.005208 -0.055248 0.111562 -0.195656 0.063050 -0.274198 0.029272 0.033473 0.074214 0.055338 0.079736 0.195942 -0.260158 -0.088338 0.063863 0.031020 0.209487 0.090582 -0.098145 -0.041602 -0.207169 -0.116102 -0.258943 0.102617 -0.145496 -0.080380 -0.049565 0.124980 0.058300 -0.166816 -0.046749 0.084729 -0.087417 -0.095556 -0.022835 0.054406 0.192356 0.046202 0.111491 -0.151973 0.144933 -0.062338 0.095639 -0.341847 -0.110335 0.029614 -0.009133 -0.109321 0.025327 0.042641 0.085007 0.241332 0.145577 -0.069464 0.034672 0.186544 -0.070044 -0.089665 -0.095914 0.396537 -0.330887 -0.243840 0.156998 0.011487 0.121952 0.312588 0.056138 -0.303575 0.122111 0.154385 0.202945 -0.145436 0.289476 -0.059467 -0.044982 -0.040918 -0.195633 0.118636 -0.004327 -0.043510 0.152058 0.162848 -0.095080 0.036496 -0.298556 0.225205 0.157763 0.099085 -0.126485 -0.101451 -0.064294 0.081305 -0.040332 -0.063263 -0.175395 -0.072537 0.227468 -0.026464 -0.080027 -0.225998 0.043995 0.020660 -0.096590 -0.067071 0.077936 -0.161943 0.250994 -0.040226 0.206861 0.384782 0.036451 -0.064620 0.058852 -0.018033 0.271097 -0.069824 0.183476 0.024843 0.039527 -0.144977 -0.138829 0.163889 0.007285 -0.041281 -0.057397 0.043636 0.229926 0.154982 0.098637 0.059684 -0.267903 0.064663 -0.093821 -0.097865 0.091022 0.244286 -0.060968 0.148915 -0.037075 -0.031554 0.034159 0.004793 0.049679 -0.131364 0.015379 -0.065856 0.106358 0.072867 -0.013258 0.078763 0.008173 -0.087804 0.175867 -0.169098 0.019479 -0.062664 0.286990 -0.244474 0.056429 -0.009211 -0.057389 -0.103256 0.111188 0.217083 -0.343622 -0.185846 0.034937 -0.087353 -0.098348 -0.095487 -0.343391 -0.082522 0.191151 0.063871 -0.100075 0.250861 -0.193766 -0.048165 0.000205 -0.139745 -0.066784 0.185877 -0.010992 0.067269 -0.089225 -0.191961 -0.095713 0.234246 0.020265 -0.314815 -0.259207 0.069702 0.103723 0.022109 -0.035712 -0.005002 -0.399669 0.019516 0.057680 -0.190903 0.282820 0.213540 0.005999 0.037450 0.128824 -0.056160 0.206405 0.015435 0.145575 -0.087503 0.133540 0.065568 0.121494 -0.202801 -0.183829 0.055992 0.187032 -0.241296 0.032979 -0.107737 0.170015 0.080045 -0.089595 -0.014775 0.092592 -0.021886 0.156290 0.178036 -0.065289 0.023531 -0.045895 0.134644 -0.072889 -0.186926 -0.072535 -0.154361 -0.094741 0.186139 0.122230 0.122344 -0.021234 -0.213364 0.099035 0.077784 
have 0.118489 -0.223505 0.034978 -0.016728 0.108569 0.022236 0.013338 0.085861 0.110060 0.159740 0.001091 -0.047978 -0.002444 -0.122230 -0.006321 -0.019152 0.028562 -0.121675 -0.259474 0.108241 0.165614 -0.042677 0.126198 -0.109273 0.107321 0.061784 -0.188329 0.043321 -0.320549 -0.000630 0.004447 0.207376 -0.080840 0.011707 0.073147 -0.191808 0.149950 -0.045353 -0.264054 0.279819 -0.246804 0.176979 0.150561 -0.249181 -0.001910 0.575052 0.261203 -0.355320 0.030278 -0.346674 -0.113072 -0.126537 -0.223136 0.057783 0.059899 0.019000 -0.121576 -0.024931 -0.112452 0.093541 -0.080116 0.102755 0.067700 -0.100930 -0.051860 -0.000418 -0.097022 0.075851 0.030367 0.290521 -0.016345 0.096525 0.278417 0.049378 0.052347 -0.130108 0.103077 0.004251 0.100831 -0.120956 -0.094406 0.053972 -0.033739 -0.015238 -0.081430 -0.011434 0.147006 -0.307357 -0.070522 0.138698 0.113874 -0.021112 -0.009871 -0.208169 0.050826 -0.258778 0.020319 -0.051348 0.275673 0.036181 -0.078523 -0.274602 0.065961 -0.102846 -0.242833 0.138448 0.000433 0.216847 0.043319 0.107089 0.231091 0.089558 0.034381 0.046808 -0.237732 0.038368 -0.180384 -0.241770 -0.031627 -0.199710 0.031519 -0.013194 -0.147140 0.013844 -0.095233 0.157634 0.102826 -0.080108 0.040480 0.058340 0.176197 0.038337 -0.353588 -0.012113 -0.038645 0.016243 -0.072228 0.138615 -0.135992 -0.318310 0.145465 0.101415 -0.031583 -0.027013 -0.054750 0.056919 0.327118 -0.117797 -0.031805 0.068461 0.069806 -0.134696 0.265202 0.242020 0.318268 -0.005654 0.206158 -0.267449 0.062417 -0.087182 -0.310404 0.075800 0.089036 0.038714 -0.249446 0.337296 0.071557 -0.149900 -0.073407 0.093430 0.109036 0.042752 -0.098593 0.162240 -0.048475 0.112469 -0.166894 0.137496 -0.073863 0.082714 -0.022724 0.051934 0.020914 -0.117322 -0.205696 -0.103640 0.053574 0.208384 0.031281 0.087637 0.032973 0.108541 -0.072513 0.205393 -0.214888 -0.052087 0.196869 0.137988 -0.121858 -0.081780 -0.166858 0.109966 0.055231 -0.147017 0.263757 0.045338 0.005956 0.039074 0.182676 -0.217744 -0.160455 0.173297 -0.138503 -0.110901 -0.023303 0.223576 0.106900 -0.011969 -0.212053 0.174439 -0.099285 -0.136583 0.006614 0.164308 0.077176 0.025644 -0.214570 0.047925 0.091497 0.236795 -0.181292 -0.029096 -0.073185 0.066648 0.024446 -0.157961 0.097920 0.002908 0.242722 -0.233930 0.169342 -0.086301 -0.125805 0.173120 0.002396 -0.019739 0.185878 -0.143841 0.112582 0.115987 -0.275511 0.147507 -0.175856 0.015104 -0.244185 0.180753 -0.038323 -0.068994 0.005341 0.262038 0.167092 0.191218 -0.016776 0.007407 0.121123 0.192605 0.255067 -0.084598 -0.046923 -0.227718 0.016410 -0.091013 0.077614 0.000552 -0.222894 0.138003 0.217783 -0.035752 0.036766 0.104822 0.016714 0.200396 -0.081458 -0.111151 0.050595 -0.127307 0.121831 -0.310681 -0.142773 0.015711 0.233070 -0.032269 0.054763 -0.192020 0.139302 0.017550 0.250406 -0.151977 0.076388 -0.176307 
on 0.089574 -0.074201 -0.091015 0.042826 0.132388 0.110890 -0.174728 0.178966 -0.133598 -0.025793 -0.010776 0.108591 -0.011122 -0.142281 0.199315 -0.106020 0.006634 0.216190 0.115759 0.175308 0.113837 -0.183564 -0.010512 -0.046307 0.056046 0.196771 0.020249 0.211015 0.015621 0.105488 0.049797 0.045797 -0.127462 0.264994 -0.040044 -0.325354 -0.052198 0.033020 0.051049 -0.140450 -0.147594 0.100849 -0.174003 0.032257 0.029124 -0.198024 0.240698 -0.385672 -0.125647 -0.053148 -0.043850 0.042067 -0.123678 -0.090083 0.025743 -0.121591 -0.045987 -0.259611 0.002055 -0.068550 -0.188049 0.009750 0.185089 0.135881 0.056841 -0.251217 -0.054704 0.211556 0.138777 -0.115174 -0.222421 -0.091028 -0.097797 -0.117166 -0.030549 -0.227269 -0.089417 0.035125 -0.201997 -0.100700 -0.150406 0.122275 -0.045227 0.006919 0.156047 -0.044530 -0.053609 0.024063 0.137000 0.095446 -0.165171 -0.069621 0.237361 -0.050184 0.071175 -0.058316 0.052245 -0.085521 -0.143329 -0.148965 -0.039973 -0.176107 0.020482 -0.051200 -0.047170 0.079748 -0.032446 0.166566 -0.070363 0.070813 -0.244340 0.122744 -0.022811 -0.137052 -0.203438 0.136289 0.011987 -0.137878 0.223794 -0.027187 -0.144305 0.158893 0.005207 -0.167133 0.114386 -0.065883 0.178517 -0.065830 -0.012873 0.150960 0.149419 0.288982 0.075492 -0.154689 -0.164302 -0.094995 0.036796 0.149021 0.016486 -0.047760 0.013882 -0.103734 0.048740 0.351993 0.057705 -0.013511 0.036463 -0.225182 0.047522 0.281671 0.182998 0.022560 0.160829 -0.173872 0.380347 -0.082203 -0.048869 -0.112288 0.138015 0.040372 -0.102412 0.102563 -0.064827 -0.021638 -0.021260 -0.051407 -0.099248 0.019710 0.188668 0.096097 -0.141515 0.248821 0.068676 0.336629 -0.004800 -0.271029 0.020915 -0.097130 0.031604 -0.198843 0.001391 0.218195 0.185443 0.207524 -0.137648 -0.067724 -0.069283 0.077878 -0.115975 -0.068661 0.157874 0.138071 -0.111853 0.038749 0.087936 0.026486 0.003445 0.163587 -0.020106 -0.029220 0.024359 0.084623 0.018940 0.121962 0.007167 0.074637 0.142340 0.185801 0.157337 -0.225008 0.019075 -0.086209 0.037768 -0.095573 -0.012610 0.021029 -0.096008 0.113012 -0.193393 -0.001987 0.200489 -0.053923 -0.064274 -0.284274 0.097856 0.085764 0.031460 0.003378 -0.128161 -0.017343 -0.194194 0.143587 -0.258514 0.132089 -0.103649 -0.112353 0.012468 0.035049 0.055285 -0.252684 0.006220 -0.104731 0.189339 -0.018967 0.150235 -0.397420 -0.043164 0.027011 0.351803 -0.152180 -0.185057 0.239949 0.070598 0.062202 0.204864 0.002240 -0.314216 -0.071652 -0.032081 0.118170 -0.061021 -0.062128 -0.121885 -0.002493 -0.187402 0.149422 -0.020891 -0.047316 -0.074508 -0.051850 -0.001602 0.074449 0.064379 -0.098087 -0.319609 -0.196734 -0.076869 0.159395 -0.045940 0.199633 0.020012 -0.096737 0.039092 0.117589 -0.040919 0.023759 -0.097440 -0.044328 0.127294 0.121825 0.043923 -0.048163 0.231286 -0.313793 0.119090 0.107401 -0.061186 -0.047733 -0.084839 -0.094308 
are -0.240678 -0.201517 -0.096358 -0.056863 0.115219 0.018216 0.023827 -0.283821 -0.045854 0.191895 -0.255100 -0.086616 -0.338643 0.346859 -0.110268 -0.111347 -0.001402 0.061783 -0.136219 0.159890 0.048323 -0.233777 -0.035911 -0.039214 -0.035882 0.149927 -0.146899 0.020741 -0.196819 0.000441 -0.117690 0.003776 0.011297 -0.267181 -0.064213 -0.109034 0.314683 0.142354 -0.162285 -0.023244 -0.055914 0.074619 0.146933 -0.083369 0.115606 0.035707 0.246582 -0.108561 0.009008 0.225965 0.054360 0.013807 -0.116023 -0.151779 -0.175969 0.011121 -0.548400 -0.178796 -0.262381 0.049665 -0.285326 0.128432 0.198043 0.062005 0.036099 -0.116388 0.168566 0.099997 0.176715 -0.214644 -0.186355 0.214603 0.087715 0.113727 -0.119450 -0.352494 0.013162 0.132902 0.132777 0.095830 -0.411341 0.415422 -0.209666 0.236081 -0.141136 -0.048040 -0.071910 0.001214 0.059156 -0.126282 0.129030 0.042440 -0.020061 -0.070109 0.153204 0.103664 -0.006953 -0.072952 0.258475 -0.189338 0.052842 -0.199504 -0.224181 -0.016027 -0.144037 -0.158756 -0.244978 0.086748 0.000144 -0.002719 -0.178648 0.021994 -0.068638 -0.205114 -0.294563 -0.138827 -0.381576 -0.179872 -0.225161 0.163124 -0.247559 0.118071 -0.166899 0.033969 -0.346204 -0.084428 -0.070019 0.103591 0.126917 -0.069326 -0.127914 0.144950 -0.268782 -0.017068 0.105534 0.240519 -0.180141 0.215393 0.288323 -0.170694 0.172079 0.144205 0.374616 0.065451 0.042584 -0.024277 -0.129862 -0.172201 -0.207888 0.086771 0.135183 -0.135086 -0.227965 0.242746 0.002900 -0.080202 0.169251 0.095202 0.345467 0.218320 -0.087262 -0.026759 0.063794 0.053856 -0.218250 0.141816 -0.124429 0.087393 0.028228 -0.030261 -0.069347 -0.117578 0.175461 -0.069306 -0.140767 0.033760 0.218336 0.100315 -0.039877 -0.040555 0.123526 -0.013164 -0.218995 -0.046695 -0.107237 0.185869 -0.202435 0.149388 0.021259 0.341058 0.114623 -0.211413 -0.111038 -0.184446 0.085333 0.050104 0.037612 0.206150 -0.024738 -0.057733 0.033941 0.373884 -0.054970 -0.015031 0.085838 0.175421 -0.103450 0.145385 0.116054 -0.193712 -0.171695 -0.030866 -0.225153 0.045858 0.065352 0.119795 -0.153818 -0.086106 -0.204543 -0.177630 0.228664 -0.035423 0.141719 0.368860 0.093317 0.010925 -0.312403 -0.001128 0.005096 0.098240 -0.448296 0.112157 0.060867 -0.007496 -0.100877 -0.075404 0.130267 -0.156542 0.089654 0.000842 -0.004133 -0.247588 -0.200899 -0.035047 0.093074 -0.279839 -0.213981 -0.189289 -0.124472 0.148692 -0.008431 -0.066806 -0.125707 0.017147 -0.114406 0.181085 0.041660 -0.261211 -0.064905 -0.160717 0.002802 0.098044 -0.095243 0.015788 0.324536 0.153313 0.127009 -0.305998 0.071592 -0.126764 0.427107 0.017986 0.030955 -0.031235 -0.349485 0.229687 0.002619 -0.100059 0.269094 0.113577 0.022149 -0.260646 -0.028278 -0.225949 -0.056395 -0.280038 -0.048859 -0.263171 0.098723 0.124379 -0.032164 0.120315 0.070834 0.216735 0.020210 -0.046723 0.153910 -0.175863 -0.077912 0.175173 
from 0.066853 0.129462 0.285265 -0.025241 0.330090 -0.035766 -0.182733 0.243550 -0.002249 -0.147110 0.240685 0.234717 -0.146961 0.039741 0.080538 -0.064066 0.081526 0.111813 0.052634 0.197915 0.011252 -0.059241 -0.012466 -0.085843 0.000433 0.169225 -0.070883 0.114662 -0.204805 0.206849 0.053583 -0.146172 0.034187 0.078888 0.081898 -0.031745 0.102629 -0.202182 0.005820 0.185489 -0.226101 -0.060484 -0.071765 -0.050194 0.012404 -0.150129 0.097051 -0.113781 0.067943 -0.053224 0.046710 0.163434 -0.075817 -0.177845 0.116623 0.032298 -0.192608 -0.205088 -0.026348 -0.192782 0.013300 -0.013002 -0.095713 0.042494 0.138863 0.000424 -0.050201 -0.047707 -0.040478 0.144683 0.051829 0.104665 0.040618 -0.094600 -0.065699 0.029772 -0.203616 0.094471 -0.043129 0.079934 0.110368 0.143761 -0.140092 -0.143172 0.116352 -0.215685 -0.217556 -0.209546 -0.010271 0.015555 0.020337 -0.022981 0.034549 -0.137356 0.028871 -0.183994 0.118825 -0.139833 0.114644 0.015982 0.266343 -0.058765 0.170358 -0.231638 -0.125929 -0.008479 0.136015 0.068806 0.162035 -0.033245 -0.120671 -0.011233 -0.194010 -0.042157 -0.023976 0.206113 -0.083294 -0.188341 0.100967 0.148183 0.093089 0.000211 -0.079370 -0.207056 -0.121487 -0.032717 0.269432 -0.036420 -0.085092 -0.036485 -0.102867 -0.016990 -0.078209 0.058910 -0.040584 0.165120 -0.060029 0.265878 0.025801 0.000785 -0.038153 -0.069532 -0.143066 0.074646 0.050005 0.091654 0.038539 -0.093619 0.084753 0.207232 -0.149402 -0.051826 -0.287490 0.164257 0.048198 0.110700 0.027353 -0.122885 0.017198 0.222971 0.006595 0.050887 -0.106195 0.094099 0.083673 0.045285 -0.118289 -0.132460 0.066667 -0.088772 -0.111347 -0.193880 0.044016 0.176046 0.255995 0.115589 -0.237584 -0.033777 0.208821 0.000214 0.025763 0.165075 -0.176231 -0.198085 0.026880 -0.039386 -0.083644 0.031625 0.146935 0.166601 0.184795 -0.065216 -0.101120 0.033752 -0.142626 0.014545 -0.073857 0.123118 -0.065868 -0.100162 -0.053306 0.091169 -0.049465 -0.245049 0.047894 0.058743 -0.128001 0.280463 0.108289 -0.174593 0.081543 -0.088901 0.063726 -0.112191 -0.010349 0.092820 -0.110925 0.072391 0.001904 -0.039280 0.245633 -0.093250 -0.228060 0.112111 0.182906 0.000152 -0.058470 0.033597 0.080045 0.123848 0.120961 0.230312 -0.214002 -0.125667 0.079485 0.079199 0.156387 0.255373 0.185300 -0.107916 0.138550 -0.219542 0.019091 -0.005515 0.214787 -0.464728 0.044078 -0.418699 -0.019222 -0.019966 -0.088100 0.212255 -0.090784 0.094034 0.220159 -0.175829 -0.031604 0.211244 -0.252411 0.055016 0.157160 -0.087885 -0.022411 -0.108209 -0.175395 0.078496 -0.031181 -0.157615 -0.161411 -0.089766 0.001266 0.083977 0.011913 -0.204223 0.036692 -0.085610 -0.071453 -0.196911 0.043600 0.143749 0.081385 0.053655 -0.002375 0.041470 0.056653 -0.118814 -0.078736 0.117518 -0.056634 -0.024433 0.003502 -0.232482 -0.048518 -0.018602 -0.092996 -0.218247 0.049080 -0.031747 -0.053345 -0.161689 
will -0.056554 0.025285 -0.084529 -0.115099 0.166548 0.188255 -0.197577 -0.104635 -0.349837 0.253569 -0.065324 -0.096382 -0.181816 -0.014043 -0.254720 0.090123 -0.047498 -0.101356 -0.123312 0.229393 -0.111894 -0.249574 0.056119 -0.004137 -0.187164 -0.021434 -0.040036 -0.187424 0.161057 0.029807 0.090250 -0.198276 0.032671 -0.205138 -0.005878 0.141036 -0.005105 -0.069531 0.083695 0.348304 -0.098756 -0.053599 -0.030985 0.093873 0.160227 -0.094666 0.142375 -0.045579 -0.312644 -0.051113 0.023468 -0.115900 0.015928 0.111717 -0.093630 0.029258 -0.173234 -0.140608 -0.047116 0.080891 -0.085420 -0.078056 0.279474 0.089355 -0.048983 0.297750 -0.081198 -0.107263 -0.180586 0.022386 -0.030410 0.147275 0.263409 0.078128 0.141919 -0.311403 -0.081656 -0.123157 0.201379 0.210719 -0.133653 0.011616 -0.152804 0.071120 -0.030055 0.016494 -0.060065 -0.320237 0.171045 0.056442 -0.013709 -0.131456 0.050505 0.187868 0.057837 -0.153939 -0.241031 -0.153795 0.027784 -0.024023 0.320570 -0.021949 0.092894 0.086541 -0.072604 -0.180292 -0.040155 0.098614 -0.035598 -0.075105 -0.046542 -0.177216 -0.132546 -0.172140 -0.208437 0.131686 -0.030554 -0.125393 -0.182211 -0.026135 -0.325157 0.044499 -0.245792 -0.013449 -0.030825 0.010276 0.259527 0.052887 0.042006 -0.176403 0.049854 0.088787 -0.107683 0.268827 -0.096663 0.112583 -0.180699 -0.064886 -0.155751 0.009128 0.222852 -0.083290 0.274414 -0.286189 0.023819 -0.161649 -0.068023 -0.241666 -0.059662 -0.099043 0.142815 0.101715 -0.148406 -0.141765 0.114134 0.194117 0.035822 0.083668 0.242451 0.041064 -0.008416 0.145099 -0.081347 0.235523 -0.094707 0.052761 -0.103390 -0.105951 0.056282 -0.035215 -0.096037 0.090377 -0.035407 0.069106 -0.072407 -0.127532 0.260683 -0.415104 0.058662 -0.095347 -0.083344 0.070264 0.111489 -0.067420 -0.308294 0.106949 0.157159 0.173629 -0.074508 0.185627 0.041775 0.088596 0.068259 -0.039994 -0.019467 -0.280376 0.078979 -0.103032 0.040943 -0.125928 0.027439 0.224796 0.181223 0.162396 -0.004974 0.429329 -0.131760 0.170353 0.118830 -0.059977 -0.113111 -0.043799 -0.092284 -0.072969 -0.070334 0.284863 0.103720 -0.285512 0.060725 -0.147797 0.109430 -0.263503 0.014440 -0.088033 -0.095951 -0.200635 0.234020 0.071365 -0.162565 0.214513 -0.000236 0.257139 0.025631 0.176074 -0.220325 -0.186645 -0.011761 0.194530 -0.061132 0.013670 -0.039638 -0.022693 0.169924 -0.038258 -0.083521 -0.235463 -0.067742 0.105093 0.287186 -0.155248 0.117839 0.043455 -0.019332 0.072660 0.157621 0.172613 -0.098294 0.046477 0.042520 -0.005890 0.068282 -0.175381 0.022870 0.240293 0.061416 0.056880 0.296170 -0.446587 0.003153 -0.151282 -0.103452 -0.037532 -0.052068 -0.012028 -0.026008 -0.055801 0.121241 -0.048619 -0.152111 0.038634 0.117548 -0.042657 0.064409 0.148937 -0.102176 -0.053398 -0.100298 -0.211018 0.144344 0.119725 -0.047578 0.227378 0.236827 0.079067 0.086231 -0.039144 0.217728 -0.183214 0.042382 -0.042350 
me 0.065420 -0.328677 -0.083075 -0.096437 0.028910 -0.083447 -0.235737 -0.220648 -0.098087 -0.005930 -0.157689 -0.045540 0.034160 0.098097 0.049988 0.006541 -0.182819 -0.129287 0.142736 0.189332 -0.009520 -0.133449 0.194146 0.119881 -0.025965 0.191147 0.014113 0.010488 0.013217 -0.057652 0.135246 0.096784 -0.113470 0.130219 -0.083434 0.166791 0.370929 0.147553 -0.152679 0.015437 0.187578 -0.130969 -0.075501 0.057644 0.136120 0.033676 0.110583 -0.216741 -0.102720 -0.077559 0.053086 -0.124685 0.152647 0.073050 0.105320 -0.188485 -0.478239 -0.282254 -0.058482 -0.347616 -0.287712 0.124962 -0.064862 0.199629 -0.257470 -0.052859 -0.053848 -0.075571 -0.063405 -0.000174 0.059026 -0.019390 0.090149 0.140604 -0.227557 0.019595 -0.107358 0.227504 0.004664 0.104096 -0.225629 0.066144 -0.066726 0.051708 -0.072007 -0.285714 -0.018423 -0.208007 0.145194 -0.048707 -0.038261 -0.129884 0.053619 -0.519339 0.003672 -0.204289 0.071373 -0.005760 0.045870 -0.040058 -0.009049 0.025605 -0.031748 0.178907 -0.181598 -0.010509 -0.139734 0.287639 -0.340946 -0.078507 0.035526 -0.103495 0.098488 0.106224 0.063302 -0.136476 0.045408 0.046037 0.162038 -0.193127 -0.101835 -0.247158 0.176042 0.143525 0.128391 -0.165112 -0.010898 -0.054611 0.146214 0.007182 -0.046283 0.118012 -0.039352 0.080741 0.042177 -0.005952 -0.080803 -0.053233 -0.137392 -0.054119 0.041363 0.093371 0.087191 -0.204573 0.220452 -0.000709 0.210625 -0.066163 0.132743 -0.098082 -0.104820 -0.121777 0.221257 -0.089909 0.005963 0.067984 -0.067154 0.024249 0.086480 -0.010086 0.254922 0.154992 0.053617 0.099100 0.199320 0.027802 -0.170501 -0.165518 -0.240134 0.090123 -0.051328 0.142838 0.241743 0.104578 0.251664 0.062067 -0.000002 0.095652 0.040892 -0.203412 0.042523 0.160372 -0.068363 -0.059070 -0.221450 0.128517 0.247174 -0.082441 0.157276 0.149389 0.315796 -0.291724 0.195540 -0.030322 0.068061 0.030842 0.011283 -0.072484 0.062917 0.028066 0.020411 0.179089 0.313310 -0.005255 0.184270 0.047167 0.168343 0.117773 0.096050 -0.219508 0.023783 -0.188000 -0.014817 -0.300883 0.055527 -0.074774 -0.002363 -0.242182 0.024796 0.110969 -0.140149 -0.167508 -0.004845 -0.069694 -0.170687 -0.142862 0.022593 -0.105054 -0.111563 0.106515 -0.097773 0.013246 0.083560 0.058662 0.004529 -0.051636 0.234779 0.202103 0.009038 -0.486392 0.118820 -0.068497 0.124141 -0.146799 -0.089801 0.135907 -0.053209 0.002670 0.071596 -0.257620 -0.254882 0.086615 -0.120632 -0.010221 -0.050763 0.101036 -0.050125 0.151835 -0.066784 0.223955 -0.022903 0.013578 0.012118 -0.152860 -0.022264 -0.180760 0.146087 -0.362836 0.002305 -0.218489 -0.279236 -0.006774 0.353704 0.141956 -0.075697 -0.181104 0.138903 0.154669 0.146398 -0.067255 0.302798 0.006956 -0.109935 -0.142168 -0.293097 -0.088475 0.123113 0.065623 0.078875 -0.071543 0.203897 -0.131433 0.303133 -0.002809 0.113782 0.499446 -0.164011 -0.153034 0.032988 -0.032544 
their -0.017766 0.014417 -0.192971 -0.159285 -0.086507 -0.187888 -0.105870 -0.131028 -0.048437 0.164514 0.172383 0.093450 0.133937 -0.035098 0.008052 -0.092666 -0.244359 -0.234152 0.101122 0.219500 -0.083412 -0.052771 0.112350 0.062969 -0.072069 -0.050754 -0.001515 0.076501 0.008471 -0.138520 -0.121159 -0.035892 -0.084104 -0.186995 0.107342 0.348543 -0.040028 -0.005063 -0.038623 0.101304 0.098738 0.152372 0.052633 -0.110118 0.119297 -0.116945 0.108868 -0.207914 0.093745 -0.148416 -0.299262 -0.046428 -0.186004 -0.313181 0.130316 -0.209203 -0.040294 -0.122347 -0.108492 -0.166333 -0.128248 -0.101251 0.158423 0.243136 -0.177888 0.098019 -0.030895 0.131290 0.005273 0.090322 -0.016868 0.031913 0.074620 -0.002260 0.245143 -0.275160 0.114665 0.122959 -0.038073 0.287314 -0.079131 -0.048459 0.074369 0.314491 0.177338 0.130969 -0.079364 0.260843 0.107783 -0.201261 0.139112 0.006626 -0.340640 -0.158970 0.344155 -0.277523 0.108494 0.101438 0.123857 -0.185285 0.036177 0.188332 0.028061 0.040905 0.015099 0.038414 0.109863 0.218531 0.099063 0.113838 0.015131 0.336148 -0.053307 0.056190 0.040108 0.098333 0.209242 0.113581 -0.150362 -0.397669 0.052417 0.102280 0.006467 0.017592 -0.005838 0.175172 0.065787 -0.417180 0.134493 -0.052502 0.132450 0.023179 -0.160551 0.110951 0.182435 0.063493 0.099523 0.045546 0.088085 -0.028958 -0.151990 0.142819 0.045837 0.069485 -0.450380 0.029693 0.094859 0.066205 -0.180112 -0.048564 0.080968 0.351587 -0.293820 -0.008093 0.035292 0.179304 -0.123469 0.141266 -0.112043 0.001981 0.065546 -0.211777 -0.185383 -0.345141 -0.035704 0.002516 -0.053147 0.031101 0.210350 0.038734 0.034973 -0.173356 0.185283 -0.169999 0.006351 -0.147776 -0.013838 0.139720 -0.274012 -0.179325 0.089342 0.034591 -0.129166 -0.131748 0.090551 0.026510 -0.089005 -0.048576 -0.124402 0.081551 0.161250 -0.095953 -0.097844 -0.233205 -0.094751 0.151357 0.066054 0.209848 0.263400 -0.267986 0.021542 0.250399 0.150612 0.125101 -0.234614 0.292548 -0.211293 0.195048 0.266662 -0.201275 -0.346490 0.001267 -0.121887 -0.228417 -0.158894 0.028779 -0.052250 -0.083458 -0.139654 -0.017987 0.114424 -0.212220 -0.182386 -0.130046 0.001467 -0.119536 -0.246351 0.091622 -0.095537 0.166480 0.003162 0.069205 -0.038078 -0.051752 0.126867 -0.190328 0.236434 -0.119260 0.166320 -0.151424 -0.239113 -0.328461 -0.211996 -0.137623 0.084267 0.081100 0.011653 -0.004349 0.006212 0.096462 -0.077055 0.092744 -0.149578 0.212076 -0.291838 -0.214172 0.022935 0.088266 -0.069469 0.127093 0.285462 0.040274 -0.207391 -0.015235 0.092908 0.298966 -0.265354 -0.108887 -0.027280 -0.288251 0.015244 0.272327 0.011075 -0.029244 0.033193 0.025195 -0.008072 0.033227 0.135067 0.087302 -0.139013 0.108554 0.189391 -0.078471 0.100670 -0.107408 0.034626 0.099577 0.185010 -0.313940 0.158637 0.032449 0.174716 0.397735 -0.298430 -0.095335 -0.002948 0.031639 -0.153441 0.204934 
all 0.086410 -0.090366 -0.131832 -0.346432 -0.180676 0.105772 0.064689 0.006076 -0.032280 -0.313224 0.039582 -0.158825 0.115923 0.096945 -0.189722 0.122946 0.165277 0.045656 -0.099828 0.102487 0.315847 0.060746 0.203049 0.304154 0.083620 0.087238 0.233670 -0.016778 -0.407341 -0.314889 -0.053507 -0.052603 0.071299 -0.097812 0.099968 0.126797 0.127640 -0.118365 0.058889 0.117243 0.065176 -0.043317 -0.189715 -0.059405 0.112117 -0.156557 -0.018436 -0.212500 -0.148351 0.047370 0.000106 -0.175014 0.161196 -0.131165 -0.039973 0.012534 -0.074114 0.015975 -0.026736 0.002134 -0.359927 -0.140861 0.117152 -0.114087 -0.053319 -0.035756 0.045681 0.328351 -0.095004 -0.136587 -0.168364 0.155681 0.011324 -0.024125 0.026777 0.018556 0.028875 -0.225752 0.078246 0.016887 0.022037 0.104577 -0.143875 0.346172 0.066745 0.127771 -0.160368 -0.026494 0.127590 -0.057761 -0.040095 0.239601 0.018637 -0.143436 0.058276 -0.086204 0.003869 -0.003652 -0.065224 -0.189266 -0.081573 -0.097831 0.070321 -0.080201 0.059940 -0.070647 -0.099219 0.215016 0.111368 -0.119133 0.032945 0.158569 -0.088293 0.090750 -0.123010 -0.002959 -0.208563 0.065819 0.019335 0.009176 -0.133336 -0.247128 -0.156027 -0.142505 -0.095473 0.280661 0.170930 -0.112716 0.045620 0.135274 -0.143050 -0.006708 -0.319208 0.047190 0.031853 0.047894 -0.079436 0.180407 -0.026672 -0.021864 0.115659 0.126155 0.135059 -0.004315 0.040405 -0.101425 0.002164 0.021509 0.126143 -0.029561 0.025821 0.046150 -0.022468 -0.137272 0.204164 -0.039572 0.068397 0.366910 -0.071240 0.019652 0.129144 -0.044512 -0.022894 -0.052994 0.064941 -0.149463 -0.090398 -0.047244 0.117644 0.177263 -0.152983 -0.199087 -0.026012 -0.037799 0.143181 0.157292 -0.175506 0.048330 -0.014887 -0.038541 0.006351 0.083676 0.045162 -0.245815 -0.193351 -0.080401 -0.136748 0.100654 -0.075119 0.062445 0.082933 -0.021860 0.106977 -0.025999 0.094940 -0.220087 -0.010739 0.136618 0.171122 -0.044250 -0.164451 0.289040 -0.068751 0.001254 0.258773 0.300018 0.218818 0.021851 0.299826 -0.165966 -0.150012 0.022581 0.018269 -0.376897 0.093367 -0.049567 -0.195793 -0.076226 0.044421 0.016663 -0.064696 0.086991 0.057380 0.015135 -0.234444 0.047706 -0.038145 0.009050 -0.099875 -0.095711 -0.159460 0.290662 0.009395 0.133530 0.156191 0.013651 -0.121528 0.085051 0.161685 -0.321594 -0.051904 -0.050510 -0.218505 -0.040767 -0.092389 -0.119791 -0.029514 -0.266693 0.253914 -0.024710 -0.150076 -0.000590 -0.068742 0.210573 0.035005 -0.208386 -0.121972 -0.010971 -0.122311 -0.223143 -0.048899 -0.063378 -0.129082 -0.123251 0.017885 0.152441 -0.081136 -0.226119 0.230398 -0.149716 -0.102767 0.114482 -0.035321 0.085147 -0.319938 0.067945 -0.015161 -0.032849 0.082314 -0.117748 -0.091871 -0.063326 0.131343 -0.234063 0.140425 0.101730 -0.140340 -0.177339 0.230831 0.172360 0.019534 -0.084670 -0.072512 -0.213345 0.106277 0.015851 0.125074 -0.300930 -0.085709 0.103796 
was 0.101383 -0.056206 0.427632 -0.072841 -0.177716 -0.218196 -0.262761 -0.016065 -0.100280 0.091774 0.128049 -0.217558 -0.207848 -0.187026 -0.022282 -0.018445 -0.132367 -0.356469 -0.042267 -0.027741 0.045063 -0.054101 -0.021941 0.178835 -0.129419 0.141956 0.109205 -0.011038 0.071880 -0.076615 0.272782 -0.048733 -0.081600 0.007191 0.058289 0.175370 0.060670 0.061954 -0.202186 0.087797 -0.058564 0.118776 0.034477 -0.077536 -0.024664 0.178158 0.270963 0.055748 -0.017011 -0.246158 0.132301 -0.006172 -0.041377 0.084542 -0.113422 -0.005442 -0.128732 -0.252490 -0.384912 0.135270 -0.390703 -0.061792 0.112862 0.024267 -0.066051 0.142938 -0.182774 0.051229 0.160869 -0.115809 -0.209412 0.028989 0.194332 -0.034653 -0.113277 -0.205296 -0.173665 0.170815 0.007195 -0.023138 -0.064382 0.231469 0.141123 0.198121 0.360292 -0.166389 -0.093971 0.048679 -0.364791 -0.075881 -0.098657 0.144247 0.185898 -0.258762 -0.147052 -0.248887 0.009534 0.031887 0.202303 -0.072711 0.161218 -0.155835 0.251625 0.101825 -0.204505 0.234642 0.123879 0.060929 0.182206 0.100731 0.086115 -0.122460 0.100100 -0.048760 -0.152148 0.128467 -0.203290 0.079164 -0.165636 -0.103323 -0.180858 0.358631 -0.230350 0.129696 0.090086 0.105826 0.083625 0.177136 -0.085103 -0.090338 0.051698 -0.043904 0.008547 -0.055660 -0.086649 -0.143871 -0.148701 0.327157 -0.110912 -0.127810 0.284550 -0.074483 0.023784 -0.035330 -0.165907 0.035347 -0.303178 -0.008829 -0.010727 -0.176056 0.291710 -0.239083 -0.083224 -0.095565 0.009277 -0.149748 0.237023 0.116275 -0.315874 -0.111970 -0.115165 -0.094042 -0.039447 0.013323 0.158080 0.117653 -0.252126 0.282126 -0.091870 0.350727 -0.240207 0.065792 -0.305129 -0.233211 0.158929 -0.003545 -0.139299 -0.184372 0.271664 -0.217490 0.165557 0.189922 0.103230 0.014789 -0.407238 0.213970 0.221647 -0.109234 0.068263 0.051784 -0.107682 0.054418 -0.033156 0.082995 0.148054 -0.082177 -0.151873 0.007938 -0.267075 -0.086988 -0.085197 0.162728 -0.180635 0.040847 0.319248 0.010029 0.004197 0.191584 0.142184 -0.047508 0.050168 -0.288361 0.045571 -0.081298 -0.044388 -0.146206 -0.133213 -0.066982 0.109519 -0.303911 -0.134278 -0.187556 -0.090813 0.130365 0.136913 -0.110211 0.054219 -0.024447 -0.335347 0.160107 -0.192615 0.012648 -0.116730 0.204215 -0.038373 0.096591 0.010309 0.119443 -0.012875 -0.104322 0.209505 -0.049784 0.311836 0.050311 -0.050183 -0.300372 -0.036301 -0.017046 0.045125 -0.009252 -0.203319 0.204541 -0.198018 -0.133026 0.104591 0.009287 -0.269577 -0.070835 -0.176350 -0.211034 0.287412 0.193959 -0.093817 -0.155418 -0.016980 0.258090 0.267186 -0.011084 -0.075494 -0.124140 0.047854 0.089233 0.268377 0.147358 0.170032 0.189168 0.073833 0.259046 -0.054137 -0.136675 -0.069361 0.137783 0.019154 0.029989 0.089276 -0.126566 -0.097371 0.064791 0.012221 -0.017977 0.197058 0.138785 -0.177224 0.214676 0.154314 -0.011240 0.039536 0.132803 -0.024931 -0.090054 
her 0.029881 -0.061439 0.110889 -0.248926 -0.026830 -0.062454 -0.013706 0.005478 -0.072988 0.022999 -0.024413 -0.226930 -0.162130 0.162662 0.002962 0.133780 0.104149 0.054387 0.101065 0.155258 -0.019598 -0.353130 0.162553 0.046415 0.227704 0.036857 0.062951 0.089962 -0.015659 0.149441 0.131783 0.052115 0.014529 -0.237663 -0.022019 -0.130510 -0.085226 -0.112161 0.199614 -0.136591 0.403989 0.038957 -0.001633 0.066568 0.081930 -0.050947 0.210367 -0.311738 0.077903 -0.142322 -0.142891 -0.076764 -0.198496 0.040736 0.189137 -0.288752 -0.404427 -0.323859 0.034626 -0.088632 -0.130444 -0.069121 -0.090303 -0.012888 -0.025295 -0.112279 -0.179636 0.218322 -0.112395 -0.001260 -0.323182 0.088652 0.074919 -0.003552 0.000461 -0.125541 0.110874 0.231233 0.097217 0.029865 0.010033 -0.166582 -0.050912 0.127742 -0.018691 -0.213564 0.145726 0.038849 0.076772 -0.085750 0.130944 0.341235 -0.059971 -0.104772 -0.249440 -0.189363 0.176289 0.052780 0.239660 -0.103538 -0.175964 -0.020309 0.148317 -0.015089 -0.103453 0.103023 0.037825 0.087856 0.052948 0.150539 0.233289 -0.112644 0.201643 0.009782 0.102955 0.153936 0.027953 -0.160861 0.075418 -0.260372 0.005815 -0.147945 0.247995 -0.105575 0.203242 0.240264 0.198431 -0.142152 -0.069758 0.041611 0.014364 0.187596 -0.076017 0.006136 -0.160084 0.177115 -0.127430 0.099209 0.013146 -0.129507 0.020473 0.188061 -0.105721 -0.099838 0.109485 0.049566 0.086554 0.077502 -0.346651 0.036916 0.097168 -0.073047 0.002879 -0.126350 0.125211 0.053764 -0.261550 0.032835 0.089781 -0.214954 0.197056 -0.065374 -0.227077 0.063172 0.088921 0.178585 -0.086574 0.130060 -0.088983 -0.041399 0.074520 -0.092141 -0.196780 -0.076887 -0.052676 0.021456 -0.120163 0.022915 0.067007 -0.226311 0.079881 0.304944 0.132977 -0.003136 -0.043324 0.020426 -0.068816 0.128990 0.116847 -0.036182 -0.075104 -0.185651 0.081394 -0.214640 0.153822 -0.125579 0.065819 -0.274707 -0.063736 -0.096430 0.155471 0.123596 0.024008 -0.105745 0.191857 -0.012514 0.027455 0.125704 0.209597 -0.208648 -0.175575 -0.163677 0.145119 -0.290664 -0.341934 -0.039386 -0.263749 -0.141712 0.039462 -0.023219 -0.034881 -0.106822 -0.008429 0.210540 0.146826 -0.167052 0.131534 0.015726 -0.088470 0.038916 0.070245 0.040743 -0.292968 0.137675 0.230829 -0.273327 0.031454 0.055325 0.091333 -0.056383 -0.047668 -0.171862 0.038545 -0.163794 0.221339 0.044070 0.149361 0.138174 0.052845 -0.293132 -0.077787 -0.015294 -0.026145 0.022283 -0.248127 0.009693 -0.059499 -0.015389 -0.057310 0.298099 0.162607 -0.033858 -0.092383 -0.299282 0.192587 0.072689 0.182298 -0.217482 -0.187170 -0.239885 -0.116244 0.356108 0.343913 -0.155961 -0.144358 0.004155 0.257880 -0.132674 0.100120 0.184895 0.133540 -0.091340 0.189607 -0.121314 -0.011067 -0.055975 -0.093893 0.336646 -0.082305 -0.033035 0.018776 -0.109423 0.453513 -0.009072 0.111185 -0.058334 -0.045983 -0.113193 0.005052 -0.199946 
or -0.017605 0.011453 -0.041861 -0.078660 0.034635 -0.064875 -0.333911 -0.244295 0.031418 0.189142 -0.236184 -0.025411 0.042541 0.072524 -0.015052 -0.020618 -0.016694 -0.248836 -0.018166 -0.134570 -0.164981 -0.076807 0.097286 0.182182 -0.128707 -0.019294 0.037039 -0.078291 -0.156322 -0.119206 -0.027757 -0.108368 -0.105707 0.105593 0.202961 0.060124 0.124834 0.007110 -0.219428 0.080090 -0.213515 0.399830 0.189533 -0.149215 0.056857 0.033188 0.138238 -0.166655 -0.438645 -0.065342 0.072611 -0.014246 -0.261305 -0.198603 0.221207 -0.208988 -0.034707 -0.323739 0.054928 -0.225596 0.111985 -0.144381 0.024477 -0.108776 -0.322039 -0.082296 -0.011226 0.120082 0.002607 0.151527 -0.005890 0.178098 -0.003649 -0.104857 -0.097016 -0.018194 -0.014987 -0.147979 -0.023958 -0.073892 0.035708 -0.057582 -0.067588 -0.145052 0.008581 -0.125113 -0.063809 0.072817 -0.032203 -0.122921 0.096324 -0.296202 0.169274 -0.179362 -0.016064 -0.186420 0.151471 -0.074855 0.206148 -0.083670 -0.015372 0.030968 0.162010 0.098770 -0.102065 -0.053708 -0.005166 -0.166590 0.081006 -0.052423 0.080055 -0.105941 -0.106915 -0.167864 -0.155607 0.381838 0.086348 -0.171000 -0.128208 0.084868 0.044285 -0.230330 0.000090 0.140087 0.044072 0.181125 0.300133 0.057815 -0.004208 0.032328 0.000490 0.092964 0.065783 0.107648 -0.172836 -0.024876 0.140421 -0.039304 0.048947 0.066264 -0.035031 0.103729 -0.090721 0.043733 -0.018326 -0.005188 -0.116870 -0.176348 0.021550 0.161902 -0.071389 -0.266374 0.130741 -0.171672 0.087689 0.282347 0.133993 -0.028816 -0.052283 0.048414 0.267043 -0.105183 0.038572 0.057383 -0.150085 0.048259 -0.158473 0.040053 0.049608 0.118302 -0.001238 -0.192177 -0.122605 0.112680 0.069861 -0.035522 0.061188 0.007620 0.074716 -0.051314 0.074469 0.075665 -0.017187 0.171022 -0.304398 0.098849 -0.098306 -0.142034 0.153556 -0.221045 0.133728 0.140745 -0.007796 -0.094534 0.037007 -0.025048 -0.036827 0.286721 0.032584 -0.265906 0.076112 0.252734 -0.099100 -0.034708 0.131356 -0.156461 0.077085 -0.084304 -0.080658 -0.091151 -0.151367 -0.082376 -0.099239 0.071839 0.159764 0.317332 0.015521 0.045958 0.090431 -0.201028 0.101031 -0.350385 -0.175234 -0.080674 -0.099015 -0.197463 -0.071618 -0.258203 0.023992 -0.042977 -0.132669 0.126176 -0.215244 0.008835 0.066262 -0.394391 0.005124 -0.216630 0.211639 -0.042751 -0.239705 -0.105429 0.040623 -0.205101 0.124205 -0.228185 -0.137564 0.035482 -0.041839 0.075992 0.072793 0.185599 -0.139864 -0.092443 0.030476 0.095643 0.257980 0.149764 -0.249387 -0.093691 0.048676 -0.056454 0.003116 0.012130 0.198236 0.185024 -0.086616 -0.126230 -0.068201 0.082048 0.106158 0.118034 -0.072110 -0.162146 0.096809 0.010443 0.147782 0.070220 0.121407 -0.019392 -0.163602 -0.208057 0.182137 0.063817 -0.315244 -0.065039 -0.148804 0.054981 0.096122 0.319070 -0.004242 -0.150043 0.055544 0.144619 0.003877 0.074875 0.127897 -0.288439 -0.006178 0.256992 
they 0.131913 0.173161 -0.352412 0.005521 -0.066280 0.110857 -0.047222 0.077007 0.031774 -0.044985 -0.110676 0.029931 -0.103643 0.076920 0.133041 -0.104863 -0.020551 0.030475 0.078831 0.014460 0.125534 0.149219 0.199461 -0.037446 0.038076 -0.070141 -0.000284 -0.214509 0.064271 0.092242 0.274429 -0.152487 -0.102004 0.111703 -0.031645 0.213071 0.384318 0.096865 0.151649 -0.063590 0.135612 -0.028167 0.109748 0.113626 0.034202 -0.046332 -0.079329 -0.121974 -0.030626 0.038170 0.031548 0.128177 0.055487 0.004520 0.138214 -0.027685 -0.061014 -0.044167 -0.235028 -0.060861 -0.069622 0.276480 -0.016876 0.099174 -0.127707 0.181095 -0.080041 0.119316 0.179675 0.062925 -0.010812 0.177623 0.382086 0.114860 0.236621 -0.107569 0.040324 -0.155490 -0.058522 0.307193 -0.054731 0.027586 -0.155748 0.171886 0.231412 0.095740 -0.129364 -0.326959 -0.177593 -0.423061 -0.121328 -0.233875 -0.058640 -0.006278 0.229239 -0.248603 0.039206 0.148593 0.302220 0.054038 0.049146 0.011896 -0.001847 0.065492 -0.283985 -0.078316 -0.134588 0.031205 -0.039504 -0.026279 0.181041 0.151677 0.123041 0.039392 0.005046 -0.147893 0.203474 0.240034 -0.196866 0.156252 0.103566 -0.025703 -0.052835 0.117592 -0.197083 0.106398 -0.039135 -0.142542 -0.076565 0.178191 -0.057741 0.040793 -0.249544 0.118318 -0.116057 0.160178 0.029793 -0.134472 0.025126 0.404889 -0.053343 0.042907 0.085696 -0.145827 -0.308344 0.086823 0.087742 0.140899 -0.006146 0.054445 0.079902 0.086261 -0.101118 0.006851 0.036574 0.121320 0.159341 0.075799 0.015911 0.156974 0.208379 0.015996 0.101600 -0.250082 -0.076506 -0.076636 -0.055991 0.055858 0.354621 -0.017781 0.089847 -0.247343 0.055070 0.089861 -0.075575 -0.022499 -0.052578 -0.104764 -0.030200 0.083365 -0.157505 -0.196430 -0.131649 0.214498 0.162642 0.061543 -0.160489 -0.004826 0.046254 0.083405 0.157606 -0.019102 -0.326489 -0.031182 -0.059839 -0.019690 -0.118224 0.217043 -0.033495 -0.075870 -0.170816 0.172487 0.231575 0.105547 -0.293263 0.261769 -0.126587 0.237701 0.552062 -0.069494 -0.367043 -0.178471 -0.052481 -0.219739 0.242706 0.259202 -0.292959 -0.079484 -0.014452 0.198547 -0.160846 -0.091676 -0.058504 0.084899 0.145171 -0.038114 -0.054406 -0.011677 -0.063733 0.106449 -0.118554 0.078308 -0.474725 0.180128 0.206521 -0.077998 0.286419 -0.155017 0.133759 -0.247208 -0.032312 -0.114760 -0.167857 0.049774 -0.018131 -0.324978 -0.052060 0.170087 0.273054 -0.080812 -0.223235 0.088425 -0.235472 -0.050772 0.010640 0.048990 -0.072623 0.116223 -0.031022 0.023156 0.340590 -0.341379 -0.075381 -0.216209 -0.032537 0.198683 -0.098633 -0.101863 -0.161336 -0.110485 0.288887 0.221339 0.124396 0.062499 0.059698 0.240378 -0.217816 0.035960 0.115647 0.084316 -0.162299 -0.108090 0.149713 -0.029688 0.049884 -0.119156 0.173775 0.019801 0.066558 0.067407 -0.095373 0.235325 0.017394 0.007675 0.078814 -0.093885 -0.036289 -0.119807 0.023494 0.092844 
