1240 300
the 0.000000 0.000000 0.000000 0.000000 0.000000 0.000000 0.000000 0.000000 0.000000 0.000000 0.000000 0.000000 0.000000 0.000000 0.000000 0.000000 0.000000 0.000000 0.000000 0.000000 0.000000 0.000000 0.000000 0.000000 0.000000 0.000000 0.000000 0.000000 0.000000 0.000000 0.000000 0.000000 0.000000 0.000000 0.000000 0.000000 0.000000 0.000000 0.000000 0.000000 0.000000 0.000000 0.000000 0.000000 0.000000 0.000000 0.000000 0.000000 0.000000 0.000000 0.000000 0.000000 0.000000 0.000000 0.000000 0.000000 0.000000 0.000000 0.000000 0.000000 0.000000 0.000000 0.000000 0.000000 0.000000 0.000000 0.000000 0.000000 0.000000 0.000000 0.000000 0.000000 0.000000 0.000000 0.000000 0.000000 0.000000 0.000000 0.000000 0.000000 0.000000 0.000000 0.000000 0.000000 0.000000 0.000000 0.000000 0.000000 0.000000 0.000000 0.000000 0.000000 0.000000 0.000000 0.000000 0.000000 0.000000 0.000000 0.000000 0.000000 0.000000 0.000000 0.000000 0.000000 0.000000 0.000000 0.000000 0.000000 0.000000 0.000000 0.000000 0.000000 0.000000 0.000000 0.000000 0.000000 0.000000 0.000000 0.000000 0.000000 0.000000 0.000000 0.000000 0.000000 0.000000 0.000000 0.000000 0.000000 0.000000 0.000000 0.000000 0.000000 0.000000 0.000000 0.000000 0.000000 0.000000 0.000000 0.000000 0.000000 0.000000 0.000000 0.000000 0.000000 0.000000 0.000000 0.000000 0.000000 0.000000 0.000000 0.000000 0.000000 0.000000 0.000000 0.000000 0.000000 0.000000 0.000000 0.000000 0.000000 0.000000 0.000000 0.000000 0.000000 0.000000 0.000000 0.000000 0.000000 0.000000 0.000000 0.000000 0.000000 0.000000 0.000000 0.000000 0.000000 0.000000 0.000000 0.000000 0.000000 0.000000 0.000000 0.000000 0.000000 0.000000 0.000000 0.000000 0.000000 0.000000 0.000000 0.000000 0.000000 0.000000 0.000000 0.000000 0.000000 0.000000 0.000000 0.000000 0.000000 0.000000 0.000000 0.000000 0.000000 0.000000 0.000000 0.000000 0.000000 0.000000 0.000000 0.000000 0.000000 0.000000 0.000000 0.000000 0.000000 0.000000 0.000000 0.000000 0.000000 0.000000 0.000000 0.000000 0.000000 0.000000 0.000000 0.000000 0.000000 0.000000 0.000000 0.000000 0.000000 0.000000 0.000000 0.000000 0.000000 0.000000 0.000000 0.000000 0.000000 0.000000 0.000000 0.000000 0.000000 0.000000 0.000000 0.000000 0.000000 0.000000 0.000000 0.000000 0.000000 0.000000 0.000000 0.000000 0.000000 0.000000 0.000000 0.000000 0.000000 0.000000 0.000000 0.000000 0.000000 0.000000 0.000000 0.000000 0.000000 0.000000 0.000000 0.000000 0.000000 0.000000 0.000000 0.000000 0.000000 0.000000 0.000000 0.000000 0.000000 0.000000 0.000000 0.000000 0.000000 0.000000 0.000000 0.000000 0.000000 0.000000 0.000000 0.000000 0.000000 0.000000 0.000000 0.000000 0.000000 0.000000 0.000000 0.000000 0.000000 
of 0.125081 0.128738 -0.120510 0.125559 -0.272590 0.131087 0.021417 -0.048293 0.000452 0.167727 0.026235 -0.077875 0.070365 -0.174775 -0.018904 0.112492 0.001430 0.018185 -0.081548 -0.101084 -0.068948 0.103490 -0.117164 -0.157224 -0.003695 0.275672 0.046215 0.048805 0.061479 -0.074537 -0.164717 0.046507 0.171417 -0.023337 0.073116 0.077495 -0.197417 0.061989 0.039908 -0.157934 0.056445 0.075657 -0.074871 -0.109153 0.034873 -0.031283 -0.207182 0.202442 0.069904 0.041672 0.060498 -0.084019 0.197502 0.102861 -0.154332 0.005581 0.196687 -0.119532 0.115733 0.243359 0.202029 -0.095372 0.046942 -0.061752 0.056991 -0.126964 0.048461 -0.126945 -0.030916 -0.090202 0.146102 0.163988 -0.095206 -0.062395 -0.015594 -0.000132 0.233046 0.183475 0.106194 0.007345 0.179242 -0.161076 0.095574 0.230940 -0.089803 -0.069336 -0.015340 0.076598 -0.060267 0.172709 0.082691 0.228928 0.162916 0.195590 -0.090720 -0.014623 -0.053531 0.068440 0.068951 -0.065756 0.103714 -0.091932 0.113198 0.061282 0.140580 -0.056069 -0.082941 -0.055926 0.033972 -0.036004 0.009448 0.063401 -0.062484 0.024489 -0.019501 0.225578 0.060943 0.298386 -0.128152 0.123886 -0.051329 -0.017600 -0.074030 0.087577 0.014664 -0.205367 -0.084668 -0.022987 0.098958 0.260720 -0.220931 -0.005192 0.139993 -0.200621 -0.109324 0.072088 0.115600 0.027732 0.151665 -0.018454 -0.230440 -0.052236 -0.034673 0.238180 -0.000435 -0.080502 0.132605 0.124984 -0.011301 0.046036 -0.199392 0.112197 -0.110560 -0.089509 -0.233589 0.016288 -0.131962 0.008939 -0.026346 0.048892 -0.042680 -0.024640 0.063357 -0.022212 -0.131034 0.079037 -0.050526 -0.032005 0.105840 -0.130734 0.040422 0.137369 -0.192369 -0.204007 0.071205 -0.016678 0.072216 -0.015531 -0.139555 -0.037927 0.033862 -0.087254 0.136981 -0.129852 0.310355 0.017940 -0.115201 0.067789 0.060781 -0.011979 -0.190923 -0.027406 0.024646 -0.045936 0.076186 0.223645 -0.051251 -0.030740 0.095764 0.195302 0.218349 -0.282183 -0.064603 0.020226 0.037058 -0.234771 -0.030987 -0.311658 -0.335110 0.067363 0.050825 0.064159 -0.087050 0.130090 0.030071 -0.147692 -0.001487 0.013043 0.179472 -0.067465 0.094531 0.239230 0.264082 0.061214 -0.074445 0.202503 0.111296 0.006166 0.022779 -0.098706 0.158802 -0.084870 0.146274 -0.020556 -0.051187 0.093647 0.032482 0.038270 -0.122072 0.211803 -0.099953 0.028967 -0.088663 -0.034871 -0.171987 0.234541 0.050578 -0.050775 -0.229242 0.015112 0.121551 -0.118516 0.168959 0.148625 -0.149087 -0.023310 0.175279 -0.214481 -0.145017 0.066001 0.077343 -0.119486 0.000609 -0.005523 -0.068132 -0.139258 -0.106582 0.138584 0.063734 0.056439 0.097820 -0.014319 -0.050375 -0.149373 0.336634 -0.039906 0.171212 0.054042 -0.015197 0.152918 -0.132241 -0.020378 0.023850 -0.032562 0.178280 0.210405 0.042535 -0.038329 -0.011657 0.051260 -0.003927 0.016870 -0.121533 -0.113124 -0.033889 -0.176616 -0.147324 0.207707 -0.009700 0.181108 
and -0.036062 0.040828 0.032468 0.072790 -0.041601 0.055682 0.111278 0.025795 -0.026575 -0.042100 0.183679 0.061006 0.133357 -0.005346 -0.008705 -0.016705 -0.014987 -0.002869 -0.093149 -0.015641 0.025738 -0.058731 0.001024 -0.123939 -0.070557 0.050349 0.082838 -0.058053 0.060505 0.048479 0.028272 -0.055706 0.029004 0.060965 -0.056218 -0.023341 -0.208050 -0.039115 -0.010484 -0.194303 0.061239 -0.150331 -0.141970 0.128296 0.002802 -0.068168 -0.276322 0.141708 0.168953 0.140230 -0.014991 -0.026780 0.139246 0.081946 -0.281682 -0.071954 0.062909 0.249449 -0.038103 0.015039 -0.154522 0.005668 0.081315 -0.079419 0.264671 -0.057928 -0.000445 -0.046590 -0.062235 -0.007066 -0.103284 0.023842 -0.003064 0.044356 0.042061 0.123892 0.109650 0.158985 0.129581 0.010489 0.045816 0.004494 -0.082190 -0.041930 0.122423 0.135688 0.066257 0.221445 -0.223509 0.027450 0.000256 0.221187 -0.115794 0.165959 0.000541 0.236976 -0.157774 0.057808 0.008066 -0.084215 0.019027 -0.095530 -0.078622 -0.071867 0.077170 0.017453 0.035098 -0.017861 -0.073554 0.064607 -0.006352 0.067829 -0.124885 0.024558 0.092733 0.022428 0.073907 0.086639 -0.062312 0.035993 -0.025465 -0.058295 0.075738 -0.081502 -0.100658 -0.084813 -0.102433 -0.042399 -0.022939 0.112158 -0.100225 -0.015705 0.103156 -0.141348 -0.062291 0.102230 -0.018215 0.164343 0.120022 -0.101457 -0.076687 -0.080395 -0.065113 -0.041698 -0.051626 -0.004981 0.129039 -0.101120 0.154111 -0.018953 0.081719 0.110413 -0.083337 -0.109646 0.098123 0.015900 -0.105662 0.012222 -0.026982 0.051637 0.024570 0.057173 -0.108307 -0.067217 -0.029746 0.099335 -0.019722 0.040207 0.018634 -0.063297 -0.045329 0.107180 0.022975 -0.120994 0.044491 -0.010215 0.012803 0.057187 -0.078562 -0.025689 0.056548 -0.024495 0.006410 -0.197717 0.237592 0.053006 0.003750 0.038447 -0.093369 0.037408 -0.035765 0.062209 0.091852 -0.022762 -0.033459 0.120192 0.075843 -0.108933 0.087333 0.035451 -0.010585 -0.037408 -0.061740 -0.067724 -0.122961 -0.051896 -0.069721 -0.044844 -0.200570 0.045585 0.010809 -0.037424 0.020576 0.013227 0.014534 -0.124905 0.030510 0.031211 0.021561 -0.015846 0.088771 0.192002 0.040240 -0.045730 0.117494 0.081607 0.021556 -0.072238 0.024437 -0.171830 0.147762 -0.108575 0.110759 -0.046804 -0.048180 0.218866 0.022364 -0.060062 -0.056565 0.196764 -0.106132 0.089359 0.012725 0.076493 0.009013 0.358357 0.122799 -0.094720 -0.168154 0.071887 0.193425 -0.119272 0.088960 0.124302 -0.220186 -0.150129 0.066252 -0.027389 0.002181 0.079985 -0.084335 0.011046 -0.117969 0.116078 -0.016067 -0.024702 -0.068846 0.111250 0.063948 -0.000309 0.011024 -0.090256 -0.205596 0.089902 0.127871 0.092381 0.101376 0.153205 0.069312 0.001895 0.010243 -0.051171 -0.011325 0.036979 0.170207 0.080034 0.046967 -0.108566 -0.142178 0.002742 -0.079636 0.189312 0.049849 -0.111579 0.074712 -0.138905 0.012276 0.153721 -0.173685 0.006121 
to 0.070384 -0.219191 -0.086831 0.032379 -0.034483 0.107566 0.045470 0.018974 0.137256 0.018819 0.002535 0.038936 0.084786 -0.110783 -0.016966 0.190982 -0.062283 0.055475 -0.115939 -0.103507 -0.042636 -0.085711 -0.024181 -0.020075 -0.119973 0.050376 -0.028180 -0.049627 0.079745 -0.064125 0.016776 0.039366 -0.010160 0.006992 -0.065140 0.081919 0.079680 -0.023035 0.077620 -0.118533 0.054594 0.138308 0.073143 0.192531 -0.085838 0.035683 -0.211145 0.075934 0.066318 0.158365 0.011227 0.091361 -0.062968 0.109331 -0.165588 -0.104378 -0.048773 -0.016260 -0.012910 0.082334 0.055424 -0.008487 0.005860 -0.079088 0.068880 -0.147042 -0.095853 -0.072594 -0.056305 -0.032058 0.200548 0.015930 -0.038417 -0.100023 0.061811 -0.006288 0.154867 0.099005 0.067459 -0.089144 0.057334 -0.156711 0.055863 -0.035729 -0.061232 -0.055016 0.068628 0.110459 -0.192502 0.021308 -0.034089 0.113333 -0.040100 -0.090017 -0.043189 -0.014116 -0.098307 -0.071102 -0.122210 0.000071 0.025546 0.064774 -0.175609 -0.052811 0.209392 0.081668 0.011842 -0.073696 -0.190497 0.088315 -0.069280 -0.075541 0.071231 -0.062971 0.063367 0.043230 0.016130 0.055009 0.047462 0.028702 0.038077 0.008039 0.099856 0.026505 -0.061559 -0.056598 -0.052072 0.087747 0.082732 0.121351 -0.088025 -0.004547 0.165608 -0.019886 -0.029730 0.008053 0.059660 -0.177330 0.057749 0.062472 0.002969 -0.026250 -0.029116 -0.015681 0.052668 -0.006049 0.045026 0.072580 0.125142 -0.095631 0.045102 0.040256 -0.171226 -0.156656 -0.005077 0.048240 -0.082853 -0.140149 0.137789 0.052030 0.026182 0.064793 -0.018427 -0.134697 -0.094890 -0.059501 -0.094797 -0.049900 -0.183146 -0.191610 0.107752 0.070614 0.026714 -0.140464 -0.014892 0.074938 -0.013743 0.041195 -0.053540 -0.029658 -0.097537 -0.134571 -0.006608 -0.239374 0.049071 0.062232 -0.040147 0.003681 0.154991 0.113401 -0.109919 -0.058520 -0.032126 -0.057173 0.072275 -0.042814 0.048361 -0.138580 0.083178 0.066143 -0.047448 -0.095740 -0.109262 -0.197368 -0.181830 -0.138769 0.043212 -0.108106 -0.344668 0.213750 0.078918 0.106798 -0.041509 -0.097406 -0.139944 -0.062741 -0.036211 -0.081985 -0.243097 -0.084095 -0.027324 0.259953 0.009822 0.023519 0.185026 0.126225 0.008189 -0.101098 0.076698 -0.089663 0.216917 -0.257545 0.092510 -0.007284 -0.037352 0.134309 0.023926 -0.083667 0.119343 0.063385 -0.101096 0.055544 0.196410 0.037889 -0.100810 0.210773 -0.008125 0.166134 -0.279040 0.076685 -0.038667 0.000648 -0.024826 -0.006135 -0.031186 -0.040333 0.110646 0.024901 -0.016918 0.004396 -0.095444 -0.046042 -0.080975 0.085188 0.033755 -0.043817 -0.053104 0.154828 0.051661 -0.067924 0.130176 -0.046165 -0.078005 -0.051365 0.180757 0.135209 0.085480 0.130058 -0.025922 -0.057215 -0.144628 0.068506 0.041111 -0.059395 0.006074 0.153176 0.108394 -0.050933 0.009531 -0.032222 0.175020 0.035831 0.041791 0.045969 0.020113 -0.118718 -0.119319 0.065238 0.096785 0.031500 
a -0.112026 0.032709 -0.062299 0.165930 -0.032907 -0.042724 -0.072110 -0.132669 -0.125355 -0.048814 0.079099 0.060796 0.038412 -0.056712 0.265754 -0.013506 0.216899 -0.119577 -0.043903 -0.182425 -0.066564 0.091724 -0.019547 0.031412 0.009301 0.135719 -0.211104 -0.014191 0.079585 -0.021894 0.011091 0.019011 0.055430 0.124238 -0.204640 0.003566 -0.027547 -0.067724 0.094385 -0.108413 0.035685 -0.020584 -0.113848 0.025111 -0.078433 0.034299 -0.239043 0.158008 0.077513 -0.067472 0.004961 0.069817 -0.108674 0.057439 -0.208302 0.033439 0.040366 0.170308 -0.191072 -0.012215 0.051626 -0.066589 0.037243 -0.089948 -0.086998 0.135314 -0.028114 -0.061968 0.003997 0.233892 0.012225 -0.060850 -0.066223 0.015754 -0.089823 0.281251 -0.127164 -0.049219 0.128459 -0.182450 -0.107665 0.078123 0.020520 0.063679 0.023569 -0.071672 -0.101337 0.009017 -0.255384 0.031020 -0.086257 0.124364 -0.004625 0.100267 -0.040132 0.024346 -0.017841 0.038507 0.039044 -0.002405 0.046248 -0.209680 -0.060578 -0.114823 -0.019461 0.001110 -0.025284 -0.106779 0.126832 -0.023977 -0.148451 -0.071699 -0.126763 0.037455 0.013726 0.030602 -0.006298 0.136538 0.016648 0.115610 0.101799 0.191741 0.106768 0.001828 0.182049 -0.183215 -0.034921 0.153208 -0.058260 0.108405 -0.155727 -0.124446 0.102500 -0.149248 -0.130372 0.002961 -0.072751 -0.290965 -0.026455 -0.028119 0.024193 -0.125933 -0.036647 -0.035977 -0.079380 -0.006843 0.031593 0.080918 0.090217 -0.058020 -0.001832 0.126182 0.166945 -0.008940 0.064416 0.057752 0.127337 -0.349744 0.039233 -0.125963 -0.007751 -0.076550 0.055155 -0.060436 0.072967 0.083952 0.005878 -0.003438 -0.066152 -0.100202 0.018288 0.185103 -0.024976 0.014916 0.072893 -0.020493 -0.137795 -0.041065 0.014911 -0.140865 0.046244 0.061954 0.138582 -0.039703 0.063569 -0.062537 -0.192631 -0.046881 0.148065 -0.003612 -0.115709 0.292217 0.044426 -0.141440 -0.053891 0.058267 0.038534 -0.053409 0.003170 0.104995 0.002482 -0.247806 -0.214919 -0.131502 0.041182 -0.076437 -0.018347 -0.146235 -0.237703 0.126243 0.151828 0.172661 -0.112982 0.285171 0.026007 0.070010 0.030792 0.069119 0.020177 -0.088413 0.126920 0.073387 0.059274 -0.124082 -0.002231 0.053797 0.039992 0.012359 0.173988 -0.098370 0.005297 -0.149435 0.127716 -0.054365 -0.144248 0.175484 -0.087980 -0.043443 -0.070869 0.337059 -0.042008 0.161200 0.107215 0.134233 -0.019447 0.076319 0.046744 0.074429 -0.084697 0.147830 0.323448 -0.097126 0.069170 -0.001733 0.004376 -0.001360 0.163048 -0.026427 -0.055874 -0.000723 -0.113594 0.147246 0.153911 -0.141033 0.034715 -0.075277 -0.030545 0.229671 0.096938 0.276154 0.048146 -0.027615 -0.156186 -0.091292 0.272595 0.026185 0.126589 0.068689 0.095813 0.091443 -0.083635 0.064049 -0.067084 0.048441 0.047872 0.174488 0.060887 0.095494 -0.016441 0.079531 -0.085359 0.046350 -0.040893 -0.178698 -0.003688 0.061446 -0.036987 0.210391 -0.061721 -0.019142 
in 0.223365 0.154769 0.077838 0.194022 -0.164263 0.014592 0.045316 -0.147370 0.092397 0.006667 0.043800 -0.009082 0.183291 -0.083066 0.114090 0.366149 -0.137114 -0.232094 -0.061206 -0.065976 -0.110471 0.024328 -0.110041 -0.130956 -0.077740 0.025309 0.073904 0.023741 -0.044405 -0.040662 -0.151013 -0.140696 0.060557 0.009734 0.118798 0.148520 -0.162048 0.055912 -0.034326 0.010878 0.061273 -0.001551 -0.018741 0.058218 -0.022895 -0.137424 -0.199217 0.171721 0.064018 0.108645 -0.063995 0.039614 0.069544 0.187695 -0.207448 -0.097814 0.150833 0.004323 -0.113252 0.149905 0.027020 -0.158046 -0.071371 -0.183057 0.082643 -0.155696 0.122850 0.064528 0.007897 -0.006165 0.174533 0.067546 0.072748 0.008413 0.080259 -0.044387 0.130211 0.040997 0.130977 -0.048140 0.093157 0.038250 -0.018400 0.098032 -0.035773 0.037205 0.045445 0.052958 -0.224270 0.075532 0.047927 0.175342 0.017866 0.151265 -0.164049 0.204930 -0.086556 -0.073484 -0.008965 -0.045659 0.129761 -0.127369 -0.107583 -0.105777 0.125046 0.047916 0.124563 -0.072263 0.009102 0.016055 0.084063 0.135582 0.043503 -0.069808 -0.009618 -0.048554 0.057091 0.217848 -0.064238 0.044670 0.184201 0.049252 0.034616 0.059138 -0.164812 -0.006868 -0.184202 0.076509 0.015313 0.063013 -0.010732 -0.204303 0.132135 -0.183607 0.060652 -0.071097 0.144581 -0.101221 0.160649 0.159762 -0.130244 -0.129599 -0.117255 0.034208 0.039617 -0.092183 -0.101539 0.168386 -0.229504 0.078915 0.035712 0.075314 -0.133254 -0.001832 -0.027514 -0.088332 0.032698 -0.058678 -0.081889 -0.050105 -0.008123 -0.076236 0.024698 -0.097206 0.078945 -0.090941 -0.042482 -0.018257 -0.090547 0.065049 0.047371 0.041122 -0.110065 -0.182428 -0.032329 -0.050255 0.004856 -0.050596 0.041196 -0.074078 -0.152513 -0.087398 0.235211 -0.027466 0.330135 0.019732 -0.114086 0.042343 0.020200 -0.043475 -0.142770 -0.036604 0.138972 -0.241364 0.011653 0.158742 0.033708 -0.026947 0.205653 0.149888 -0.113192 -0.053621 0.016756 -0.094790 0.042695 -0.057649 -0.057619 -0.146353 -0.253986 -0.056800 0.002199 0.025290 -0.024282 0.098495 -0.021897 0.093683 -0.084725 -0.107183 -0.091494 -0.021952 0.061217 0.100785 0.102157 0.018462 -0.045690 -0.020871 -0.070527 0.042433 0.160285 -0.054379 0.060040 -0.174345 0.135336 -0.032410 -0.076212 0.149925 -0.141405 0.073218 0.009428 0.301627 -0.130919 0.109745 0.110182 0.074007 -0.184802 0.307054 0.069620 0.056762 -0.217700 -0.063849 0.230697 -0.231821 0.136276 -0.020768 -0.110895 -0.099228 0.256741 -0.141755 0.047108 0.019302 -0.105040 -0.051962 -0.057484 -0.090770 0.037471 -0.109756 -0.153651 0.169861 0.035589 0.036730 0.066741 -0.038168 -0.236270 0.111685 0.200344 0.001010 -0.047034 -0.085168 -0.022124 0.069920 -0.033045 -0.039366 -0.010547 -0.110545 -0.055172 0.161863 0.146425 -0.044550 0.074519 -0.025960 -0.056431 0.092739 -0.086409 -0.049735 -0.046340 -0.046715 -0.117921 0.210442 -0.117533 0.046396 
i 0.085943 -0.240519 0.111662 -0.111788 -0.090102 0.277596 0.150619 0.240434 0.051959 -0.049887 0.068427 -0.125290 0.058317 -0.101758 -0.067512 0.029248 0.049317 0.087882 0.106635 0.026062 0.083531 -0.127954 0.062730 0.046510 0.030134 -0.000782 -0.232770 -0.050490 -0.023488 0.030685 0.121354 0.126999 0.152069 -0.067527 0.019239 -0.113948 -0.102924 -0.253878 -0.187138 0.056242 -0.072392 -0.122888 -0.025882 0.007252 0.043150 0.122074 0.016429 0.117640 -0.216339 0.106611 0.046868 -0.137572 -0.022762 0.271864 -0.052383 0.053707 0.094639 -0.021808 0.102248 0.133568 0.079110 -0.103958 0.017998 0.002785 -0.012418 0.132500 -0.001171 -0.104009 -0.227232 0.269365 0.024363 -0.050293 0.029749 0.002586 0.097154 0.162758 -0.108834 0.009975 0.180757 -0.160332 0.241691 -0.115421 0.149098 0.019811 -0.033301 0.065171 0.411882 -0.088152 -0.168363 0.157385 0.089780 0.095745 0.155248 0.175662 -0.153098 0.089372 -0.179110 -0.066396 -0.128514 0.227423 -0.114828 0.088192 -0.151038 0.061156 -0.045396 -0.068046 0.037162 0.003899 -0.187847 0.023984 0.185158 -0.235483 -0.040161 -0.003117 -0.096044 -0.096297 0.000704 -0.144851 -0.057084 0.130393 -0.139399 -0.051583 0.071753 0.137435 -0.051039 -0.139296 -0.265123 -0.074920 -0.093297 -0.057888 0.144959 -0.032009 0.061113 -0.099199 -0.049486 -0.009133 0.004100 -0.163296 -0.054907 -0.049113 0.125453 -0.174973 0.099687 -0.013438 0.062869 -0.104343 -0.120680 0.069771 0.054714 -0.119827 0.082925 0.041311 0.332108 0.028390 -0.022398 0.135028 0.060422 0.000149 -0.171847 0.038169 -0.097857 -0.001567 -0.010000 0.140557 -0.189002 0.081050 0.193698 0.012912 -0.336188 0.070983 0.040895 0.168026 -0.128740 -0.033833 0.011424 0.018943 0.094115 -0.127410 0.149943 0.047919 -0.126010 -0.215046 0.088086 -0.126290 -0.178556 -0.215898 0.167861 -0.032944 -0.034830 0.024377 -0.003016 0.010321 0.133360 0.264930 -0.039024 0.160099 -0.010894 -0.258982 -0.028290 0.158379 -0.168544 -0.273795 -0.019095 -0.114132 0.205519 -0.097737 0.045760 -0.074718 -0.308673 0.103153 0.066946 0.170613 -0.122631 0.099459 0.084142 0.022804 0.174060 -0.095354 -0.123155 -0.209679 -0.172724 0.185399 0.045144 -0.058788 -0.009744 0.115530 0.288885 0.095284 0.037497 -0.014069 0.199220 -0.166753 0.282585 -0.122161 -0.022060 0.043289 -0.195596 0.059138 -0.110275 0.246085 -0.043095 0.162356 0.257688 0.011231 -0.046148 0.065581 0.210103 -0.032988 -0.022173 0.060133 0.026741 -0.015901 0.181367 -0.009992 -0.057253 -0.047266 0.082295 -0.055689 0.050100 0.131831 -0.188242 0.077685 0.008013 -0.011621 -0.060922 -0.082017 -0.069699 -0.058046 -0.052223 -0.147363 0.054563 -0.148151 -0.052686 -0.077201 0.046963 -0.040802 -0.046970 -0.150921 -0.076170 -0.076348 -0.119658 -0.147747 0.046875 0.178763 0.186535 0.198335 0.169948 -0.189091 0.051767 0.035931 0.012365 -0.005763 0.052593 -0.054326 0.186577 0.245365 0.069698 0.157684 0.072068 -0.213094 
that 0.148846 -0.098555 -0.003545 0.012852 0.041070 -0.105264 0.017637 0.003150 -0.091423 0.060148 0.051428 -0.057841 0.088703 -0.056525 -0.175603 0.033793 0.045711 -0.077288 0.178245 -0.086269 0.096578 -0.025667 -0.040204 -0.069074 -0.113342 0.150225 -0.061114 -0.072722 0.013072 0.043151 -0.009873 -0.069752 0.027413 -0.043934 0.063692 -0.021193 0.049176 0.215700 0.063438 -0.145475 0.051084 0.154183 -0.129383 -0.084444 -0.150664 0.132007 -0.128100 -0.042089 0.069363 0.028651 0.066908 -0.068443 0.270744 0.280536 -0.233401 -0.099937 0.094078 0.169180 0.024153 0.156157 0.168654 -0.017619 0.072486 -0.071471 0.015159 0.091051 -0.137548 -0.088792 0.132012 -0.037111 0.193107 0.092786 -0.059974 -0.014855 -0.032472 0.101785 0.024963 -0.271593 -0.041359 -0.066942 0.118854 -0.093718 0.055664 -0.032829 -0.173639 -0.040707 -0.008865 0.191823 -0.133794 0.190935 0.043638 0.114688 0.135976 0.213270 -0.001034 0.090732 -0.162922 0.081959 -0.074751 0.034697 0.001337 -0.080159 -0.126922 -0.135591 -0.041240 -0.041010 -0.127709 -0.012568 0.069036 -0.024703 -0.084693 -0.038349 0.044034 0.041941 0.107703 0.010372 0.140136 -0.031103 -0.047689 0.106342 0.151161 -0.147108 0.034428 -0.053087 -0.050634 -0.166270 -0.110302 0.083059 0.016124 -0.075884 -0.152100 -0.000706 0.027371 0.063818 -0.016784 -0.079922 0.030713 -0.154232 -0.020598 0.132614 -0.042727 -0.103566 0.035617 0.154741 -0.017065 0.029836 -0.014049 0.108838 -0.099896 -0.169265 0.259883 0.090834 -0.043514 0.042790 -0.022565 -0.134821 0.125335 -0.007396 0.128596 0.118769 0.130654 -0.005807 0.143994 -0.064865 0.119902 -0.014523 0.030269 0.040249 -0.164819 0.216712 0.063963 0.023961 -0.073338 -0.139615 0.009980 0.040773 -0.281641 -0.033929 -0.070546 0.013547 -0.322235 -0.061752 0.019105 -0.003214 0.002476 0.021135 -0.046963 0.085815 0.189437 -0.064129 -0.190524 0.021546 0.212533 0.009559 -0.059432 -0.028146 -0.075284 -0.101511 -0.073038 0.025686 -0.053418 -0.111846 0.048518 0.000718 -0.191292 0.106385 0.165944 -0.071601 -0.004256 -0.088540 0.093451 0.059171 -0.052602 0.115178 0.034284 -0.048094 0.016444 -0.109589 0.040691 -0.073075 0.013488 0.054647 0.127571 0.040861 0.217587 0.005306 0.065604 -0.004706 -0.075936 -0.211167 0.101850 -0.089097 0.135291 -0.013067 0.039134 0.184052 0.082725 -0.033937 -0.040063 0.171761 0.223960 -0.136935 0.018692 0.132525 -0.234416 -0.030122 -0.013186 -0.018111 -0.161585 0.203123 0.090966 0.024744 0.212986 -0.080021 0.019002 -0.009625 0.171261 -0.146124 -0.029843 0.114862 0.016940 -0.120802 0.119089 -0.072379 -0.114834 -0.138261 0.021412 0.210820 0.068516 0.169436 0.118603 -0.164182 -0.086603 0.066898 0.164837 0.204974 0.246864 0.110951 0.147276 -0.015632 -0.157560 0.041701 0.150037 0.122540 0.184063 -0.050932 0.047266 -0.134381 -0.022178 -0.075525 0.141330 0.069669 0.025829 0.030369 0.123237 -0.142572 -0.314001 0.168867 -0.027538 -0.005811 
is -0.070830 0.104542 0.054201 0.176934 0.270206 -0.032796 0.045730 0.082883 -0.159120 -0.258136 -0.262593 0.150061 0.094459 0.037321 0.048940 0.051217 0.049117 0.073515 0.003976 0.036767 -0.013964 0.211342 -0.113850 -0.098358 0.040906 -0.124401 -0.064572 -0.160778 0.223139 -0.006222 -0.054635 0.012678 0.001101 0.073012 0.019265 0.010494 -0.266838 0.132664 0.017195 -0.331773 0.112223 0.044343 -0.216606 0.031473 0.115524 -0.220076 -0.138846 0.066242 0.019469 0.217676 -0.104542 0.014073 0.238327 -0.020038 -0.098500 0.114799 0.105819 0.323882 0.297517 -0.017697 0.410176 -0.205569 -0.097474 -0.058587 0.092424 0.092743 0.064381 0.121739 -0.120083 -0.109316 0.233912 -0.091648 -0.181232 -0.063987 -0.133251 0.237211 0.196929 -0.037991 0.131458 -0.051455 0.098932 0.102247 -0.027917 -0.180508 0.032267 0.081864 0.115418 0.207960 0.322711 -0.029557 -0.058926 0.124390 -0.178033 0.135091 -0.034605 0.120699 -0.049880 -0.063070 -0.331287 -0.298730 -0.254851 -0.109301 0.123115 -0.000962 0.306400 -0.017952 0.131217 -0.094693 0.089261 0.070720 0.081257 -0.025404 0.055699 -0.144940 0.148764 -0.053988 -0.027935 0.223071 0.046357 0.124519 0.138049 -0.182988 0.066085 -0.013681 -0.002257 -0.123009 -0.196125 0.088569 -0.018616 0.099397 -0.026421 0.001816 0.033367 0.105077 0.051502 -0.187288 0.189656 -0.113360 0.088080 0.191031 -0.216456 0.044462 -0.084448 0.143893 0.095444 0.056638 0.008352 0.066839 0.012632 -0.021429 -0.248873 0.077975 0.002944 -0.030691 -0.005072 -0.054861 -0.149497 0.055819 0.023368 0.072545 0.066286 -0.021868 0.053667 0.013182 -0.012002 -0.073581 0.126869 0.000967 -0.166961 -0.062687 0.122907 0.123800 -0.043055 -0.066621 0.009423 -0.116122 -0.027570 -0.000500 -0.058440 -0.028230 -0.168682 -0.218073 -0.052081 -0.073423 0.239359 -0.103923 0.103576 -0.009039 -0.113271 -0.057629 -0.222378 -0.155998 0.168286 -0.022821 0.010859 0.071054 -0.073600 0.121916 0.009114 0.152387 0.060236 -0.064687 -0.011144 -0.046848 0.080875 -0.286823 -0.077034 -0.164271 -0.211531 0.048568 0.305350 0.133295 0.019428 0.092175 0.037427 -0.207151 0.093700 -0.073948 0.009617 0.000650 0.105085 0.258421 -0.042450 -0.255713 -0.108324 0.018960 -0.160475 -0.010932 0.091137 -0.294870 0.097594 0.053893 0.305581 -0.112368 -0.195502 0.115419 -0.213725 0.024339 -0.100147 0.148721 -0.116210 0.177549 0.034758 0.087641 0.025836 0.248548 0.047355 -0.016567 -0.047847 0.041467 0.242327 -0.167068 0.110488 0.187530 0.026341 -0.068822 0.248709 -0.027623 0.099121 0.078643 0.131908 0.063002 0.036254 -0.033806 -0.008373 -0.152366 -0.156613 0.133184 0.088345 0.003603 0.055487 0.007268 -0.246058 -0.154489 0.166116 -0.109869 0.153670 -0.029916 -0.019962 0.052969 -0.158385 -0.011275 -0.105701 -0.090109 0.156455 0.153264 0.028456 0.172251 -0.027988 -0.030095 -0.172594 -0.183208 -0.236105 0.015109 0.061661 -0.081972 -0.101624 0.277265 -0.271834 0.046523 
it 0.127413 0.004243 0.332069 0.051264 0.040956 0.052282 -0.072607 -0.066710 0.063436 0.115725 0.186313 0.203036 0.024082 -0.011904 0.021929 0.124621 -0.246640 -0.150989 -0.074322 0.174767 0.063386 0.060333 0.001050 -0.097311 -0.128945 0.114062 0.104619 -0.015444 0.178541 0.133910 0.083801 0.042870 0.099159 -0.033925 -0.170021 0.095434 -0.082825 0.054627 -0.078443 -0.225504 -0.206025 -0.004356 -0.123023 0.030266 -0.073440 -0.064128 -0.211659 0.118759 0.243659 0.047716 0.009312 -0.092719 0.053725 -0.000565 -0.209608 -0.005110 0.019346 0.155380 -0.033056 0.262813 0.201063 -0.074670 0.007990 -0.016332 0.195111 0.118452 0.005038 -0.052446 0.086232 -0.060095 0.351045 0.017568 0.047367 0.051744 0.208868 0.044800 0.080986 -0.035327 0.024357 -0.144405 0.066189 -0.080399 0.127594 0.001180 0.000394 0.110679 0.118514 -0.011621 -0.065086 -0.105181 -0.001878 -0.009751 0.139070 -0.015846 -0.085211 0.086635 -0.111027 0.112777 -0.142539 -0.029106 0.187810 -0.030449 0.107512 0.134728 0.065740 -0.130259 0.105630 -0.074436 -0.016554 0.119218 -0.014751 -0.091653 0.064462 -0.069098 -0.037864 0.002267 0.116807 0.165893 -0.071758 0.166612 -0.012222 -0.183533 -0.122037 0.073461 0.054820 -0.253292 -0.147538 0.155039 -0.075842 0.045368 0.135930 -0.099565 0.266035 -0.123390 -0.081735 -0.049255 0.068149 -0.017423 -0.082534 0.051577 -0.045353 -0.139657 -0.091944 -0.016587 0.102942 0.108369 -0.115562 -0.119845 0.114060 -0.235103 -0.046095 0.144018 -0.114990 0.113704 0.052599 -0.152640 0.090661 -0.021353 -0.066719 -0.066691 -0.044731 -0.063942 -0.057099 0.016814 0.003781 -0.197495 0.175310 -0.167981 -0.182383 0.101474 -0.018590 0.009935 -0.060059 0.021001 0.028831 -0.274718 -0.009453 -0.000376 -0.004254 -0.026843 -0.075382 -0.146489 0.186745 -0.095734 0.021269 -0.083731 0.048976 -0.038796 -0.077159 -0.074688 -0.162632 0.123384 0.131785 0.123975 -0.094348 -0.064341 0.222598 -0.260087 -0.095806 0.248278 0.053909 -0.235295 -0.065531 0.032781 0.041212 -0.031967 0.114784 -0.143548 -0.219913 0.196223 0.155232 0.337083 -0.062384 0.189839 -0.184699 -0.025609 0.053071 0.058105 0.008672 -0.262536 0.008641 0.178977 -0.064233 0.067155 0.074226 0.015424 0.045526 -0.020789 0.103569 -0.005979 0.197519 -0.221922 0.186494 -0.015336 -0.032206 0.232827 0.020705 -0.007934 0.046878 0.260664 0.116637 0.049589 0.230030 0.144348 -0.123716 0.212290 -0.054259 0.171598 -0.247568 0.096278 0.137217 -0.022568 0.036441 -0.118529 0.225180 -0.100468 -0.125522 -0.014283 0.153199 -0.020541 -0.013108 -0.102611 -0.153683 0.099195 -0.034961 -0.198203 0.072132 0.161828 0.081710 0.153801 -0.013574 -0.312403 -0.173460 0.069334 0.129263 0.077483 -0.022224 0.073389 0.008111 0.110927 -0.228177 0.001225 0.061950 0.064053 0.006180 0.164125 0.046239 0.054235 0.009460 -0.019394 0.052420 0.023401 -0.153724 0.057432 0.013669 0.156001 0.081756 0.123230 0.060025 0.025924 
be -0.134109 0.152237 -0.170092 0.094002 0.118116 -0.144931 0.126964 0.036009 -0.022549 0.198386 -0.018635 0.132228 0.076576 -0.085484 -0.200580 0.190019 -0.096242 -0.103543 0.053278 -0.024574 0.035336 -0.103259 0.018586 -0.090378 0.064656 -0.104615 -0.126492 -0.101429 0.121629 -0.028657 -0.044796 -0.230517 -0.002815 -0.091777 -0.049679 0.093442 -0.080817 0.025847 0.099888 -0.123966 0.246272 -0.117532 -0.451446 -0.020011 -0.132401 -0.318400 -0.273030 0.145000 0.039919 0.338895 0.017137 -0.059442 0.299689 0.283900 -0.001708 0.152715 0.303649 0.139612 0.025968 0.133502 0.311324 0.026193 0.127378 -0.095344 -0.170450 0.225671 0.209924 0.013530 0.108545 -0.101970 0.127277 -0.032853 -0.150775 -0.080524 -0.005468 0.098434 0.098031 -0.259360 0.033156 0.160932 0.126633 -0.185839 -0.104322 -0.110670 -0.150466 0.035360 0.162419 0.015548 0.034460 0.137065 -0.033381 0.030660 -0.087729 0.333896 0.150851 0.240034 -0.194457 -0.018683 -0.083858 0.187448 -0.035892 -0.072538 -0.235503 0.033262 0.128328 -0.250695 0.134501 -0.172701 -0.205954 -0.075761 0.003520 -0.184012 0.042935 -0.248780 0.012559 0.094342 0.035461 0.132917 -0.293941 0.207558 0.177534 -0.032695 -0.205670 0.041631 0.050348 -0.179650 -0.089262 0.075312 -0.172484 -0.152806 0.056448 -0.132508 0.134246 0.068795 0.050156 0.019358 0.243903 -0.001452 0.151418 0.243963 0.042344 -0.131695 0.073069 -0.091896 0.042457 -0.048059 0.036663 0.014994 -0.121931 0.026653 -0.216966 0.134021 -0.145388 -0.180323 -0.026975 0.052664 -0.091015 0.194313 0.015880 0.089812 0.182619 -0.013453 -0.014756 -0.058983 -0.130182 -0.013538 0.272066 -0.156858 0.026802 -0.204847 -0.002615 0.076190 0.045717 -0.187785 0.097964 -0.252714 0.088919 -0.130944 -0.047347 0.019802 -0.147690 -0.070152 0.073703 0.028916 -0.023791 -0.272235 -0.082242 -0.082603 -0.094693 -0.013229 -0.272900 0.045561 0.086381 0.087343 -0.175755 0.086182 0.111935 -0.117049 0.072300 0.130100 -0.040729 -0.077840 -0.018733 -0.027290 -0.096906 -0.162343 -0.138229 -0.212619 -0.328849 0.213475 0.090223 0.294679 0.095715 0.238825 0.204076 0.218064 0.114432 -0.013373 0.040184 -0.357214 0.137438 0.104352 0.017157 -0.084147 0.055556 0.177205 0.256382 -0.086811 -0.141579 -0.113770 0.349220 -0.166862 0.220784 -0.008942 0.023319 0.088172 -0.247106 0.053351 -0.094265 0.205796 -0.042321 0.232182 0.102509 0.005770 -0.079077 -0.029861 -0.050692 0.164114 -0.096431 0.082429 0.264709 0.018533 -0.044173 -0.106344 0.332993 -0.176094 0.042471 0.070968 0.102034 0.058190 -0.048514 -0.181805 0.059394 0.071014 -0.118771 -0.232168 0.027187 -0.103767 -0.069117 0.186316 -0.028940 -0.128586 -0.062793 0.033870 -0.097586 0.079707 -0.170449 0.120666 0.050578 0.354600 -0.202033 0.022091 0.104262 0.100933 -0.077117 0.286752 0.046355 -0.163748 -0.083873 -0.043591 -0.246029 0.129372 0.047059 0.054676 0.014509 -0.135586 0.048727 0.034247 0.019480 0.061029 
you -0.028455 -0.166452 0.158165 -0.111998 -0.255765 0.110650 0.309046 -0.133597 0.028657 -0.104510 -0.071799 0.042280 -0.051990 0.254017 -0.067371 0.128213 0.033222 0.237988 0.139048 -0.026252 0.073132 0.102441 -0.039984 -0.235309 0.086619 0.046956 -0.181259 -0.013171 -0.149472 0.105143 0.052630 0.081749 0.011803 -0.046744 -0.207704 -0.223814 0.005290 0.085305 -0.302626 -0.155099 -0.123184 -0.017037 0.123415 -0.009595 0.187522 0.022008 -0.087467 0.105264 0.044206 0.265351 0.155597 -0.217448 0.039408 0.198420 -0.137634 0.255213 -0.102666 0.051571 0.084932 0.150953 0.099341 0.045589 0.074916 -0.235923 -0.121519 0.272545 0.228500 -0.233727 0.021429 0.001680 -0.070394 0.078552 0.063415 -0.004422 -0.084939 0.325076 0.064071 0.078638 0.167018 -0.222171 0.190675 -0.084683 -0.054706 -0.104524 -0.122339 0.162038 0.210710 -0.188984 -0.076630 0.219029 0.227703 -0.000272 -0.090014 0.160825 0.012401 0.137700 -0.083610 -0.034377 -0.074880 0.177811 -0.138983 -0.076435 -0.108624 -0.030502 0.017492 -0.077153 -0.021929 0.111935 -0.212014 -0.257785 -0.066260 -0.170263 0.038808 0.195732 -0.418239 -0.141147 -0.081668 -0.233956 -0.039356 0.147891 -0.035454 -0.137180 0.215651 0.033297 -0.143297 -0.227919 -0.020827 0.254299 0.106350 -0.126744 -0.010033 0.039969 0.188333 -0.043603 -0.066160 0.062741 -0.014929 -0.251166 0.099302 0.055842 -0.095429 -0.209127 -0.026910 -0.091274 0.395988 -0.038218 -0.027340 0.147915 0.263962 -0.148379 0.078886 0.110221 0.160652 0.082164 0.039791 -0.040371 0.124876 -0.236177 0.077688 -0.014278 -0.189187 0.226380 0.061742 0.313125 -0.228743 -0.043537 0.204028 -0.162129 -0.217581 0.062663 -0.197246 0.145787 -0.000380 -0.025252 -0.150585 -0.035401 0.280464 -0.026135 -0.011390 0.169994 -0.159149 -0.270588 -0.042873 -0.263475 0.080195 -0.152438 0.133855 -0.049085 0.222814 0.132652 0.020807 -0.003990 0.056452 -0.050800 -0.137781 0.162336 0.113647 -0.256692 -0.093276 0.163547 -0.036084 -0.050092 0.056127 -0.020929 0.060576 -0.035122 0.191743 -0.022828 -0.342078 0.012290 0.073986 0.124003 -0.165865 0.014660 -0.054420 -0.039763 0.041022 -0.091420 0.055130 -0.070701 -0.215222 0.300643 0.255600 0.169571 0.132655 0.188385 0.270136 -0.097451 0.169253 0.050275 0.044720 -0.215176 0.497530 -0.005651 -0.271257 0.052356 -0.066204 0.054869 -0.136849 0.216667 0.117368 0.205170 0.088178 0.168542 -0.100413 0.264776 0.090710 0.026078 -0.167485 0.056548 0.240123 0.062851 0.052771 0.064725 -0.172379 0.161503 0.245366 -0.165349 0.220449 0.009384 -0.454485 0.270879 -0.025609 0.148944 0.037814 -0.288028 -0.026098 0.042972 -0.099240 -0.025845 -0.114880 -0.371969 -0.088388 -0.085799 -0.236346 -0.015674 -0.018073 -0.234729 0.096359 -0.013803 -0.121686 0.041765 -0.009824 -0.000742 0.100070 -0.051640 -0.009550 -0.158132 -0.105485 0.084757 -0.139708 -0.033904 0.184610 0.039016 0.116747 0.209996 0.046264 -0.174753 0.016739 -0.099278 
his 0.116972 -0.030139 -0.069479 0.332221 -0.243483 0.193635 0.009543 0.024715 -0.211049 -0.223046 -0.040920 -0.047011 0.151498 -0.050854 0.055987 -0.031785 0.060767 0.147362 0.041468 -0.042660 -0.076937 0.043806 0.007767 -0.138935 -0.166353 0.103622 -0.249180 0.066644 -0.133615 -0.024140 -0.149094 0.090135 -0.157456 0.124932 -0.122486 0.007446 -0.118433 0.042049 0.080730 -0.152229 0.222946 0.081151 -0.023200 0.025639 -0.131660 -0.086951 -0.246475 0.137320 0.037959 0.301257 -0.024287 0.023947 -0.014207 0.117426 -0.248254 0.199752 -0.032256 -0.074910 -0.003877 0.156497 0.018596 0.049743 -0.158147 -0.082382 0.149338 -0.211265 0.193062 -0.064436 0.042015 -0.239178 -0.251564 -0.006052 -0.118419 0.043269 0.147598 0.087773 -0.054582 -0.095883 -0.074954 -0.288535 0.181189 0.072498 0.111725 -0.041050 0.160870 -0.092055 0.032414 0.350057 -0.271951 0.104756 -0.127277 -0.058950 0.284860 0.176383 -0.045066 0.195019 -0.020937 -0.094964 0.101006 0.070711 0.173567 0.037175 0.008909 -0.179780 0.187264 0.156263 -0.037988 -0.106152 0.071228 0.137572 -0.257431 0.004240 -0.045500 -0.140488 0.069655 0.053856 0.171163 0.096193 0.002372 -0.004431 0.023198 -0.100674 -0.052016 -0.102321 -0.059869 -0.230336 0.085237 0.040970 -0.186065 0.281757 -0.214617 -0.133918 0.166564 -0.257281 -0.140356 -0.046062 0.049708 0.144840 -0.116254 0.096006 0.020606 -0.105143 -0.122804 0.169665 0.177050 -0.093321 -0.235665 -0.068155 0.021637 0.060011 -0.038071 0.012330 -0.035431 -0.076534 0.037185 -0.075095 -0.085041 -0.034835 0.007729 0.106023 -0.049360 0.017402 0.008020 -0.091441 0.230552 -0.061089 -0.028731 0.028703 0.061042 0.141980 -0.056217 0.241299 -0.132079 -0.064218 -0.180111 0.057282 0.201147 -0.059154 -0.050840 -0.048261 0.101144 0.038472 -0.088854 -0.177187 -0.045156 0.049471 0.254213 -0.040498 -0.018725 0.181207 -0.203986 0.191834 0.043579 0.073201 0.174764 -0.110218 -0.076616 -0.038510 -0.120284 0.089862 -0.133100 0.005139 0.010829 -0.164851 -0.302013 -0.295841 0.177893 -0.293894 -0.361854 0.375136 0.076553 -0.057685 -0.089130 -0.003103 -0.016836 -0.155093 0.253024 0.214091 0.219117 0.074625 0.217065 0.195541 0.029657 -0.022808 -0.053170 0.022845 0.015711 -0.005012 0.100492 -0.103984 0.298390 -0.396572 0.066876 -0.227828 -0.010228 0.273916 -0.156520 0.034036 -0.016645 0.044252 -0.130344 0.149495 0.096670 0.048404 -0.057645 0.164109 0.115653 -0.103739 -0.091523 0.228616 0.160700 -0.018837 0.270520 0.063671 -0.029166 0.112671 0.129862 -0.166725 -0.005513 -0.105146 -0.172184 0.077625 0.222360 0.149793 -0.098817 -0.071136 0.031684 0.036782 0.003675 0.043253 0.017306 -0.116934 -0.298578 0.090324 0.088221 -0.093675 -0.166677 0.086406 0.106070 -0.013714 -0.156362 -0.150806 -0.227053 0.186440 0.181998 0.064270 0.006420 -0.090530 0.017902 -0.001759 -0.201383 0.040728 -0.117533 -0.004435 -0.049918 0.051010 0.131174 0.142224 -0.086673 -0.059570 
my 0.099826 0.068591 -0.150952 0.068726 -0.020314 0.103432 -0.075649 0.140487 -0.086853 -0.184118 0.247263 -0.196819 0.065516 0.039246 -0.001541 -0.075467 0.116179 0.152911 0.172367 -0.116592 0.036247 -0.036184 0.000859 -0.127241 -0.033628 -0.011963 -0.080805 0.082334 -0.133213 0.111581 -0.116088 0.233508 -0.055887 0.041761 -0.059319 -0.031580 -0.098397 -0.132570 -0.011817 -0.144935 -0.015041 -0.074004 -0.173776 0.270207 -0.035639 -0.088827 -0.254498 0.165345 -0.036087 0.209463 0.056354 0.022814 -0.107084 0.080929 -0.374576 -0.009484 -0.053353 -0.003905 0.044239 0.311223 -0.060803 0.132357 -0.223217 0.052541 0.018355 -0.133274 0.006333 -0.129078 -0.044167 -0.057631 -0.074294 0.055297 -0.082304 -0.069033 0.176854 0.314459 0.006083 -0.034629 -0.002741 -0.321033 0.125596 0.055333 -0.106777 -0.059318 -0.169186 0.083446 0.057264 0.117679 -0.080852 0.300170 -0.050011 0.087006 0.027351 0.093254 0.010968 0.077213 -0.044122 -0.193021 -0.266996 0.052707 -0.082695 0.009398 -0.108602 0.034891 0.126905 -0.152260 -0.214962 0.167052 -0.054717 0.005802 -0.033931 -0.110234 0.233000 -0.073800 -0.011643 -0.121914 0.023496 -0.241964 0.018258 0.215607 -0.146144 -0.028679 -0.031808 0.038394 0.175921 -0.209769 -0.217998 0.240954 -0.115681 0.064654 -0.112677 -0.002567 0.177206 -0.171603 -0.119284 -0.073587 -0.233816 -0.005256 0.065844 0.047609 -0.032815 -0.150739 -0.086778 -0.160784 0.234877 -0.010072 0.005159 -0.019753 0.015177 -0.109436 0.055204 0.095368 0.207042 -0.015574 0.051317 0.139072 0.043039 -0.107996 -0.218074 0.018592 -0.219020 0.085123 -0.037768 0.147703 0.031281 -0.141307 0.110465 -0.001353 -0.122693 0.032864 0.037829 0.166437 0.055034 -0.041229 0.016395 -0.087167 0.173008 -0.031504 0.107745 0.052672 -0.033293 -0.045397 -0.116403 -0.248974 0.032143 -0.068935 0.093094 0.134114 -0.047035 0.087079 0.120963 0.045638 0.074366 0.080586 0.007549 0.004897 -0.114851 0.026761 0.144392 0.256145 0.093918 -0.091226 0.112397 0.089933 0.056842 -0.248428 0.232689 -0.101929 -0.107500 0.179452 0.195549 0.013739 -0.097783 -0.056437 0.066448 -0.061240 -0.025399 0.188707 0.103469 -0.107212 0.107835 0.044828 0.123946 0.072633 -0.002067 0.147810 0.128908 -0.054059 0.031057 0.035272 0.092166 -0.273616 0.253779 -0.127050 -0.144668 0.239785 -0.239871 0.052504 -0.159440 0.184909 0.123255 0.209457 0.182612 0.225974 -0.192411 0.248608 0.206779 -0.181603 -0.215810 -0.087122 0.007061 0.064248 0.063156 0.051982 -0.130640 -0.082103 -0.086196 -0.074831 -0.027338 0.024844 -0.158643 0.109660 0.315687 0.185219 -0.117894 -0.135946 -0.008835 0.124419 0.244287 0.189134 0.106449 -0.373373 -0.168766 -0.073687 0.135474 -0.123091 -0.165533 0.062292 0.055292 -0.064992 -0.218411 0.067500 -0.275469 0.009641 -0.048011 0.043938 -0.013570 -0.038998 0.112231 0.076323 -0.022392 -0.028719 -0.141904 -0.168479 0.147372 0.094021 -0.035882 0.261660 -0.208578 -0.104239 
with 0.046613 0.039804 -0.090905 -0.082300 -0.299923 0.243372 -0.022834 0.010821 0.069987 -0.024968 0.034777 -0.061150 0.306146 -0.088614 -0.030545 0.126061 0.066497 -0.045900 0.012227 -0.132453 0.036058 -0.225557 0.123409 -0.133787 0.027088 0.158649 0.066244 0.104659 0.154353 0.093983 0.041924 0.093789 0.020493 -0.052890 -0.041622 0.214324 -0.085751 -0.005005 0.039870 -0.148319 0.122637 0.016730 -0.024304 0.161583 0.143696 -0.056946 0.076410 0.196568 0.234311 0.182567 0.013605 0.035517 0.128580 0.161500 -0.219133 -0.201879 0.122499 0.018440 0.009145 0.126231 -0.158162 -0.000910 -0.107461 -0.091220 0.105881 -0.106936 0.059169 0.016567 -0.125593 -0.021124 0.047766 -0.044886 0.074973 0.041860 0.012698 0.057339 0.139963 0.088591 0.103600 0.048393 0.096506 -0.115500 0.006421 0.098860 -0.001000 0.080550 0.221985 0.219558 -0.175069 0.132706 -0.075499 0.128471 0.026506 0.233436 -0.072849 0.202719 -0.129976 -0.037851 -0.100052 -0.117696 0.142450 -0.064829 -0.018185 0.042466 0.088216 -0.018557 -0.071962 -0.051222 -0.080702 -0.078376 -0.053735 0.082972 0.059165 -0.143028 0.116796 0.081786 -0.011450 0.259509 0.013172 -0.030861 0.000456 -0.060948 0.006823 0.100195 0.038666 -0.047809 0.002358 0.016049 0.016713 0.232176 -0.163587 -0.087604 0.104704 -0.126059 -0.023433 -0.069761 0.043124 -0.202552 -0.097743 0.052913 -0.141246 -0.044143 0.022285 -0.075763 0.022609 0.003895 0.095005 0.091594 -0.040694 -0.091220 -0.093750 -0.004595 0.041382 0.017515 -0.242404 0.038636 -0.092381 0.153901 0.035228 0.089562 -0.111005 0.008045 0.041907 -0.131279 -0.157008 -0.149497 -0.033056 -0.106927 -0.191871 0.115536 0.165808 0.078842 -0.146684 -0.149821 -0.060449 -0.026625 0.044557 0.014492 -0.108389 0.027545 -0.030931 -0.074280 0.155486 0.179535 0.227589 0.108571 0.058568 -0.004213 0.019267 -0.024669 -0.246757 -0.001397 0.094958 -0.161004 0.122164 -0.026417 0.093082 -0.139377 0.059843 0.073654 -0.054766 -0.030683 -0.145227 -0.248324 0.108034 -0.152215 0.010736 -0.166776 -0.213247 0.142964 0.213430 0.206134 -0.237096 0.041165 -0.030535 -0.158410 0.032958 -0.297512 -0.124879 0.023908 -0.059640 0.006938 0.069532 -0.067416 0.015506 0.125107 0.077195 0.053217 0.101530 -0.166130 0.258537 -0.217378 0.194256 0.071621 0.266246 0.119732 -0.122605 0.022921 -0.143797 0.090010 0.053775 0.160391 0.139376 0.031755 -0.060453 0.217322 0.194393 -0.071057 -0.329512 0.128039 0.252644 -0.116498 0.103841 -0.029706 -0.094119 -0.167291 0.272155 -0.094902 0.032729 -0.151374 -0.079089 -0.085245 0.037656 0.096339 -0.004341 -0.016251 -0.030443 0.093136 -0.075002 0.105572 0.092576 -0.028242 -0.104694 0.039392 0.259019 0.082098 -0.055194 -0.010297 0.187463 0.069433 -0.085449 -0.169201 -0.101346 0.061665 0.070972 0.114646 0.060098 -0.063765 0.048133 0.039761 0.078718 -0.068893 0.001657 0.059590 -0.056290 -0.045176 -0.178481 0.101028 -0.094073 -0.025906 
not 0.041853 -0.011818 -0.070088 0.208334 -0.027459 -0.019414 -0.126906 -0.108352 -0.168524 -0.006299 -0.069280 -0.097075 0.029812 0.036325 -0.103215 -0.037399 -0.072546 -0.032441 0.021226 0.056390 0.254928 -0.099953 -0.016467 -0.327313 -0.169044 0.106575 -0.107439 0.179063 0.293442 0.169299 0.111372 0.204767 0.123714 0.014236 -0.101487 0.051305 -0.075016 0.088079 -0.086107 -0.036889 -0.032562 -0.059341 -0.002554 0.267963 -0.011781 0.043663 -0.265025 0.201139 0.307659 0.242177 0.023115 0.059703 0.045245 0.259235 -0.210630 0.110062 -0.000254 0.053601 -0.000816 0.136957 0.263687 -0.119251 0.045100 -0.134791 0.190750 0.157555 -0.373645 -0.149300 0.142831 0.124193 0.275628 0.020619 -0.137947 0.062471 -0.033073 0.116508 0.159438 -0.005810 0.126536 -0.134886 0.175387 0.035291 -0.051145 -0.213677 -0.076981 0.136177 0.250968 -0.260526 -0.213116 0.144965 0.089067 0.053916 0.008797 0.045416 0.155717 -0.007904 0.038907 0.015081 -0.085514 -0.000208 -0.005750 0.036002 -0.003657 -0.037340 0.186972 -0.089536 0.097015 -0.009458 -0.087043 -0.106203 0.102282 -0.138591 0.237465 -0.059667 0.057664 -0.089296 -0.103198 0.033290 -0.240320 0.195567 -0.101960 -0.216802 0.050391 0.197366 -0.276077 -0.126004 -0.189289 0.143723 0.063140 0.001604 -0.191155 -0.088279 -0.056395 -0.127918 -0.147488 -0.005437 0.029503 -0.221141 -0.148955 0.176122 0.106334 -0.380736 -0.104226 0.121335 -0.052400 0.068319 0.178976 0.014045 -0.078707 -0.051279 0.076048 -0.009184 -0.008856 -0.014342 -0.087300 -0.249725 0.165204 0.005586 0.008522 0.200650 0.106157 -0.100792 -0.029304 0.141241 -0.094894 0.007973 0.082514 0.067899 -0.214784 0.040212 -0.170621 0.092896 -0.011252 -0.014981 -0.050021 -0.126215 -0.030729 0.063323 -0.161515 -0.076240 0.031952 -0.072443 0.143344 -0.191325 0.044938 -0.125610 0.202025 0.003537 0.097103 -0.100731 -0.017298 0.065335 -0.021661 0.079781 0.059789 0.099185 -0.079195 -0.107585 0.057997 0.199577 0.146981 0.015810 -0.115637 -0.025655 -0.032643 -0.041790 -0.147615 -0.158858 -0.016318 0.140942 0.145866 -0.054949 -0.165528 -0.067500 0.111508 0.179802 0.024535 -0.032229 -0.033213 -0.092545 -0.071751 0.017638 0.042738 -0.030801 0.474294 0.035073 0.060880 -0.022858 -0.054083 0.030850 0.148384 -0.007734 0.270056 -0.079369 0.111958 -0.071857 0.183427 -0.204665 0.015097 0.139813 0.025166 0.284691 0.040329 0.056387 -0.206534 0.417369 -0.012609 0.126297 -0.132930 -0.258604 0.076673 -0.030389 -0.036209 -0.035400 0.086959 0.133190 0.107966 -0.127677 0.276391 -0.035897 -0.088907 -0.115956 0.028380 0.155114 -0.099254 -0.211188 0.030344 -0.113969 -0.187479 -0.032922 0.063021 0.030265 -0.136783 0.089491 0.139054 0.198065 -0.146307 0.108770 0.038514 -0.205832 -0.071068 0.051134 0.107902 -0.009058 0.011508 0.155400 -0.070774 -0.148394 0.038173 0.172764 -0.136656 0.138348 -0.123791 0.256320 0.130080 0.044846 -0.025893 0.118580 -0.042823 -0.118141 
for 0.043245 -0.004281 -0.018674 0.205208 -0.220460 0.132097 -0.042706 -0.138800 0.020585 -0.096054 -0.043728 -0.077560 0.112906 -0.236644 0.067714 -0.004068 -0.120609 -0.080555 0.010622 0.059131 -0.104273 -0.075862 0.153229 0.060258 -0.022447 0.060134 -0.040538 -0.078764 -0.102679 -0.123970 -0.111320 0.171579 0.007145 -0.043620 0.020618 0.054320 -0.040289 0.215705 -0.132698 -0.300655 0.047819 -0.103497 -0.183421 0.098616 0.042578 -0.069061 -0.063886 0.301682 0.045139 0.057101 -0.199180 -0.010767 0.204301 0.202488 -0.098894 0.094178 0.135888 0.037405 0.084602 0.102510 0.121867 0.070675 -0.146544 0.008508 -0.054016 0.127444 -0.158724 0.004619 -0.064064 -0.059152 0.089031 -0.062646 -0.205650 -0.022647 -0.081573 0.121830 0.245062 0.032636 0.130518 -0.091613 0.097257 -0.354920 0.100289 -0.114156 -0.114849 0.084213 -0.014063 0.098548 -0.111547 -0.039353 0.092747 -0.015195 0.050032 0.092645 -0.032662 0.110833 -0.049399 0.063213 -0.061849 0.083639 -0.000278 0.018369 -0.139244 0.026407 0.026294 -0.099271 -0.139543 -0.102734 -0.120820 -0.101606 0.030047 -0.030822 -0.028682 -0.051921 0.190434 0.015674 0.196727 0.182793 0.028924 0.074849 -0.058592 -0.114445 0.142484 -0.066741 0.064049 -0.085403 -0.166899 0.077366 0.147409 0.068768 -0.079399 0.025459 0.038563 -0.024758 -0.034653 -0.139920 0.197211 -0.145368 -0.026427 0.017005 -0.084011 -0.013542 0.043304 -0.056594 -0.082292 -0.059963 -0.099503 0.235929 0.041598 -0.014838 0.210391 0.001866 -0.051344 0.036871 -0.021232 0.073992 -0.065250 -0.047689 0.090205 -0.022045 0.218723 -0.033717 -0.218291 -0.145307 0.058050 0.072620 -0.059706 0.128639 -0.096174 -0.042164 0.228580 0.180470 -0.090741 -0.027754 0.073838 -0.008046 -0.110548 0.245381 -0.179360 -0.034587 -0.127019 -0.225585 0.093074 -0.192418 0.146168 -0.134201 0.113395 -0.062867 0.052580 0.096601 -0.093385 -0.070329 0.039084 0.082709 -0.119309 0.024442 0.232035 0.034653 0.092864 0.116702 0.165072 -0.248250 -0.198202 -0.245356 0.015833 -0.127746 0.002890 -0.075400 -0.142456 0.000669 0.097281 0.041590 -0.003491 0.116796 0.037578 -0.018815 0.172952 0.056963 -0.054540 -0.015301 0.009339 0.156648 0.117607 0.089721 -0.028122 0.017538 -0.026658 -0.037222 -0.014593 -0.023876 0.167320 -0.396281 0.190534 0.085073 -0.085924 0.026643 -0.015834 -0.108473 -0.005217 0.158297 -0.065483 0.043297 0.217303 0.093377 -0.341465 0.160991 -0.045193 -0.002672 -0.185046 -0.114171 0.129513 -0.202507 0.062794 0.069035 -0.090153 -0.105845 0.339433 -0.149561 0.001553 -0.101359 -0.182369 -0.085624 0.034835 -0.109629 0.075930 0.002525 -0.084905 0.074652 0.145992 0.155320 -0.012915 0.181467 -0.093792 0.094508 0.163254 0.025100 -0.066859 0.091398 -0.055954 -0.114670 -0.095425 -0.152473 0.139867 -0.145514 0.119070 0.074719 0.320940 -0.147079 0.017866 0.025040 0.116734 0.163525 -0.020239 0.068642 -0.128173 -0.172217 -0.022640 0.134566 -0.133642 0.090488 
as -0.171629 -0.162738 -0.024373 0.210209 -0.171965 0.134002 -0.057332 0.069098 0.110746 0.038969 0.158024 0.024310 0.045753 -0.154587 0.030486 -0.043589 0.175121 -0.032703 -0.067603 -0.303622 0.018506 0.066846 -0.038604 -0.163639 -0.020415 0.018021 0.083735 -0.108434 0.134861 0.203502 0.098084 0.064651 0.051302 0.021292 -0.066437 0.198463 -0.054176 0.083756 0.025974 0.136012 0.140798 -0.076871 -0.177234 0.033791 0.019185 -0.222331 -0.007808 0.183131 0.244776 0.186503 0.060331 0.007219 0.129451 0.120216 -0.145544 0.023735 -0.061714 0.052531 -0.155396 0.173076 0.180825 -0.013563 0.076748 0.017570 0.237758 0.180381 0.045166 -0.014841 0.114169 -0.030384 -0.028826 -0.019521 -0.027943 -0.024462 -0.101590 -0.145856 -0.091132 0.099225 0.094476 0.071288 0.007384 -0.041169 0.095925 -0.132945 -0.177267 0.286157 0.022964 0.012089 -0.155156 0.104614 0.045245 0.184674 -0.134652 0.144140 -0.014657 0.101948 -0.157888 0.022677 0.071454 0.033888 0.159024 0.046996 -0.267704 -0.122365 0.039663 -0.193106 0.337848 -0.311470 0.071888 0.052922 -0.089413 0.062616 0.060153 -0.131162 0.098230 -0.230935 0.075466 0.106490 -0.094029 0.257264 -0.003151 -0.106943 -0.076714 0.044385 -0.155051 -0.153614 -0.272471 0.146633 0.147344 0.111925 0.059950 0.075562 0.181670 -0.135163 0.134701 -0.066229 0.093824 -0.226769 0.143823 -0.003878 -0.163424 -0.142210 0.056073 -0.044880 -0.160336 0.013025 -0.097542 -0.008611 -0.077672 0.109996 0.072924 -0.003418 -0.223978 0.024442 0.027704 0.016785 -0.370084 -0.150432 0.176812 -0.112199 -0.048810 -0.007980 0.037046 0.003751 -0.156494 0.002463 0.144680 0.000999 0.226130 0.227730 0.120494 -0.046361 -0.237280 0.005664 -0.120223 0.024547 -0.161405 0.142135 0.030916 -0.009414 -0.115891 -0.071986 0.036088 0.039587 0.263945 -0.074339 0.012568 -0.075998 0.288416 -0.023210 -0.038259 0.110971 0.121331 0.024102 0.077921 0.165659 -0.125443 -0.153198 -0.136681 0.199138 -0.018538 -0.304487 0.039199 -0.318556 -0.162303 -0.211544 -0.020372 -0.050410 -0.195373 0.194866 0.249753 0.127570 -0.249981 -0.009641 0.142014 0.029088 -0.070282 0.152475 -0.015538 -0.016322 -0.114451 0.203761 0.063107 0.058949 0.229455 0.068681 0.135643 -0.024802 0.036662 0.031843 0.093691 -0.085697 0.162287 0.006515 0.166526 0.088465 0.002942 -0.165209 -0.114789 0.070357 0.001420 0.103955 0.063900 0.204077 -0.069869 0.298338 0.066422 -0.302779 -0.321842 0.156193 0.332480 -0.096720 0.090947 0.037897 0.098829 -0.086162 0.016847 -0.143788 0.117328 0.027281 -0.119265 0.112936 0.276887 0.110630 0.204053 -0.010505 -0.192042 0.266462 -0.065354 0.052538 0.212371 -0.019992 -0.092775 0.241504 0.175334 0.223955 0.016483 0.153928 0.123525 0.010823 -0.066193 -0.320819 0.022156 -0.011363 0.135920 0.253571 0.243440 0.097065 0.077313 -0.012348 0.117396 0.059204 -0.063526 -0.125022 0.132685 0.087901 -0.028534 0.174440 -0.045426 0.033481 
he 0.255294 0.017310 0.340371 0.165548 -0.176567 -0.090281 -0.038169 0.116306 -0.049837 -0.006678 0.210608 0.010210 0.142883 -0.140435 -0.155284 0.249467 -0.009248 -0.190549 -0.051498 0.169400 0.077977 0.054749 -0.020517 -0.054029 -0.002666 0.023808 0.084538 0.003539 0.057904 -0.003177 -0.013745 0.128962 -0.082467 -0.118065 -0.269592 -0.036831 -0.316147 0.061132 -0.028554 -0.047246 -0.025650 0.263843 -0.031818 0.035893 -0.020946 0.212563 -0.139663 0.261296 0.120752 0.186141 -0.101095 -0.069711 0.180804 0.097697 -0.047910 0.116737 -0.011959 0.115839 -0.056835 0.002490 0.011096 -0.006774 -0.002392 0.068794 -0.060192 0.020144 -0.164283 -0.088381 -0.074878 -0.102233 -0.005901 0.133525 -0.047633 -0.245387 0.028062 0.143005 -0.129808 0.170608 0.017208 -0.074915 0.203467 -0.043381 0.274196 -0.248238 0.010368 0.145574 0.205904 0.195916 -0.242388 0.194882 -0.076559 0.207231 0.174850 0.070183 -0.123442 0.116841 -0.032404 -0.057864 0.019123 -0.039523 0.049468 0.103228 -0.252052 -0.097383 0.120083 0.070190 0.087506 -0.083684 -0.020092 0.258631 -0.022605 0.211578 0.040606 -0.065190 -0.006640 -0.009360 -0.015775 0.298451 -0.016359 -0.067219 -0.237573 -0.207425 -0.000372 -0.052390 0.041003 -0.185835 0.092977 0.426783 -0.096014 0.064160 -0.163503 -0.092175 0.313111 0.048503 -0.038020 -0.227547 0.029599 -0.020458 -0.211803 0.052908 -0.018598 -0.138422 -0.157364 -0.039829 0.080736 -0.059408 -0.060646 -0.024320 0.155409 0.007621 -0.075622 0.060095 0.169689 -0.128814 -0.203893 -0.108963 0.055503 -0.260742 -0.186920 -0.001303 0.086282 0.082848 0.137619 -0.054590 -0.019208 0.071234 0.081737 0.136062 -0.107541 0.160344 -0.228712 -0.022023 -0.075388 0.004541 0.041395 0.168467 0.166570 -0.055468 -0.076889 0.015829 0.085417 -0.060177 -0.041384 -0.058217 -0.071542 0.153505 0.295067 -0.092984 -0.200870 -0.091023 -0.102363 0.000509 0.119674 0.325682 0.018459 -0.006432 -0.003142 -0.476095 -0.111193 0.150494 0.029597 -0.177552 0.144905 -0.083618 -0.174981 -0.146847 0.147031 -0.230417 -0.164851 0.283685 0.276783 -0.124487 0.037999 0.171542 0.036140 0.024068 0.119276 -0.097922 0.044754 -0.144849 -0.106333 0.102153 -0.037054 0.066520 0.092005 0.075838 0.213536 0.003857 0.167288 0.001148 0.181316 -0.205913 0.158514 -0.058224 -0.141066 0.273307 -0.150962 0.202856 -0.150579 0.252823 -0.071813 0.021340 0.177062 0.009528 -0.080474 0.292127 -0.053096 0.176590 -0.109242 -0.073014 0.107902 -0.023580 0.144416 -0.100853 0.199767 -0.057664 0.209504 -0.026817 0.033518 0.075495 -0.092712 -0.082162 0.194360 0.105028 -0.237059 -0.205013 0.191765 0.076274 -0.154629 0.070341 -0.168059 -0.131982 -0.197059 0.060610 -0.035767 0.032744 -0.139913 -0.026688 -0.123059 0.030871 -0.035842 0.021795 0.022690 -0.014902 0.177084 0.227161 0.097284 -0.212044 0.138719 0.096412 0.018033 -0.021897 -0.101366 0.068612 0.109069 0.225565 0.064444 0.310833 -0.132549 -0.216915 
this 0.106064 0.032791 0.006691 -0.057028 0.043297 -0.073315 -0.119356 0.017920 -0.136561 -0.093047 -0.114441 -0.169239 0.030474 -0.011265 -0.122227 -0.014109 -0.082460 0.090578 -0.125508 0.028836 -0.120849 0.153354 0.023693 -0.084139 -0.183778 0.265851 -0.047691 0.105023 0.031603 0.295197 -0.072539 -0.049585 0.018175 0.114326 -0.080363 0.018116 -0.071393 -0.087436 0.115246 0.046033 -0.018932 -0.094959 -0.125007 0.107514 0.054905 -0.189910 -0.106900 0.156418 -0.084656 -0.068206 0.011901 0.160139 0.035190 0.004641 -0.075615 0.009238 0.062565 0.204971 -0.153516 0.188067 0.152970 0.074896 -0.163040 0.022879 0.058351 -0.092695 0.105547 -0.118264 0.122060 -0.118903 0.216360 0.065927 -0.089017 -0.142815 0.148620 0.242848 0.132761 -0.048461 0.041810 -0.251858 0.126347 0.163949 0.038730 0.048095 -0.147104 0.122911 -0.049170 0.016931 -0.156145 0.085086 0.070208 0.243900 -0.022044 0.049081 -0.040491 0.130493 -0.301609 0.036448 -0.166238 0.027001 0.140151 0.013890 0.108667 0.094458 0.340451 0.147606 -0.253709 -0.190653 0.050729 -0.063241 0.069321 0.048533 -0.065039 0.188532 0.008609 -0.238052 0.085096 0.091376 0.023294 0.197523 -0.053075 -0.046678 -0.067903 0.064916 0.167092 -0.228290 -0.076977 0.110078 -0.231627 0.158209 -0.104046 -0.037372 0.307923 -0.008906 -0.122848 -0.215598 -0.005823 -0.018312 -0.046381 0.032257 0.005595 -0.273935 0.079797 -0.150123 -0.013577 0.066128 -0.163757 -0.008645 0.088893 0.029397 0.037616 0.069518 0.038134 -0.018271 -0.103681 -0.273875 0.139534 -0.187924 -0.119107 0.025416 -0.061788 -0.150573 0.070607 0.029514 0.038340 -0.017513 -0.112037 -0.052319 -0.029001 -0.118884 -0.125250 0.233872 -0.008505 -0.106427 0.079573 -0.243008 -0.068209 0.161588 -0.083672 -0.077636 -0.176884 0.097894 0.221573 -0.024314 0.134774 -0.214677 0.060835 0.034734 -0.057879 0.031608 -0.057366 -0.012115 -0.038614 -0.086486 0.076324 0.036935 0.127719 -0.008553 -0.104124 0.104923 -0.209257 -0.038413 -0.039629 -0.139246 -0.085967 -0.079615 0.046333 -0.059600 -0.149451 0.135399 0.409232 0.287024 -0.023267 -0.075946 -0.047040 -0.094132 0.053203 0.192107 0.047347 0.020139 0.016629 0.219399 0.144922 -0.070668 0.160617 0.162180 0.097686 -0.090360 -0.098380 -0.023837 0.243835 -0.130379 0.204942 -0.093179 -0.069722 0.132979 -0.143033 0.191390 0.022869 0.234197 0.210344 -0.132400 -0.008118 0.012270 -0.223732 0.108971 -0.166628 0.036525 -0.108854 0.011399 0.067218 -0.044303 0.196533 0.086427 0.198985 0.106680 0.113898 -0.080919 -0.021000 -0.079791 -0.316739 0.145296 0.043053 0.029107 -0.234291 -0.064970 -0.000170 -0.025053 0.231416 0.018141 0.129193 -0.290486 -0.208591 -0.053097 -0.041995 0.192118 0.080677 -0.066316 0.135265 -0.019568 -0.197155 -0.010119 0.039935 0.068951 0.147594 0.255032 -0.048536 0.098144 0.054552 0.014914 -0.088464 0.045151 -0.026798 0.004168 0.175794 -0.192027 0.005378 0.244373 -0.183832 -0.112635 
but 0.090891 0.075750 0.030566 -0.007682 -0.043968 0.133677 -0.112656 0.127567 0.019268 0.082431 0.002215 -0.023593 0.084543 -0.199780 -0.159921 0.069610 -0.145886 0.061808 -0.161227 0.001578 -0.045053 0.105307 0.156167 -0.069903 -0.128560 0.080502 -0.032909 -0.174558 -0.020870 0.156197 -0.007756 -0.102867 -0.098430 -0.219933 -0.080283 -0.101201 -0.137851 0.081716 0.098048 -0.158571 0.029263 -0.010219 0.034620 -0.044152 -0.136049 0.096215 -0.117784 0.179068 0.091333 0.083411 0.162005 0.164209 0.061596 0.069991 -0.041250 0.018967 0.029160 0.030276 -0.159781 0.136410 0.035644 0.141705 -0.011178 -0.032583 -0.094676 -0.065472 0.017313 -0.022299 -0.020933 0.116394 0.082338 -0.038905 -0.264063 -0.014169 0.018001 0.225302 0.242019 -0.016004 -0.008819 0.013701 -0.018899 0.098253 -0.158612 -0.009230 0.122296 0.233579 0.185225 0.030582 -0.217552 0.063839 0.011383 0.264038 -0.067215 0.168477 -0.139363 0.244831 -0.089216 0.115157 -0.113601 0.111359 -0.099408 -0.152777 -0.051682 -0.108663 0.069222 -0.118758 -0.121469 -0.130950 -0.208589 0.160440 -0.027010 -0.059597 0.122766 0.123991 0.066842 -0.164144 0.061192 0.128508 -0.098422 0.033234 -0.134838 -0.092357 0.107678 0.088119 -0.033424 -0.071891 -0.273374 0.140762 0.193722 -0.103402 -0.082815 -0.003521 -0.001134 -0.063972 -0.220160 0.015692 -0.064031 -0.044287 0.268157 0.112470 -0.093625 -0.108541 0.049719 -0.034143 0.168829 -0.089165 0.075594 0.012312 0.102931 -0.137779 0.203080 0.052041 -0.241450 0.108532 -0.158212 0.032885 -0.040029 -0.010515 -0.006132 0.075911 -0.084905 0.074784 -0.133462 -0.027140 0.105068 -0.030534 0.185273 0.357028 -0.156814 0.108560 0.125227 -0.045657 0.030594 -0.130811 0.091512 0.086819 0.006248 -0.013114 -0.109573 -0.048647 -0.072059 -0.170137 -0.083261 -0.046831 0.139676 -0.031722 0.050284 0.144766 -0.012815 -0.029900 -0.090515 -0.254555 0.144781 -0.346215 0.000920 0.049604 -0.023935 -0.216841 -0.066412 0.036818 0.023319 -0.077405 -0.039433 -0.138265 0.039889 -0.066081 0.020398 -0.003749 0.010306 0.074946 0.053691 0.032306 0.063987 -0.185621 -0.013797 -0.115382 0.052138 0.100262 0.061312 -0.118440 -0.101517 0.115354 -0.123445 0.109804 0.290653 0.149236 0.048255 -0.122111 0.028641 -0.042771 0.081098 -0.053180 0.311993 -0.050616 -0.011688 0.305484 0.079283 -0.150126 -0.010429 0.002061 0.187241 0.093262 0.059581 0.129531 0.014550 0.209184 -0.174860 -0.031642 -0.154612 0.072893 0.076801 -0.038778 0.121994 0.079594 -0.050691 -0.146240 0.074753 -0.238046 -0.023599 0.080620 0.078603 -0.003653 0.051438 0.013098 0.012515 -0.128136 -0.141645 -0.026816 -0.033554 0.116413 -0.008840 0.054871 -0.020665 -0.071788 0.192600 0.016529 0.089620 0.204873 0.023117 0.000650 -0.341722 -0.062931 0.012284 -0.042375 0.168490 0.113633 -0.045863 -0.184164 0.009267 0.082037 0.102777 0.110626 0.143487 0.099203 0.096967 0.119613 -0.147436 0.161000 -0.041708 -0.042198 
by 0.031101 0.101911 -0.003722 0.097709 -0.178214 -0.020623 -0.075362 -0.059855 -0.008137 0.183449 0.097252 -0.095617 -0.027579 -0.117104 0.023442 0.049263 -0.132404 0.088456 0.130764 -0.246010 0.049121 -0.040169 -0.106143 -0.089649 0.015205 -0.145188 0.060870 -0.102170 -0.018551 -0.089902 0.068846 -0.079042 -0.120907 -0.158789 0.012899 0.266960 -0.093619 0.188751 0.037220 -0.200581 -0.039797 -0.074793 0.021750 0.014530 0.005251 -0.116392 -0.049283 0.287044 0.074682 0.068258 0.044210 -0.001503 0.233590 0.122204 -0.230882 -0.012725 -0.059146 -0.094069 0.076986 0.231251 -0.004079 0.020659 -0.175724 -0.119460 0.004127 -0.332233 0.049372 -0.072396 0.079673 -0.011890 0.175241 0.166704 -0.029743 0.004546 0.169707 0.049464 0.136993 -0.128801 0.102203 -0.084641 0.164220 0.036396 0.020921 0.008490 0.018299 0.227027 0.267997 0.342587 -0.307023 0.081714 0.185156 0.139641 0.000760 0.155687 -0.012208 0.237281 0.014537 -0.067725 -0.102631 -0.008691 -0.100118 -0.167897 0.139752 0.155611 0.110996 -0.096166 0.035387 -0.111456 0.079749 0.005260 -0.222618 -0.192492 -0.175370 -0.129115 0.071069 0.099448 -0.063639 0.000602 -0.171450 0.054454 0.075082 -0.002444 0.190710 0.186214 0.115012 -0.044643 -0.119866 0.179966 0.137620 0.118767 -0.177233 -0.074229 -0.076440 -0.191591 -0.173705 0.005564 0.108119 -0.149649 -0.033232 0.096593 -0.158144 -0.024574 -0.264941 -0.004142 0.028465 0.108810 -0.138524 0.036989 -0.044268 -0.037560 -0.081291 0.224774 -0.201262 -0.219837 -0.226987 0.045338 0.131337 -0.155381 0.211818 0.097081 0.097704 -0.106078 -0.148146 -0.147397 -0.106458 0.113762 0.103707 -0.078823 -0.163445 0.082473 -0.039158 0.069900 -0.135903 -0.342268 -0.089001 -0.073847 -0.201132 0.189737 -0.041100 0.112703 0.058772 -0.255054 0.101743 0.037089 0.210276 0.171576 -0.080875 -0.094736 0.094853 -0.105961 -0.315320 0.117637 0.173120 0.071324 0.036410 0.220217 0.037741 -0.177624 -0.119812 0.042470 0.111922 -0.351499 0.114410 -0.110754 -0.097100 -0.030883 -0.031470 -0.116546 -0.201897 -0.029432 0.110557 0.079212 -0.196589 0.226874 -0.039239 -0.086370 -0.100801 0.031376 -0.101332 -0.012329 -0.059969 0.169653 0.151931 0.040222 0.108324 0.113832 0.025333 0.137562 0.034476 -0.078025 0.147101 -0.113292 0.141789 -0.000835 0.078112 0.362782 -0.074654 -0.279990 -0.089010 0.333085 -0.038351 0.049377 0.207639 0.078361 -0.156841 0.353286 -0.008191 0.018750 -0.192327 -0.030665 0.003213 -0.123307 -0.126157 -0.027305 0.033898 -0.112816 0.198128 -0.085468 -0.055295 -0.075637 -0.057642 0.006162 0.145192 0.085369 0.027725 0.056252 0.050656 0.072596 0.077143 0.079486 0.299974 -0.045892 -0.233919 -0.057114 0.093533 0.111900 -0.033290 -0.018599 0.274442 -0.010895 0.157933 0.027370 0.214995 0.173556 0.215507 0.352692 0.116744 0.055389 0.027342 0.074914 -0.080438 -0.152675 -0.153600 0.175648 0.022162 -0.145110 0.018249 0.274284 -0.110176 0.139666 
which -0.002344 0.086993 -0.111861 0.073680 -0.046810 0.051703 0.042692 0.153727 0.116089 -0.025435 0.097204 0.035187 0.221837 -0.290469 0.057656 0.033356 -0.266001 0.188625 0.066579 -0.134750 -0.023217 0.157985 -0.175127 -0.009760 -0.122189 0.153778 0.108149 -0.018246 0.134408 0.011606 -0.155789 0.042916 0.108521 -0.128671 -0.125545 0.106958 -0.086881 -0.139060 0.032208 -0.257364 0.072402 -0.060917 -0.350826 0.096268 -0.184169 0.109645 0.105956 0.280976 0.059739 0.250918 -0.059615 0.077508 0.068473 0.140975 -0.218422 -0.066840 0.054176 0.142905 -0.285014 0.255159 0.064855 0.165915 -0.137741 -0.081707 0.026573 -0.180326 0.067504 -0.132765 0.161080 -0.100580 0.298991 0.085257 0.091457 -0.056768 0.102873 0.143067 0.181426 -0.106601 0.269936 -0.078719 -0.052714 0.051659 -0.001749 -0.064288 -0.104681 0.226596 0.223076 0.148200 -0.257793 0.118408 0.290191 0.333913 0.046169 0.202329 -0.324282 0.158119 -0.140405 -0.053405 0.104286 0.172315 0.109053 0.047352 0.222914 -0.163403 0.120607 0.008149 0.051236 -0.175533 0.133761 -0.046124 -0.017960 0.044145 0.128640 -0.182038 0.074184 -0.211632 0.088778 0.274323 -0.038571 0.247338 0.250035 -0.049059 -0.184127 0.142744 -0.146698 -0.076376 -0.234683 -0.015959 -0.088215 0.362213 -0.061066 -0.148552 0.382689 -0.112672 -0.052350 0.054197 0.192112 -0.118917 0.053377 0.024161 0.117954 -0.188367 -0.207669 0.148707 -0.014703 0.258461 0.037602 -0.333613 -0.039205 0.202809 0.191053 0.119664 -0.444272 -0.059146 0.125516 0.019582 -0.074539 -0.062174 0.364923 -0.080420 -0.069837 0.169236 0.065505 -0.195505 -0.355380 -0.006831 0.058837 -0.265589 -0.122150 -0.119147 -0.204280 -0.035127 -0.076340 -0.187281 0.232901 -0.025390 0.115295 -0.250461 -0.083949 0.006714 -0.210900 0.152574 0.017634 0.051429 0.057482 0.106438 -0.109923 0.023070 0.204103 -0.031516 -0.210663 0.266908 0.172973 -0.121778 0.071173 0.011281 -0.001861 -0.036358 -0.063262 0.246140 0.015853 -0.130883 -0.168706 -0.153186 -0.188246 0.069459 -0.115650 -0.341649 -0.029707 0.262854 0.081751 0.158795 -0.051950 0.221571 0.002823 -0.139088 0.000725 0.228211 -0.184221 0.021963 0.447620 0.268902 -0.098110 0.065315 0.257138 -0.002549 0.121054 -0.086662 -0.015934 -0.211958 0.186626 -0.141998 0.142592 -0.044129 0.062201 0.283062 0.275297 -0.299233 -0.101336 0.053245 0.087536 0.077896 -0.046072 0.056530 -0.113009 0.092834 0.236499 0.007372 -0.014771 0.121812 0.278574 -0.256081 0.025025 0.087035 0.107336 0.048274 0.105382 -0.371825 -0.141159 0.097250 -0.019014 0.048191 0.018204 -0.137011 0.028557 0.020417 -0.016799 0.055384 -0.026461 0.319263 0.080189 -0.213244 -0.352906 0.354052 0.075055 0.223307 0.025123 0.065350 -0.027061 -0.072033 -0.297322 -0.019240 -0.113937 -0.103341 0.232309 0.056293 0.101913 -0.254740 -0.178847 0.043961 -0.122705 0.339660 -0.130846 -0.298420 -0.044227 -0.091937 0.166973 0.169662 0.180489 0.021575 
have 0.056180 0.161727 -0.251132 -0.008799 -0.187324 -0.044458 0.066646 -0.164853 0.161285 -0.113208 0.034272 0.079018 0.210881 0.084106 -0.037450 -0.036584 -0.273603 0.344448 0.181920 0.062013 -0.132747 -0.082736 -0.055934 -0.087078 0.177264 -0.169030 0.074359 0.028787 0.020194 0.040274 -0.008536 -0.162677 -0.077013 0.014972 -0.171356 -0.012218 0.072030 -0.071386 0.007978 -0.053922 0.219477 -0.208490 -0.148000 0.130463 -0.064771 -0.039602 -0.362888 0.134049 0.327695 0.169882 -0.028964 -0.161779 0.280957 0.391813 0.144231 -0.126468 0.120821 0.000320 0.104421 0.266959 0.278457 -0.322345 -0.094707 0.147455 -0.172405 -0.027495 0.048594 -0.237634 -0.114780 0.035423 0.021553 -0.035261 -0.205408 0.079425 -0.033661 0.175031 -0.222485 -0.271814 0.087416 0.043961 0.035868 -0.342760 0.168746 -0.041834 -0.178853 0.337424 0.581865 -0.211761 -0.134504 0.041600 0.185663 0.180121 -0.158554 0.216881 -0.076351 0.025007 -0.023966 -0.096299 -0.083660 0.207111 0.058799 0.168706 -0.066840 0.116529 0.068369 0.006768 -0.215633 0.020468 -0.274494 0.027407 -0.089853 0.120093 0.021799 0.172166 0.232230 -0.202121 0.114052 0.024819 -0.035978 0.024801 -0.143118 0.003892 -0.073044 0.060936 0.269223 0.002433 0.037922 0.014089 -0.275887 -0.087404 -0.059831 -0.197922 0.006968 -0.034382 0.037615 -0.068734 0.108052 -0.166937 0.022326 0.220838 -0.277231 -0.375660 0.062349 0.177443 0.055787 -0.058237 -0.216302 0.093501 -0.005500 0.041260 0.101968 0.133110 -0.040686 -0.084228 -0.124255 0.084739 0.118329 -0.043823 -0.066069 0.003076 0.059849 -0.113651 0.132432 -0.008295 -0.040849 0.058683 0.040266 -0.282614 -0.001275 -0.090038 0.084331 0.004391 0.263272 -0.099621 0.045054 -0.295668 -0.020532 0.042996 -0.093020 0.086513 -0.132541 -0.045270 0.076702 -0.164231 0.260356 -0.055409 -0.048543 0.025567 0.015004 -0.069101 -0.120535 0.149035 0.067683 -0.140057 -0.104781 0.050968 0.001400 -0.331088 -0.109870 0.199859 0.380004 -0.288772 0.110378 0.107299 -0.317056 -0.144495 -0.019849 -0.028715 -0.144559 0.067713 -0.013222 0.202237 0.041999 -0.029555 0.185095 0.024723 -0.015099 0.099707 -0.055325 0.068330 -0.156174 0.452715 0.088832 -0.043039 -0.123650 0.229859 0.210937 -0.418337 -0.085423 -0.127899 0.074484 -0.092543 0.306732 -0.202558 0.188681 -0.027279 -0.087585 0.019094 -0.204993 0.233289 0.026603 0.147995 0.047230 0.024743 0.035486 0.255095 0.191274 0.048836 -0.180828 0.055484 -0.035286 0.085919 -0.116630 -0.113044 0.114985 -0.248804 0.276013 -0.052753 0.140984 -0.120276 -0.094460 -0.396990 0.189953 -0.134845 -0.107353 -0.081797 -0.098255 0.059778 -0.089237 0.220651 0.076352 -0.093611 -0.127339 -0.014847 0.100460 -0.104511 -0.323307 -0.080263 0.083659 0.140321 -0.094142 -0.111510 -0.045472 0.172141 0.131462 -0.097529 0.135330 0.042572 -0.058395 -0.110780 -0.203500 -0.012224 0.100471 -0.046358 0.056826 -0.055944 -0.127886 -0.098798 -0.052972 0.040510 
on -0.015054 -0.079133 0.000898 0.073394 -0.143385 0.205098 0.199614 -0.094735 -0.003843 0.229856 -0.131150 0.040248 0.061205 -0.052659 -0.100590 -0.009861 -0.183323 0.054697 -0.004438 -0.292313 -0.210623 -0.087107 -0.109494 -0.069266 0.055749 -0.110345 0.066372 0.004290 -0.052131 -0.074935 -0.100887 0.008017 -0.145412 0.090268 -0.221570 0.051139 -0.141875 0.025024 0.069519 -0.147500 0.140162 -0.076500 -0.148132 0.119541 0.045499 -0.170777 -0.188385 0.205432 0.068488 0.194227 -0.065108 0.076824 0.043025 0.030553 -0.379750 0.068959 0.115548 0.186440 0.041155 0.024050 0.167180 0.130398 0.138710 -0.168823 0.070871 -0.395101 -0.234870 -0.002090 -0.236628 0.294523 0.278413 0.187583 0.029904 -0.138184 0.236337 0.205895 0.084260 -0.072889 0.119203 -0.011094 0.256137 -0.001737 0.001530 0.070035 -0.037544 0.030932 0.227910 0.127354 -0.289837 -0.006623 0.110701 0.294786 -0.061356 0.209813 -0.058959 0.198604 -0.071843 -0.078106 -0.076312 -0.131736 0.100488 -0.229402 0.047830 0.137885 0.458753 0.054356 0.076049 -0.365565 0.041123 0.010201 -0.213130 0.008100 0.278691 -0.162322 0.041007 0.029268 0.234013 0.208116 0.024983 -0.011407 0.131198 -0.234706 0.090879 -0.124351 0.231607 -0.092248 -0.267360 -0.043887 0.056711 0.281734 -0.036167 -0.097146 0.206345 -0.092762 -0.239627 -0.262259 0.082318 -0.095843 0.025878 -0.079344 -0.353475 -0.177513 -0.127703 0.140051 0.125668 -0.213105 0.005840 -0.019543 -0.092598 -0.013343 0.111372 0.075425 0.153049 0.114879 -0.128779 -0.088574 0.039575 0.009000 0.025067 0.092217 -0.145297 -0.010244 0.054609 -0.134747 -0.061003 -0.195002 -0.047177 -0.002792 -0.062800 -0.069754 0.171028 0.145932 0.107526 -0.083823 0.026199 -0.094464 0.027609 0.014604 -0.029442 -0.154510 0.101450 -0.256779 0.104641 0.143931 0.433951 -0.243431 0.211146 -0.137015 0.017089 -0.098092 -0.088372 -0.049234 0.173909 -0.098647 0.089911 0.079530 0.032729 0.055625 0.135862 0.096464 0.118648 -0.313879 -0.007498 -0.066560 -0.097992 -0.081025 0.029342 -0.061270 -0.234061 -0.062846 0.156246 -0.034882 -0.007571 0.004480 -0.029621 -0.080827 0.003670 -0.068552 -0.184004 -0.176653 -0.181701 0.227054 0.111982 0.091899 0.108349 0.181917 0.188579 0.045403 0.177805 -0.052225 0.200545 -0.386005 0.183989 -0.169577 0.218231 0.012407 -0.184424 0.005968 -0.030938 0.180648 0.226761 0.103963 0.381066 0.160622 -0.136675 0.455048 0.002121 0.163026 -0.194163 0.022204 0.254024 -0.151317 0.103570 0.253960 -0.201601 0.014333 0.263974 0.047072 0.093776 0.031672 -0.075360 -0.085400 0.131211 -0.219532 0.042557 -0.096895 -0.090254 -0.018287 -0.013316 0.014829 -0.013746 -0.130902 -0.142323 0.197226 0.161075 0.110983 -0.099240 0.102189 0.112879 0.081383 -0.035144 -0.089115 0.047376 0.150285 0.068416 0.015790 0.186160 -0.134166 0.055302 -0.167307 0.023614 0.050767 -0.130653 0.065873 0.084943 -0.090791 0.044507 0.165399 0.101197 0.123907 
are 0.111952 0.154496 -0.053002 0.089231 -0.071122 0.043452 0.138105 0.034972 0.103532 -0.330541 0.050934 0.148494 -0.054409 -0.033638 0.333793 0.027681 0.011736 0.087327 -0.068079 0.023062 -0.151150 0.317838 -0.162810 -0.083751 -0.099555 -0.194938 0.059638 -0.119814 0.132653 0.132983 0.028994 -0.220073 0.069945 0.076777 -0.170444 0.047305 -0.076912 -0.033266 0.035017 -0.078129 -0.063630 -0.023635 -0.006223 -0.073534 0.133238 -0.215013 -0.286077 -0.007666 0.064944 0.288774 0.303972 0.109922 0.046075 -0.118079 0.111398 0.072031 0.183218 0.406440 0.265444 0.142413 0.006972 0.150410 -0.242463 0.157616 0.185800 -0.117304 0.190568 0.080236 0.061524 0.169117 0.257673 -0.050345 -0.105751 0.020358 0.134692 0.248318 -0.053327 -0.022475 0.085110 -0.387212 0.146312 -0.263985 -0.093298 0.118116 0.072665 0.123361 0.100755 -0.003026 -0.043552 -0.140412 0.002589 0.039878 0.007861 0.133018 0.073603 0.296975 0.130512 -0.049353 0.233548 -0.294319 -0.041564 0.044751 -0.270030 -0.043973 0.136457 0.027403 -0.217807 -0.058263 0.056074 0.074931 0.059314 0.044858 0.105155 0.001762 -0.064327 -0.225991 0.124548 0.391016 -0.033342 0.315526 -0.062974 -0.048126 0.150840 0.131980 -0.321567 0.035782 -0.217667 0.022538 0.047563 0.284187 -0.148937 0.023588 -0.034270 -0.036923 0.093137 0.102103 0.023414 -0.109279 0.195128 0.298221 -0.014936 -0.185421 0.262125 -0.019718 0.052763 0.176455 0.181432 0.389123 0.177556 -0.122945 -0.254861 0.327735 0.250222 0.119232 -0.090081 0.063950 -0.188637 0.179825 0.028840 0.361819 0.247855 0.202380 0.004052 -0.389397 -0.165850 0.185401 0.218803 -0.175874 0.201279 0.002229 0.177340 0.070310 0.293200 -0.082954 -0.157063 -0.186235 0.063994 0.258746 -0.289243 0.099933 -0.355183 -0.203490 -0.039816 0.119965 0.382127 -0.008083 -0.251014 -0.016874 -0.041671 0.000363 -0.080227 0.015460 -0.004292 0.003920 0.021852 -0.063924 -0.129317 0.071134 -0.155201 0.232409 -0.046593 -0.547784 0.069796 -0.178143 -0.220934 -0.156076 -0.055705 -0.318161 -0.087393 0.216519 -0.128080 0.019654 0.021013 0.200913 0.307894 -0.162595 0.030910 0.068790 0.044642 -0.000590 -0.036723 0.358161 0.213772 -0.145507 -0.009295 0.034443 0.347460 -0.231437 0.144405 -0.183139 0.209687 -0.071846 0.145210 -0.138336 0.114964 0.199252 -0.219513 0.005414 -0.212636 0.377790 -0.157785 0.008125 0.030404 0.060874 -0.158074 0.281098 0.167011 -0.000039 -0.010073 0.162297 0.262019 -0.041379 -0.137444 0.106662 -0.021999 -0.439458 0.215419 0.267698 -0.023925 -0.190364 -0.064889 -0.096800 -0.158115 -0.126673 0.153041 -0.007065 -0.253844 0.078533 0.034934 0.271181 0.261208 -0.139002 -0.219105 0.015121 0.187211 0.008494 -0.279180 0.165334 0.024000 -0.065263 -0.024425 0.020389 0.197810 0.074717 0.206148 0.315961 0.392733 -0.028154 0.297815 0.108466 -0.159766 -0.272187 0.066105 0.205594 -0.021066 -0.124694 -0.114532 0.110625 -0.279795 0.082061 
from 0.130365 -0.058632 -0.044618 0.130213 -0.321049 0.031411 0.423147 -0.215005 0.039413 0.042070 0.270643 -0.000970 0.004711 -0.092287 0.125588 0.213434 0.005070 0.030431 -0.055018 -0.084539 0.032327 -0.290736 -0.003660 -0.097045 -0.303589 0.040758 0.098209 -0.062043 0.219939 0.084874 -0.146447 -0.167001 -0.160106 -0.060945 0.039529 0.389742 -0.229118 0.084788 0.341992 -0.235894 0.144871 -0.052600 -0.172028 -0.071941 -0.064772 -0.125615 -0.331928 0.220454 0.009828 0.182999 -0.091524 0.046760 0.136916 0.095421 -0.046895 -0.001630 -0.025718 -0.005682 0.061713 0.220511 0.171222 0.021742 -0.191833 -0.172777 -0.053485 -0.203559 -0.040936 -0.140547 -0.143495 0.092605 0.223911 0.124652 -0.018503 0.228214 -0.128715 0.001069 0.083160 0.166606 0.222965 -0.065482 0.237988 -0.072608 0.036570 -0.110729 -0.279266 0.086734 0.096601 0.230918 -0.149344 -0.096646 0.139005 0.125765 0.171897 0.020468 0.001337 0.222665 0.132769 -0.087132 -0.239187 -0.106526 0.099446 0.067128 -0.230812 0.100850 0.205745 -0.186755 0.045313 -0.137834 0.003766 -0.227366 -0.017487 0.084362 0.259670 -0.013705 0.086624 -0.128784 -0.186223 0.197312 0.020923 -0.075118 0.022853 -0.099206 0.102297 0.153554 0.095246 -0.202081 -0.207121 -0.016731 -0.021609 0.172013 -0.072479 -0.110191 0.211421 -0.120012 -0.122540 -0.043923 0.097046 0.036050 0.071360 -0.014591 -0.405055 -0.098579 -0.177934 -0.052281 -0.150794 0.041518 -0.149272 0.015851 -0.239379 -0.008451 -0.019873 0.096960 0.138047 -0.022612 -0.128326 0.207285 0.015257 -0.159499 0.009872 -0.025247 0.008543 0.054592 -0.013689 -0.083390 -0.070416 0.052303 0.051319 0.027581 -0.066026 -0.011181 -0.049700 -0.033186 0.010217 -0.073059 0.125402 0.196694 0.097191 0.071769 0.034343 -0.073553 -0.103234 0.004786 0.054404 -0.049531 0.112972 -0.046513 0.115592 0.123585 -0.159992 -0.131065 -0.141022 -0.125952 0.062785 -0.030025 -0.042000 0.217305 -0.141981 0.037269 0.121118 0.164878 0.007641 -0.182382 -0.035375 -0.271996 -0.066983 -0.236918 0.100644 -0.254681 -0.256959 0.045457 -0.042356 0.205575 -0.206269 0.013372 0.142233 -0.021473 0.178271 0.094395 -0.004412 0.044127 0.082287 0.132830 0.288461 -0.018969 0.141210 0.096987 -0.194129 0.013638 0.273532 -0.038255 0.272647 -0.194535 0.364893 -0.086812 0.128454 0.116291 -0.043699 -0.156112 -0.094464 0.153323 0.020095 -0.012123 0.014397 -0.051107 0.038469 0.182184 0.182865 -0.055046 -0.206057 0.052599 0.045326 -0.252571 0.186509 -0.016125 0.008977 -0.111569 0.300059 -0.025522 0.030954 0.092373 0.077360 -0.005900 0.131918 -0.122318 0.154154 -0.171404 0.035818 0.018970 -0.023835 0.074705 0.122565 -0.100001 -0.115859 0.197700 0.226816 -0.004805 0.174576 0.014341 0.041714 0.150440 -0.047585 0.128380 0.145882 0.085137 0.052438 0.211946 0.160513 0.000750 -0.106911 0.066195 -0.045699 -0.019786 0.050151 -0.031442 -0.130708 -0.105652 -0.077735 0.162503 -0.047831 -0.085337 
will 0.012342 -0.087416 0.040505 0.023403 0.031065 0.174775 0.122839 -0.137046 0.195619 0.230970 0.058991 0.010029 0.223787 -0.092308 0.203923 0.149215 0.017649 0.174105 0.187827 -0.024700 -0.035008 0.293949 -0.056521 -0.132841 0.068637 -0.110360 -0.140411 -0.203049 0.080420 0.094719 0.063109 0.115996 0.075481 0.080825 -0.223188 -0.056382 -0.204503 -0.112029 -0.253321 -0.100549 -0.018903 -0.137646 0.065945 0.016825 -0.012203 0.024393 -0.281546 0.195674 0.152397 0.086681 -0.153670 0.264971 0.140009 0.152857 -0.133635 0.033480 0.211082 0.119749 0.113739 0.065069 0.244640 0.097857 -0.148796 -0.160978 0.118399 -0.428012 -0.079519 0.061191 -0.027335 0.243993 0.283933 -0.022989 -0.037430 0.227684 0.110104 0.089411 0.358456 -0.025479 0.116057 0.037745 0.148837 -0.144362 0.004757 -0.261495 -0.064527 0.013254 0.004142 0.043541 0.043668 0.031221 -0.152577 0.049687 -0.073166 0.299978 0.307118 0.099721 0.065582 -0.007863 -0.164899 0.175888 -0.155501 0.076268 -0.271609 -0.086308 0.331247 -0.188647 0.049570 0.158597 -0.074420 0.035103 -0.035697 -0.321554 0.156168 0.058886 0.165954 -0.048043 0.183625 -0.031833 0.097365 0.158024 0.261048 -0.290921 0.247248 0.041494 0.044574 -0.024179 -0.149183 0.011235 -0.054738 0.125747 -0.160055 -0.288586 0.187998 -0.121855 -0.280883 -0.007867 0.044856 -0.229828 0.014155 0.081455 -0.144282 -0.174380 -0.028754 -0.337524 0.056154 -0.115983 0.268777 0.173973 0.044287 0.020045 -0.036758 0.213304 -0.145443 0.011224 -0.034227 -0.014708 -0.275941 -0.214216 0.094706 0.074010 0.149629 0.095814 0.139652 0.144854 0.001764 0.013044 0.143734 -0.281005 0.058045 -0.141913 0.066265 0.258745 -0.106428 0.099258 -0.121901 0.025869 -0.337424 0.259450 -0.149845 0.166966 -0.140236 -0.111138 -0.021490 0.139991 0.231781 -0.240597 0.055065 -0.004766 -0.051546 -0.081986 -0.185241 -0.301654 0.235938 -0.159128 0.096997 -0.021687 -0.008616 -0.087410 0.069005 0.136108 -0.167217 -0.268954 0.051070 -0.104889 0.017729 -0.118171 0.144902 -0.359412 -0.248065 0.043970 -0.132492 0.096576 -0.201482 0.060543 -0.041854 0.024207 0.095182 0.065961 -0.043701 0.116101 0.076409 0.045163 0.161779 -0.257115 0.104063 0.042153 0.107634 -0.179817 0.108746 0.063246 0.264756 -0.226025 0.075695 -0.100419 -0.050293 0.198466 -0.129871 0.048624 -0.020011 0.026744 -0.180118 0.305443 -0.139092 0.180501 -0.232690 0.334451 -0.002164 0.441612 -0.148401 0.174086 0.199673 0.008433 -0.038945 0.020104 -0.077805 -0.277001 0.100121 0.147498 0.111705 -0.086917 -0.029977 -0.172216 -0.267264 0.152203 -0.048102 -0.034562 -0.167201 0.076840 0.363578 0.115525 -0.005254 0.071236 -0.258353 0.011572 -0.028611 0.096627 0.000385 0.080116 -0.005694 -0.452122 -0.139015 -0.326243 0.039438 -0.043257 0.066321 0.301953 0.124073 0.158337 -0.014685 0.030275 0.092597 -0.212609 -0.133325 -0.096165 0.051375 0.121830 -0.043729 -0.093367 0.021999 0.143845 
me 0.003236 0.108052 -0.054536 -0.101545 0.004699 0.120510 0.022668 0.071207 -0.135055 -0.107471 0.126494 -0.113455 0.370704 -0.174373 0.329611 0.072722 0.056140 0.172174 0.220316 -0.068498 0.092544 0.438181 0.067549 -0.120803 -0.046830 -0.078608 0.034582 0.321408 0.199987 0.031591 0.082767 0.174687 0.022467 0.145833 -0.129279 -0.202033 -0.055173 -0.082585 -0.050774 -0.298968 0.010886 -0.049307 0.055587 0.202044 0.178396 0.237629 -0.253032 0.052011 -0.023664 0.279302 0.034466 -0.065990 0.026094 0.023592 -0.113623 0.117807 -0.087555 -0.069313 0.113950 0.261545 0.027668 -0.008464 0.104887 -0.100353 -0.075202 0.002348 0.115832 -0.288768 -0.262237 -0.023870 -0.019861 -0.103806 -0.109431 -0.114401 0.013596 0.380026 -0.053898 0.147345 0.079437 -0.052658 0.278257 0.029204 -0.279836 -0.143297 -0.070785 0.126008 0.231691 -0.105059 0.015831 0.395603 0.138661 -0.129080 -0.175135 0.225176 -0.053572 0.242911 -0.016553 -0.303497 -0.384624 0.278204 0.032846 0.067007 -0.146970 0.048987 0.179834 -0.264261 -0.262094 0.028908 -0.131449 -0.217306 -0.143736 -0.217683 0.057467 0.046466 -0.162517 -0.122078 0.108326 -0.080877 -0.072584 0.161667 -0.043845 -0.439996 -0.052950 -0.007636 -0.285233 -0.193357 -0.246677 0.204493 0.063492 0.078764 -0.052854 0.110685 0.178480 -0.125842 -0.042216 0.029675 0.068064 -0.067216 -0.057423 0.011668 -0.053370 -0.203582 0.132615 0.111019 0.260027 -0.071376 0.161759 0.208357 0.077509 -0.124994 0.041629 0.229410 0.130159 -0.088226 0.046811 -0.178249 0.047169 -0.100208 -0.040734 0.123201 0.012449 0.161021 -0.068163 0.424585 0.043827 -0.209281 -0.038941 -0.022080 -0.211896 -0.159068 -0.033249 0.028768 0.082623 0.000256 -0.157163 0.061267 -0.146426 0.079345 0.110787 0.067071 -0.017681 -0.108240 -0.040911 -0.129302 -0.091886 -0.128811 0.231784 -0.104974 0.280199 0.031591 0.058860 -0.117402 -0.045652 0.090178 -0.133982 0.092139 0.047888 0.030551 -0.013848 -0.039042 -0.238491 -0.214669 0.014519 -0.214506 0.169355 -0.074382 0.141369 -0.058554 0.031040 0.287809 0.185053 0.052569 0.029721 0.024079 -0.230499 -0.094448 0.076290 -0.145556 -0.153632 -0.174492 0.004346 0.080024 -0.099355 0.026127 0.065945 0.173632 0.304265 -0.069117 0.133191 0.064867 0.364435 -0.358831 0.070786 -0.248331 -0.206593 0.202606 -0.218760 -0.017262 -0.039946 0.322305 0.036256 0.170430 0.010755 0.203978 -0.017235 0.059828 0.222346 -0.061298 0.098050 0.107310 0.127242 -0.201369 0.161018 -0.113022 -0.204691 -0.139723 -0.276559 -0.080871 0.092887 0.053923 -0.126363 0.078624 0.166586 0.010338 0.092668 0.104877 0.092833 0.097389 -0.206352 -0.042517 0.015748 -0.311421 -0.107980 0.049676 0.102181 -0.152147 -0.351091 -0.000319 -0.063479 0.089487 -0.229675 0.053357 0.046824 0.295230 0.021482 0.093730 -0.023305 -0.113639 -0.177497 0.112910 -0.046243 -0.192975 0.195335 0.036616 0.095649 0.068796 0.006317 0.098473 -0.023909 -0.207403 
their 0.274357 0.095050 0.068492 0.267097 -0.196809 0.109046 0.070152 0.133118 -0.088626 0.069903 0.327130 0.104128 0.221627 -0.218402 -0.097684 -0.312742 -0.103995 0.079768 -0.100262 -0.061774 0.189655 -0.008426 0.150795 -0.084376 -0.173975 0.002138 -0.005740 0.028503 0.036720 -0.000560 -0.178778 -0.068252 0.176425 -0.137511 -0.071104 0.192816 -0.077052 -0.046403 0.008048 0.098599 -0.098268 0.235111 -0.086108 -0.083473 -0.098031 -0.059639 -0.395043 0.099186 0.296638 0.307127 -0.090355 0.073721 -0.259627 0.086365 -0.240077 -0.079805 0.095534 0.209674 -0.079774 0.270879 -0.081242 -0.060622 0.097482 -0.000595 0.171379 -0.131492 0.358181 0.015969 -0.069145 -0.140219 0.125409 0.139827 -0.150242 -0.039099 0.129466 0.121198 -0.004429 -0.110871 0.218476 -0.195020 0.194383 -0.200103 -0.011444 -0.067778 0.070081 0.217486 0.052189 0.042618 -0.363671 0.109365 -0.019830 0.014718 0.011380 0.076039 0.126740 0.126590 -0.001691 0.135358 -0.160377 0.033847 -0.007051 0.020536 -0.450714 -0.262344 0.265402 0.034544 0.004669 -0.152200 0.100043 0.133045 -0.308924 0.070648 -0.099766 -0.188397 -0.212149 -0.065517 0.220880 0.356351 -0.074574 0.332149 0.197639 0.029554 -0.018008 -0.083585 -0.028026 -0.158488 -0.006069 -0.189098 -0.160312 0.421844 -0.121738 -0.210263 0.175569 0.027300 -0.232780 0.095672 0.138612 0.199004 0.001178 0.163338 -0.086998 -0.320038 0.139639 0.124881 -0.272494 0.025273 -0.100315 -0.117124 0.016786 0.070074 -0.070812 0.111501 -0.194642 -0.176526 0.049245 0.101999 -0.108665 -0.056110 0.029892 0.222311 -0.243610 -0.084098 -0.115989 -0.185066 -0.120995 -0.204521 0.102853 -0.136601 0.152323 -0.138814 0.006638 0.087762 -0.037970 0.073422 -0.277549 0.181238 0.037529 0.031360 -0.321773 -0.067517 -0.073721 -0.393785 0.143080 -0.173531 0.162871 0.104848 -0.002142 -0.259213 0.004264 0.202996 -0.119255 0.159372 0.042425 0.081135 -0.219954 0.132170 0.211050 0.152415 0.347669 -0.225130 -0.228235 -0.067575 0.076129 0.101145 -0.391152 -0.010662 0.066941 -0.193390 -0.209090 0.346399 0.081772 0.256539 -0.067086 0.133466 -0.142916 -0.151094 0.065236 0.165377 0.130853 -0.118112 0.203067 0.204130 -0.116736 0.097656 0.100373 0.129532 -0.055494 -0.132074 0.037971 0.023280 0.127860 -0.260589 0.238284 -0.260616 0.176616 -0.023377 0.233565 -0.135099 0.044926 0.311646 0.068331 0.146372 -0.113736 0.047027 0.020796 0.028110 0.297487 0.000418 -0.186957 0.207370 0.177792 -0.099378 0.024560 0.002373 -0.020330 0.016375 0.383862 0.122975 -0.194320 0.067883 -0.124174 0.038867 0.221124 -0.021365 -0.118318 -0.276548 -0.098935 0.108950 0.090837 0.025718 0.318810 0.184965 -0.264756 -0.065000 0.254164 -0.202161 -0.293311 -0.013871 0.137383 0.005581 -0.297378 -0.088802 -0.092464 -0.160195 -0.134142 0.204554 0.229904 -0.367368 0.170473 0.020189 -0.069250 0.135303 -0.048037 0.100867 -0.094719 -0.012612 -0.028873 0.223682 -0.191347 -0.037974 
all 0.075284 0.297445 -0.278444 -0.121051 -0.087088 0.230838 0.067420 -0.049871 0.316858 0.077066 -0.188947 -0.007700 0.100825 -0.064800 -0.135616 -0.015731 0.007481 -0.060145 0.003524 -0.077289 0.108508 0.101857 0.060962 -0.084394 -0.290436 -0.059067 0.115786 0.348052 -0.107628 0.062896 -0.178689 -0.084383 0.022958 0.096799 -0.441201 0.079643 -0.083899 0.014004 0.062340 -0.194397 -0.137418 -0.031656 -0.092098 0.161033 -0.082874 0.079440 -0.135270 -0.056654 0.262111 0.083303 -0.127289 0.060134 0.121802 0.194377 -0.319446 0.094860 -0.142415 0.152372 0.021158 -0.009791 -0.121649 -0.048949 -0.159335 -0.004075 -0.068419 0.137626 -0.067630 0.046992 0.079249 -0.036097 0.258137 0.035273 -0.143895 -0.156746 0.055702 0.124062 -0.003580 0.105230 0.008298 -0.206831 0.162588 0.098318 0.024923 -0.020102 0.026671 0.076154 0.291366 0.188060 -0.083920 0.044896 -0.042804 0.069622 0.035064 0.226286 0.102272 0.124386 -0.052075 0.019256 -0.184005 0.069180 -0.001723 0.209231 -0.139812 -0.104841 0.400680 0.017117 0.032624 -0.240416 -0.061122 0.055523 0.087419 0.092551 0.061192 -0.180297 -0.053644 -0.211834 0.190673 -0.043758 0.060219 0.349537 -0.107351 0.083502 0.090908 -0.334938 -0.213651 0.159555 -0.137246 0.112854 -0.060006 0.159120 -0.264016 -0.259390 0.198006 -0.140184 -0.074913 0.053664 -0.085732 0.153728 0.003512 0.019521 0.041527 0.075379 0.189429 0.039990 -0.022342 -0.071208 -0.016072 0.078383 -0.012343 0.112952 0.061807 0.241908 -0.181286 0.072543 -0.277180 -0.027841 -0.153005 0.010919 0.101963 0.060238 0.017382 -0.046350 0.057914 0.001503 -0.038376 -0.027532 -0.184665 -0.067063 -0.010687 0.034099 -0.126866 -0.066425 -0.161132 -0.260695 -0.125782 -0.174938 -0.012400 0.042426 -0.243432 0.117866 -0.088837 -0.317464 0.000558 -0.068067 0.213112 0.005470 -0.239187 0.047583 -0.105182 -0.093015 -0.012564 0.051919 0.148799 0.082672 -0.182169 0.169823 -0.008131 0.006315 -0.077784 0.171602 -0.026588 -0.005264 0.018886 0.085543 0.073634 -0.288013 0.147746 -0.157443 -0.038064 0.068491 0.070905 -0.055622 -0.276050 0.082546 -0.059838 -0.108727 0.194133 0.066612 -0.241754 0.053312 0.080196 0.334583 -0.160933 0.108283 -0.012518 0.329507 0.044212 0.183435 0.051574 0.129404 0.396042 -0.063162 0.333105 -0.260975 0.026072 0.212986 -0.256652 -0.184168 -0.070479 0.157557 -0.027399 0.090768 0.063476 0.118616 -0.195993 0.298833 0.048250 -0.124165 -0.333331 0.003558 0.210350 -0.140630 0.181388 0.211104 -0.091125 -0.194593 0.074477 0.111523 0.027535 -0.082457 -0.138276 -0.062282 -0.135627 0.032197 0.118718 -0.176514 -0.045233 -0.002131 0.157716 0.009870 0.211023 0.037390 -0.102583 0.019611 0.218763 -0.039749 -0.054744 0.053699 0.292713 0.082494 -0.074479 0.193874 0.141388 -0.003502 0.014642 -0.042876 0.123727 0.026943 -0.085388 0.142398 0.007358 0.074689 -0.213916 -0.028088 0.013618 0.027378 -0.091167 0.076154 0.132062 0.018371 
was 0.011088 -0.084311 0.222612 0.326497 -0.194251 -0.151601 0.200951 -0.011607 -0.197356 -0.396757 -0.316842 0.035906 0.193112 -0.166391 0.147262 0.049845 0.057737 0.047734 0.365333 -0.224233 -0.104398 0.392742 -0.014073 0.038005 -0.000952 -0.147382 0.067305 0.208248 0.110676 -0.033550 -0.029281 -0.078541 0.055372 0.148731 -0.026163 -0.052982 -0.141094 0.037056 -0.077785 -0.324887 0.416740 -0.241242 -0.129330 -0.073269 -0.104196 0.015263 -0.322428 0.313297 -0.012090 0.206480 -0.051467 0.148754 0.221855 0.124418 -0.130749 0.224146 0.323267 0.153992 0.072459 0.081395 0.270132 -0.148872 -0.099921 -0.074437 0.048212 -0.054563 -0.115959 0.042838 0.026763 0.054789 -0.143942 -0.380770 -0.229497 0.070990 -0.077813 0.323335 0.193039 -0.081395 -0.020864 0.135681 0.399006 -0.187998 0.176187 -0.149803 0.065776 0.010706 0.126978 0.353130 0.075063 0.018006 -0.169375 0.257931 -0.012065 0.175320 -0.204494 0.134322 0.063415 -0.095606 -0.228239 0.131186 -0.256234 0.062826 0.148660 -0.018745 0.282996 -0.014477 0.408380 -0.112690 0.179470 -0.009150 -0.049927 -0.084164 0.336174 -0.001031 0.147050 -0.245557 0.066461 0.021596 -0.051639 0.064572 -0.002723 0.038509 0.154557 0.200721 0.131380 -0.051093 -0.085108 0.076505 -0.079664 0.069880 0.029425 0.010992 0.326128 -0.025269 -0.176003 -0.125563 0.175099 -0.223237 0.124537 0.080843 -0.205888 0.069746 -0.110146 0.054549 -0.199085 0.018870 0.054540 0.177513 0.235415 0.164633 0.062927 0.052295 0.133052 -0.315553 -0.046398 -0.100848 -0.143252 -0.163776 -0.019116 -0.044965 0.031773 -0.250456 -0.083760 -0.236981 0.055323 0.033718 0.176847 0.005080 -0.100536 -0.034347 -0.088091 0.089942 -0.229522 -0.211909 -0.202731 0.016895 -0.098811 -0.035116 -0.096100 0.035210 -0.199567 -0.254568 -0.080437 0.061292 0.429697 0.044424 0.252438 -0.164229 -0.133840 0.029608 -0.316070 0.075017 0.194424 0.200441 0.007584 0.295012 -0.088065 -0.271611 -0.127672 0.156302 0.153163 -0.121138 -0.119839 0.030852 -0.020750 -0.216960 0.078275 -0.185150 -0.298408 0.394765 0.331754 0.044180 0.199281 -0.068770 -0.021761 -0.151967 0.100900 -0.035525 0.115985 0.026759 0.071327 0.283038 -0.104523 0.052551 -0.105648 -0.076221 0.008836 0.018814 0.035672 -0.173185 0.024616 -0.229939 0.276174 -0.214207 -0.125975 0.200086 -0.302268 -0.046707 -0.237144 0.056377 -0.172476 0.265402 -0.075066 0.085719 -0.093389 0.282438 0.217830 -0.012860 0.095232 0.054654 0.213673 0.134329 -0.092476 0.025057 0.018202 -0.079499 0.199506 -0.063323 -0.113133 -0.087692 0.063293 0.151798 -0.011799 -0.018915 -0.249753 -0.405940 -0.022453 0.174797 0.135388 0.001121 0.109662 -0.026852 0.163950 0.020271 0.198345 0.018103 0.096548 0.270881 0.279430 0.030806 -0.245867 0.029134 0.026416 -0.040274 0.268277 0.220965 -0.237648 0.099586 -0.240484 -0.101792 -0.205278 -0.369212 -0.230203 -0.050230 0.152899 -0.278399 -0.210202 0.202410 -0.198703 0.030566 
her 0.104800 0.031863 0.233372 0.187643 -0.265001 0.136082 0.115598 0.165340 -0.096994 -0.181458 0.215306 -0.107452 -0.177173 -0.119402 -0.002681 -0.054420 0.057358 0.233408 0.110163 -0.082849 0.159717 -0.216807 -0.147597 -0.059558 -0.012880 -0.098084 -0.071463 0.124518 0.189645 0.225200 0.034464 0.107256 -0.041103 0.215287 -0.343058 0.035974 -0.244108 -0.266309 0.186674 -0.175256 0.261559 0.042763 -0.143012 0.036287 -0.160371 -0.148705 -0.354458 0.000603 0.118767 0.297295 -0.101755 0.157343 -0.042079 0.008460 -0.222843 0.061175 0.038311 0.095636 -0.134926 0.293030 -0.003180 0.028012 -0.137648 -0.122970 0.133803 -0.142054 0.119201 0.037108 -0.022674 -0.176786 -0.146519 0.151645 -0.141683 -0.046808 0.078548 0.258061 -0.048696 0.028525 0.087879 -0.166927 0.044873 -0.169075 0.152382 -0.095249 -0.023962 0.038744 0.305910 0.008975 -0.174593 0.429795 0.184620 0.157150 0.132837 0.397934 -0.005985 0.252968 0.071454 -0.008061 -0.003404 0.238547 -0.139633 -0.087078 -0.080678 -0.083484 0.069104 -0.027895 -0.191733 -0.078303 0.001356 0.124745 0.097680 -0.227349 -0.049325 -0.140188 -0.054767 0.045320 0.187468 0.022412 -0.048427 0.193218 -0.018953 -0.303290 0.136013 -0.027261 0.056165 -0.010957 0.229228 -0.060803 -0.276252 0.319829 -0.242264 0.111313 0.074955 -0.306156 -0.110728 0.045796 -0.204780 0.078048 -0.138550 0.060702 -0.030357 -0.202336 -0.114607 -0.010792 0.320214 0.248769 -0.010910 0.176623 0.053425 -0.105293 0.015890 0.025620 0.288701 0.053464 0.125585 0.014764 -0.032425 -0.273389 0.011560 -0.040190 -0.055996 0.041828 -0.214514 0.108886 0.250315 -0.138518 0.052836 0.081522 -0.057503 -0.133427 -0.070131 0.070063 -0.303864 0.009325 0.085417 0.048359 -0.117632 -0.132924 0.031506 -0.108595 -0.015125 0.012333 0.204139 0.068318 0.041961 -0.185698 0.278913 -0.131583 -0.047093 -0.049572 -0.017881 0.148591 0.126191 -0.191469 -0.074555 -0.127282 -0.039748 -0.160057 -0.092030 0.029035 -0.066989 -0.003402 0.013373 -0.026457 0.068852 -0.123113 0.161017 -0.120710 -0.202902 0.182329 0.113623 0.040844 0.034741 -0.050682 -0.345568 -0.186918 0.132148 0.143405 0.180392 -0.026471 0.146167 0.169789 0.056618 0.145620 0.126100 0.093043 0.252979 -0.154081 -0.110603 0.065424 0.277423 -0.373579 -0.007212 -0.121908 -0.038047 -0.020791 -0.127745 -0.082205 0.132432 0.211089 0.197246 0.287898 0.210094 0.157056 -0.041016 0.211118 0.437742 -0.137697 -0.090153 -0.022829 0.261153 -0.041983 0.133460 -0.007321 -0.086071 -0.101348 0.252835 0.053922 0.120976 -0.085004 0.010644 0.061658 0.125117 -0.173477 0.203313 -0.183330 0.034069 0.103122 -0.025402 0.171861 0.083666 -0.133104 -0.179163 -0.135213 0.110793 0.039688 -0.081196 -0.014177 0.187121 0.195648 -0.148530 -0.023467 -0.084798 0.106087 0.275805 0.062921 -0.019204 0.142984 0.008655 -0.033558 0.024753 0.006188 0.130858 -0.201078 0.116768 -0.091449 -0.009757 -0.023896 0.023446 -0.076451 
or -0.027069 0.086245 -0.221142 0.107748 0.023576 0.078899 -0.127491 -0.319649 0.182752 -0.011602 0.113161 0.142302 0.020048 -0.264372 -0.180771 0.159324 -0.280290 -0.031676 -0.040663 -0.038204 0.078504 -0.030039 0.060952 0.122602 -0.205504 0.067289 0.126889 -0.182051 -0.151569 -0.162671 0.095837 -0.222378 -0.128960 -0.094953 0.023224 0.102348 0.056455 -0.031381 -0.227835 -0.374004 0.023081 -0.088191 -0.017194 -0.048676 0.005841 0.089423 -0.154259 0.292592 0.088333 0.333958 -0.043467 0.101115 -0.243067 -0.049471 -0.067535 -0.080198 0.200803 0.220300 -0.095541 -0.100668 -0.042363 -0.146115 0.055905 -0.159565 -0.167206 -0.137869 0.152497 -0.027100 0.229936 -0.006291 0.156965 -0.029059 -0.143152 -0.116571 0.137035 0.279729 0.217740 0.246875 0.227858 -0.183371 0.254832 -0.051621 -0.027340 -0.121634 -0.100601 0.165031 0.245321 0.185162 -0.144269 -0.251120 0.151349 0.309983 -0.124522 0.134090 -0.149028 0.398643 -0.091491 0.156086 0.052128 0.139946 0.065812 -0.125245 -0.030496 -0.038783 0.011470 -0.240850 -0.353218 -0.047532 -0.178557 -0.064535 -0.078847 -0.111362 -0.054033 -0.126809 0.271568 0.248738 0.077503 0.063053 -0.019486 0.250958 0.020234 -0.043010 0.017225 0.106815 0.133413 -0.097191 -0.041998 -0.037357 -0.009834 0.217933 0.045333 -0.220856 0.355635 0.030003 -0.340748 -0.022050 0.128265 0.038729 -0.068098 -0.073178 -0.198080 -0.147529 -0.072463 0.140992 0.016520 -0.137227 0.022160 0.223482 0.212701 0.012765 -0.048764 -0.087643 -0.141662 -0.085876 0.032318 -0.111912 -0.052275 -0.259455 0.204479 0.222281 0.011945 0.137924 -0.234016 -0.027958 0.113441 0.162476 0.245866 -0.014011 0.251654 0.089469 -0.086821 0.063718 -0.093287 0.051384 0.051393 -0.055827 -0.018470 0.066909 0.106975 0.055484 -0.232596 -0.031512 -0.042390 -0.027056 0.168115 0.055128 0.105829 0.089542 -0.012778 -0.157730 -0.117536 0.054279 0.015944 0.054176 -0.026129 0.168956 -0.069099 -0.056233 0.039230 0.254563 -0.041642 -0.184446 -0.178537 -0.055819 -0.212470 -0.156107 0.093177 -0.296470 -0.303654 0.169010 0.041227 0.197449 -0.087490 -0.029279 0.187141 0.185085 0.361790 0.176484 0.164054 -0.128100 0.250312 0.024022 0.122205 -0.139487 0.122867 0.115064 0.287210 -0.052794 -0.015404 -0.156409 0.172715 -0.202205 0.238601 -0.008144 0.056155 0.141957 0.216600 -0.047095 0.047574 0.262532 -0.205554 -0.068504 0.220917 -0.025372 0.047929 0.267929 -0.023159 0.048481 -0.282168 -0.018760 0.202377 -0.206364 0.113136 0.076783 -0.011347 0.126195 0.346609 0.062549 0.281256 0.085440 -0.232487 -0.015628 0.146466 0.257799 -0.123369 -0.043644 -0.149784 0.070328 -0.186590 0.048290 0.162354 -0.019991 -0.365885 0.063849 0.317709 -0.008065 -0.098549 0.096001 0.175497 -0.059622 -0.077535 -0.076211 0.113946 0.307191 0.171255 0.057328 0.021288 -0.057434 -0.180583 0.071994 -0.050568 0.006659 -0.056587 -0.038726 0.178870 -0.185458 -0.035608 0.437699 -0.045216 0.080481 
they 0.100486 -0.293373 0.182244 0.041277 -0.313618 0.231777 0.289295 0.117443 0.203404 0.165122 0.281478 0.411895 0.324703 0.053608 -0.223699 0.006665 -0.147029 0.079976 -0.246791 0.193026 0.221368 -0.203473 -0.217658 -0.024877 0.032573 0.093785 -0.154710 -0.134583 -0.126997 0.093151 -0.035111 -0.126562 0.071617 -0.148889 -0.236440 -0.048780 0.010904 -0.150798 -0.024482 -0.047367 0.030802 0.022250 -0.137797 -0.143748 0.136854 0.027288 -0.192330 -0.085733 0.051539 0.303586 -0.026173 0.091939 0.072233 0.012719 -0.311755 -0.017286 0.092617 0.218501 -0.157969 0.119200 0.163241 0.005025 0.311917 0.056083 0.152377 -0.016142 0.185589 0.033691 0.021316 -0.056520 -0.032985 0.245767 0.018549 -0.059915 0.124354 0.093080 0.130716 -0.029999 0.242745 0.002780 0.022534 -0.009357 0.030334 0.011486 -0.197541 0.176733 0.245433 0.045384 -0.277432 0.065883 0.030453 0.177532 -0.045554 0.158903 0.059210 0.206148 -0.127515 -0.036218 -0.131262 0.189151 -0.175953 0.204977 -0.380932 -0.008058 0.200923 -0.110208 0.103546 0.034670 -0.170905 -0.013445 0.037764 0.182410 -0.122230 -0.373325 -0.182486 -0.134431 -0.087200 0.025557 -0.168511 0.083543 0.136509 0.137537 0.160452 0.271635 -0.036764 -0.221745 -0.294276 0.100122 0.045189 0.131892 -0.099461 -0.093420 0.153678 -0.060329 -0.166777 -0.047642 0.134870 -0.041767 0.153604 0.147713 0.166092 -0.022734 0.039197 0.249721 -0.149069 0.133110 0.120992 -0.141057 0.209471 -0.122898 0.025335 0.290412 0.127739 0.121866 -0.102541 -0.038192 -0.130735 -0.148948 0.199072 0.073578 -0.314361 -0.112757 -0.047690 -0.081956 -0.279895 0.037026 0.169014 -0.218219 0.017957 -0.091881 -0.219711 -0.030135 0.110272 0.129865 -0.221032 -0.041601 0.069647 -0.180860 0.008343 0.119372 -0.128588 -0.307135 0.122435 -0.187400 0.187712 0.168796 -0.086225 0.160311 -0.269105 0.029298 -0.301661 0.026954 -0.009688 -0.117636 -0.173033 0.201689 0.001055 -0.220281 0.017205 0.063078 0.150484 -0.278807 -0.041234 -0.043344 -0.248014 -0.294582 0.030651 -0.155342 -0.268776 0.370039 0.027561 0.325359 -0.057622 0.128284 0.115667 0.058135 0.213185 0.094204 0.016734 -0.243411 0.274778 0.332918 0.070603 0.029494 0.054485 0.234526 -0.185667 0.076801 0.328571 0.061531 0.152914 -0.382174 0.251580 -0.250941 -0.052237 -0.057687 0.076567 -0.178363 0.043986 0.007237 -0.080509 -0.202376 0.077941 0.031158 -0.130502 0.082551 -0.003911 0.132313 -0.257772 0.261352 0.275032 -0.100896 -0.301201 0.083949 -0.139567 -0.008888 0.444003 0.127999 0.060357 0.002320 -0.330328 -0.015872 -0.121180 0.099612 0.077485 -0.353286 0.021477 0.218673 0.018297 -0.184415 0.241172 -0.169330 -0.193040 0.046229 -0.060503 0.103732 -0.370064 0.111782 0.270997 -0.054696 -0.191375 -0.030797 0.317782 0.105511 0.055923 0.264073 0.164688 -0.244215 0.270840 0.074466 -0.327456 -0.018569 -0.118340 0.410923 0.158685 0.101791 -0.059489 0.060573 -0.011051 0.062341 
